{
    "name": "Beans - FFA/Teams 8 Players NEW",
	"creator": "TheEffectTheCause",
    "version": "1",
    "description": "Plays really well with agressive players, Add Queller Uber AI to the mix to provoke agressive behaviour from players and prepare for a good match of PA.",
    "players": [
        8,
        8
    ],
    "planets": [
        {
            "name": "Silence",
            "mass": 5000,
            "position_x": 17100,
            "position_y": -19300,
            "velocity_x": 104.22576904296875,
            "velocity_y": 92.34510040283203,
            "required_thrust_to_move": 3,
            "starting_planet": true,
            "respawn": false,
            "start_destroyed": false,
            "min_spawn_delay": 0,
            "max_spawn_delay": 0,
            "planet": {
                "seed": 1409344000,
                "radius": 500,
                "heightRange": 0,
                "waterHeight": 0,
                "waterDepth": 100,
                "temperature": 0,
                "metalDensity": 0,
                "metalClusters": 0,
                "metalSpotLimit": -1,
                "biomeScale": 50,
                "biome": "moon",
                "symmetryType": "none",
                "symmetricalMetal": false,
                "symmetricalStarts": false,
                "numArmies": 2,
                "landingZonesPerArmy": 0,
                "landingZoneSize": 0
            },
            "planetCSG": [
                {
                    "spec": "/pa/terrain/lava/brushes/lava_plateau_04.json",
                    "weight": [
                        0,
                        0,
                        0,
                        0
                    ],
                    "proj": "BP_Bend",
                    "op": "BO_Add",
                    "transform": [
                        1.0788729190826416,
                        -0.012886762619018555,
                        0.13168714940547943,
                        56.955265045166016,
                        -0.012886762619018555,
                        1.0664124488830566,
                        0.20993532240390778,
                        90.79794311523438,
                        -0.13168714940547943,
                        -0.20993532240390778,
                        1.0583288669586182,
                        457.73187255859375
                    ],
                    "scale": [
                        1.08695650100708,
                        1.08695650100708,
                        1.08695650100708
                    ],
                    "rotation": 0,
                    "position": [
                        56.154563903808594,
                        89.52146911621094,
                        451.296875
                    ],
                    "height": 470.1134338378906,
                    "weightHard": false,
                    "weightScale": [
                        1,
                        1,
                        1
                    ],
                    "mirrored": false,
                    "twinId": 0,
                    "flooded": false,
                    "pathable": false,
                    "mergeable": false,
                    "no_features": false
                }
            ],
            "metal_spots": [
                [
                    0.7904052734375,
                    61.923797607421875,
                    -495.5083312988281
                ],
                [
                    -61.923797607421875,
                    0.7904052734375,
                    -495.5083312988281
                ],
                [
                    -0.7904052734375,
                    -61.923797607421875,
                    -495.5083312988281
                ],
                [
                    61.923797607421875,
                    -0.7904052734375,
                    -495.5083312988281
                ],
                [
                    0.014222186990082264,
                    -0.0369979627430439,
                    -499.5997009277344
                ],
                [
                    -296.24249267578125,
                    107.84111022949219,
                    -386.62872314453125
                ],
                [
                    -229.59249877929688,
                    114.22994232177734,
                    -427.7161865234375
                ],
                [
                    -458.2977294921875,
                    190.1849822998047,
                    -83.15242767333984
                ],
                [
                    -404.8991394042969,
                    121.668212890625,
                    -269.2944641113281
                ],
                [
                    -350.9999084472656,
                    119.54163360595703,
                    -335.2521667480469
                ],
                [
                    -184.46217346191406,
                    72.60893249511719,
                    -457.1194763183594
                ],
                [
                    -129.68670654296875,
                    29.234663009643555,
                    -479.5232238769531
                ],
                [
                    -455.976806640625,
                    213.25689697265625,
                    -7.8599348068237305
                ],
                [
                    -452.1124267578125,
                    211.5954132080078,
                    71.11383819580078
                ],
                [
                    -447.3102111816406,
                    191.9354248046875,
                    131.3737335205078
                ],
                [
                    -450.9983215332031,
                    163.62460327148438,
                    -147.3557891845703
                ],
                [
                    -437.8648986816406,
                    119.64861297607422,
                    -212.90707397460938
                ],
                [
                    -446.3901672363281,
                    155.40211486816406,
                    174.555908203125
                ],
                [
                    -454.2333068847656,
                    45.8799934387207,
                    210.14955139160156
                ],
                [
                    -308.18402099609375,
                    125.48566436767578,
                    376.5262756347656
                ],
                [
                    -310.7041015625,
                    176.06997680664062,
                    354.09991455078125
                ],
                [
                    -340.23529052734375,
                    196.52699279785156,
                    313.4668884277344
                ],
                [
                    -331.681884765625,
                    76.42931365966797,
                    368.6465148925781
                ],
                [
                    -460.2793884277344,
                    89.4661636352539,
                    181.74969482421875
                ],
                [
                    -107.84111022949219,
                    -296.24249267578125,
                    -386.62872314453125
                ],
                [
                    -114.22994232177734,
                    -229.59249877929688,
                    -427.7161865234375
                ],
                [
                    -190.1849822998047,
                    -458.2977294921875,
                    -83.15242767333984
                ],
                [
                    -121.668212890625,
                    -404.8991394042969,
                    -269.2944641113281
                ],
                [
                    -119.54163360595703,
                    -350.9999084472656,
                    -335.2521667480469
                ],
                [
                    -72.60893249511719,
                    -184.46217346191406,
                    -457.1194763183594
                ],
                [
                    -29.234663009643555,
                    -129.68670654296875,
                    -479.5232238769531
                ],
                [
                    -213.25689697265625,
                    -455.976806640625,
                    -7.8599348068237305
                ],
                [
                    -211.5954132080078,
                    -452.1124267578125,
                    71.11383819580078
                ],
                [
                    -191.9354248046875,
                    -447.3102111816406,
                    131.3737335205078
                ],
                [
                    -163.62460327148438,
                    -450.9983215332031,
                    -147.3557891845703
                ],
                [
                    -119.64861297607422,
                    -437.8648986816406,
                    -212.90707397460938
                ],
                [
                    -155.40211486816406,
                    -446.3901672363281,
                    174.555908203125
                ],
                [
                    -45.8799934387207,
                    -454.2333068847656,
                    210.14955139160156
                ],
                [
                    -125.48566436767578,
                    -308.18402099609375,
                    376.5262756347656
                ],
                [
                    -176.06997680664062,
                    -310.7041015625,
                    354.09991455078125
                ],
                [
                    -196.52699279785156,
                    -340.23529052734375,
                    313.4668884277344
                ],
                [
                    -76.42931365966797,
                    -331.681884765625,
                    368.6465148925781
                ],
                [
                    -89.4661636352539,
                    -460.2793884277344,
                    181.74969482421875
                ],
                [
                    296.24249267578125,
                    -107.84111022949219,
                    -386.62872314453125
                ],
                [
                    229.59249877929688,
                    -114.22994232177734,
                    -427.7161865234375
                ],
                [
                    458.2977294921875,
                    -190.1849822998047,
                    -83.15242767333984
                ],
                [
                    404.8991394042969,
                    -121.668212890625,
                    -269.2944641113281
                ],
                [
                    350.9999084472656,
                    -119.54163360595703,
                    -335.2521667480469
                ],
                [
                    184.46217346191406,
                    -72.60893249511719,
                    -457.1194763183594
                ],
                [
                    129.68670654296875,
                    -29.234663009643555,
                    -479.5232238769531
                ],
                [
                    455.976806640625,
                    -213.25689697265625,
                    -7.8599348068237305
                ],
                [
                    452.1124267578125,
                    -211.5954132080078,
                    71.11383819580078
                ],
                [
                    447.3102111816406,
                    -191.9354248046875,
                    131.3737335205078
                ],
                [
                    450.9983215332031,
                    -163.62460327148438,
                    -147.3557891845703
                ],
                [
                    437.8648986816406,
                    -119.64861297607422,
                    -212.90707397460938
                ],
                [
                    446.3901672363281,
                    -155.40211486816406,
                    174.555908203125
                ],
                [
                    454.2333068847656,
                    -45.8799934387207,
                    210.14955139160156
                ],
                [
                    308.18402099609375,
                    -125.48566436767578,
                    376.5262756347656
                ],
                [
                    310.7041015625,
                    -176.06997680664062,
                    354.09991455078125
                ],
                [
                    340.23529052734375,
                    -196.52699279785156,
                    313.4668884277344
                ],
                [
                    331.681884765625,
                    -76.42931365966797,
                    368.6465148925781
                ],
                [
                    460.2793884277344,
                    -89.4661636352539,
                    181.74969482421875
                ],
                [
                    107.84111022949219,
                    296.24249267578125,
                    -386.62872314453125
                ],
                [
                    114.22994232177734,
                    229.59249877929688,
                    -427.7161865234375
                ],
                [
                    190.1849822998047,
                    458.2977294921875,
                    -83.15242767333984
                ],
                [
                    121.668212890625,
                    404.8991394042969,
                    -269.2944641113281
                ],
                [
                    119.54163360595703,
                    350.9999084472656,
                    -335.2521667480469
                ],
                [
                    72.60893249511719,
                    184.46217346191406,
                    -457.1194763183594
                ],
                [
                    29.234663009643555,
                    129.68670654296875,
                    -479.5232238769531
                ],
                [
                    213.25689697265625,
                    455.976806640625,
                    -7.8599348068237305
                ],
                [
                    211.5954132080078,
                    452.1124267578125,
                    71.11383819580078
                ],
                [
                    191.9354248046875,
                    447.3102111816406,
                    131.3737335205078
                ],
                [
                    163.62460327148438,
                    450.9983215332031,
                    -147.3557891845703
                ],
                [
                    119.64861297607422,
                    437.8648986816406,
                    -212.90707397460938
                ],
                [
                    155.40211486816406,
                    446.3901672363281,
                    174.555908203125
                ],
                [
                    45.8799934387207,
                    454.2333068847656,
                    210.14955139160156
                ],
                [
                    125.48566436767578,
                    308.18402099609375,
                    376.5262756347656
                ],
                [
                    176.06997680664062,
                    310.7041015625,
                    354.09991455078125
                ],
                [
                    196.52699279785156,
                    340.23529052734375,
                    313.4668884277344
                ],
                [
                    76.42931365966797,
                    331.681884765625,
                    368.6465148925781
                ],
                [
                    89.4661636352539,
                    460.2793884277344,
                    181.74969482421875
                ],
                [
                    -43.22783660888672,
                    44.345638275146484,
                    495.5083312988281
                ],
                [
                    -44.345638275146484,
                    -43.22783660888672,
                    495.5083312988281
                ],
                [
                    43.22783660888672,
                    -44.345638275146484,
                    495.5083312988281
                ],
                [
                    44.345638275146484,
                    43.22783660888672,
                    495.5083312988281
                ],
                [
                    0.03621811419725418,
                    -0.016104906797409058,
                    499.5997009277344
                ],
                [
                    -285.7302551269531,
                    -133.2198944091797,
                    386.62872314453125
                ],
                [
                    -243.11917114257812,
                    -81.57364654541016,
                    427.7161865234375
                ],
                [
                    -458.5465087890625,
                    -189.58433532714844,
                    83.15242767333984
                ],
                [
                    -372.3393249511719,
                    -200.27450561523438,
                    269.2944641113281
                ],
                [
                    -332.7231140136719,
                    -163.6657257080078,
                    335.2521667480469
                ],
                [
                    -181.77671813964844,
                    -79.0921859741211,
                    457.1194763183594
                ],
                [
                    -112.37437438964844,
                    -71.03031921386719,
                    479.5232238769531
                ],
                [
                    -473.2196960449219,
                    -171.62889099121094,
                    7.8599348068237305
                ],
                [
                    -469.31231689453125,
                    -170.07119750976562,
                    -71.11383819580078
                ],
                [
                    -452.0149230957031,
                    -180.57723999023438,
                    -131.3737335205078
                ],
                [
                    -434.6040344238281,
                    -203.2039031982422,
                    147.3557891845703
                ],
                [
                    -394.2215576171875,
                    -225.01287841796875,
                    212.90707397460938
                ],
                [
                    -425.5314025878906,
                    -205.75962829589844,
                    -174.555908203125
                ],
                [
                    -353.6335144042969,
                    -288.7494201660156,
                    -210.14955139160156
                ],
                [
                    -306.6507568359375,
                    -129.18724060058594,
                    -376.5262756347656
                ],
                [
                    -344.2012634277344,
                    -95.2007064819336,
                    -354.09991455078125
                ],
                [
                    -379.54827880859375,
                    -101.61711883544922,
                    -313.4668884277344
                ],
                [
                    -288.5782165527344,
                    -180.49082946777344,
                    -368.6465148925781
                ],
                [
                    -388.7287902832031,
                    -262.20452880859375,
                    -181.74969482421875
                ],
                [
                    133.2198944091797,
                    -285.7302551269531,
                    386.62872314453125
                ],
                [
                    81.57364654541016,
                    -243.11917114257812,
                    427.7161865234375
                ],
                [
                    189.58433532714844,
                    -458.5465087890625,
                    83.15242767333984
                ],
                [
                    200.27450561523438,
                    -372.3393249511719,
                    269.2944641113281
                ],
                [
                    163.6657257080078,
                    -332.7231140136719,
                    335.2521667480469
                ],
                [
                    79.0921859741211,
                    -181.77671813964844,
                    457.1194763183594
                ],
                [
                    71.03031921386719,
                    -112.37437438964844,
                    479.5232238769531
                ],
                [
                    171.62889099121094,
                    -473.2196960449219,
                    7.8599348068237305
                ],
                [
                    170.07119750976562,
                    -469.31231689453125,
                    -71.11383819580078
                ],
                [
                    180.57723999023438,
                    -452.0149230957031,
                    -131.3737335205078
                ],
                [
                    203.2039031982422,
                    -434.6040344238281,
                    147.3557891845703
                ],
                [
                    225.01287841796875,
                    -394.2215576171875,
                    212.90707397460938
                ],
                [
                    205.75962829589844,
                    -425.5314025878906,
                    -174.555908203125
                ],
                [
                    288.7494201660156,
                    -353.6335144042969,
                    -210.14955139160156
                ],
                [
                    129.18724060058594,
                    -306.6507568359375,
                    -376.5262756347656
                ],
                [
                    95.2007064819336,
                    -344.2012634277344,
                    -354.09991455078125
                ],
                [
                    101.61711883544922,
                    -379.54827880859375,
                    -313.4668884277344
                ],
                [
                    180.49082946777344,
                    -288.5782165527344,
                    -368.6465148925781
                ],
                [
                    262.20452880859375,
                    -388.7287902832031,
                    -181.74969482421875
                ],
                [
                    285.7302551269531,
                    133.2198944091797,
                    386.62872314453125
                ],
                [
                    243.11917114257812,
                    81.57364654541016,
                    427.7161865234375
                ],
                [
                    458.5465087890625,
                    189.58433532714844,
                    83.15242767333984
                ],
                [
                    372.3393249511719,
                    200.27450561523438,
                    269.2944641113281
                ],
                [
                    332.7231140136719,
                    163.6657257080078,
                    335.2521667480469
                ],
                [
                    181.77671813964844,
                    79.0921859741211,
                    457.1194763183594
                ],
                [
                    112.37437438964844,
                    71.03031921386719,
                    479.5232238769531
                ],
                [
                    473.2196960449219,
                    171.62889099121094,
                    7.8599348068237305
                ],
                [
                    469.31231689453125,
                    170.07119750976562,
                    -71.11383819580078
                ],
                [
                    452.0149230957031,
                    180.57723999023438,
                    -131.3737335205078
                ],
                [
                    434.6040344238281,
                    203.2039031982422,
                    147.3557891845703
                ],
                [
                    394.2215576171875,
                    225.01287841796875,
                    212.90707397460938
                ],
                [
                    425.5314025878906,
                    205.75962829589844,
                    -174.555908203125
                ],
                [
                    353.6335144042969,
                    288.7494201660156,
                    -210.14955139160156
                ],
                [
                    306.6507568359375,
                    129.18724060058594,
                    -376.5262756347656
                ],
                [
                    344.2012634277344,
                    95.2007064819336,
                    -354.09991455078125
                ],
                [
                    379.54827880859375,
                    101.61711883544922,
                    -313.4668884277344
                ],
                [
                    288.5782165527344,
                    180.49082946777344,
                    -368.6465148925781
                ],
                [
                    388.7287902832031,
                    262.20452880859375,
                    -181.74969482421875
                ],
                [
                    -133.2198944091797,
                    285.7302551269531,
                    386.62872314453125
                ],
                [
                    -81.57364654541016,
                    243.11917114257812,
                    427.7161865234375
                ],
                [
                    -189.58433532714844,
                    458.5465087890625,
                    83.15242767333984
                ],
                [
                    -200.27450561523438,
                    372.3393249511719,
                    269.2944641113281
                ],
                [
                    -163.6657257080078,
                    332.7231140136719,
                    335.2521667480469
                ],
                [
                    -79.0921859741211,
                    181.77671813964844,
                    457.1194763183594
                ],
                [
                    -71.03031921386719,
                    112.37437438964844,
                    479.5232238769531
                ],
                [
                    -171.62889099121094,
                    473.2196960449219,
                    7.8599348068237305
                ],
                [
                    -170.07119750976562,
                    469.31231689453125,
                    -71.11383819580078
                ],
                [
                    -180.57723999023438,
                    452.0149230957031,
                    -131.3737335205078
                ],
                [
                    -203.2039031982422,
                    434.6040344238281,
                    147.3557891845703
                ],
                [
                    -225.01287841796875,
                    394.2215576171875,
                    212.90707397460938
                ],
                [
                    -205.75962829589844,
                    425.5314025878906,
                    -174.555908203125
                ],
                [
                    -288.7494201660156,
                    353.6335144042969,
                    -210.14955139160156
                ],
                [
                    -129.18724060058594,
                    306.6507568359375,
                    -376.5262756347656
                ],
                [
                    -95.2007064819336,
                    344.2012634277344,
                    -354.09991455078125
                ],
                [
                    -101.61711883544922,
                    379.54827880859375,
                    -313.4668884277344
                ],
                [
                    -180.49082946777344,
                    288.5782165527344,
                    -368.6465148925781
                ],
                [
                    -262.20452880859375,
                    388.7287902832031,
                    -181.74969482421875
                ]
            ],
            "landing_zones": {
                "list": [
                    [
                        181.10496520996094,
                        -348.1560974121094,
                        -306.8206481933594
                    ],
                    [
                        374.45269775390625,
                        -123.12968444824219,
                        310.21368408203125
                    ],
                    [
                        -374.9416809082031,
                        117.97886657714844,
                        312.25653076171875
                    ],
                    [
                        -180.58265686035156,
                        344.045166015625,
                        -315.7510986328125
                    ],
                    [
                        -347.4217224121094,
                        -177.5052947998047,
                        -307.9116516113281
                    ],
                    [
                        -119.1619873046875,
                        -376.55267333984375,
                        306.7753601074219
                    ],
                    [
                        351.8962707519531,
                        176.5969696044922,
                        -308.1517639160156
                    ],
                    [
                        117.65461730957031,
                        375.2315979003906,
                        311.6688537597656
                    ]
                ],
                "rules": [
                    {
                        "min": 0,
                        "max": 10
                    },
                    {
                        "min": 0,
                        "max": 10
                    },
                    {
                        "min": 0,
                        "max": 10
                    },
                    {
                        "min": 0,
                        "max": 10
                    },
                    {
                        "min": 0,
                        "max": 10
                    },
                    {
                        "min": 0,
                        "max": 10
                    },
                    {
                        "min": 0,
                        "max": 10
                    },
                    {
                        "min": 0,
                        "max": 10
                    }
                ]
            }
        }
    ]
}