{
    "name": "Clickbait 1v1 Shared",
    "creator": "TheEffectTheCause",
    "version": "1",
    "description": "A lava planet for all styles of play, A focus on combat at the front and expansion for eco on the rear, A micro heavy 1v1 shared team map",
    "players": [
        2,
        6
    ],
    "planets": [
        {
            "name": "The Core.",
            "mass": 10000,
            "position_x": -16400,
            "position_y": -28200,
            "velocity_x": 107.02042388916016,
            "velocity_y": -62.23882293701172,
            "required_thrust_to_move": 0,
            "starting_planet": true,
            "respawn": false,
            "start_destroyed": false,
            "min_spawn_delay": 0,
            "max_spawn_delay": 0,
            "planet": {
                "seed": 1213876352,
                "radius": 560,
                "heightRange": 31,
                "waterHeight": 31,
                "waterDepth": 100,
                "temperature": 100,
                "metalDensity": 75,
                "metalClusters": 75,
                "metalSpotLimit": -1,
                "biomeScale": 50,
                "biome": "lava",
                "symmetryType": "terrain",
                "symmetricalMetal": true,
                "symmetricalStarts": true,
                "numArmies": 2,
                "landingZonesPerArmy": 0,
                "landingZoneSize": 0
            },
            "source": {
                "metal_spots": [
                    [
                        382.06280517578125,
                        -398.592529296875,
                        -48.868648529052734
                    ],
                    [
                        382.06280517578125,
                        -398.592529296875,
                        48.868648529052734
                    ],
                    [
                        440.2161865234375,
                        -327.6768493652344,
                        -71.377197265625
                    ],
                    [
                        440.2161865234375,
                        -327.6768493652344,
                        71.377197265625
                    ],
                    [
                        469.25250244140625,
                        288.1597900390625,
                        -127.65660858154297
                    ],
                    [
                        469.25250244140625,
                        288.1597900390625,
                        127.65660858154297
                    ],
                    [
                        510.0020751953125,
                        209.122314453125,
                        -49.21703338623047
                    ],
                    [
                        510.0020751953125,
                        209.122314453125,
                        49.21703338623047
                    ],
                    [
                        463.37994384765625,
                        314.3553161621094,
                        -60.13533020019531
                    ],
                    [
                        463.37994384765625,
                        314.3553161621094,
                        60.13533020019531
                    ],
                    [
                        -384.83740234375,
                        -10.1763916015625,
                        -399.24298095703125
                    ],
                    [
                        -384.83740234375,
                        -10.1763916015625,
                        399.24298095703125
                    ],
                    [
                        -394.2147216796875,
                        49.91197204589844,
                        -388.46435546875
                    ],
                    [
                        -394.2147216796875,
                        49.91197204589844,
                        388.46435546875
                    ],
                    [
                        -87.3744125366211,
                        258.55975341796875,
                        -484.53436279296875
                    ],
                    [
                        -87.3744125366211,
                        258.55975341796875,
                        484.53436279296875
                    ],
                    [
                        -35.99342346191406,
                        271.25860595703125,
                        -483.5052490234375
                    ],
                    [
                        -35.99342346191406,
                        271.25860595703125,
                        483.5052490234375
                    ],
                    [
                        256.955322265625,
                        369.8409423828125,
                        -334.47003173828125
                    ],
                    [
                        256.955322265625,
                        369.8409423828125,
                        334.47003173828125
                    ],
                    [
                        286.51861572265625,
                        316.535888671875,
                        -366.06170654296875
                    ],
                    [
                        286.51861572265625,
                        316.535888671875,
                        366.06170654296875
                    ],
                    [
                        -314.79058837890625,
                        -435.95953369140625,
                        141.15830993652344
                    ],
                    [
                        -314.79058837890625,
                        -435.95953369140625,
                        -141.15830993652344
                    ],
                    [
                        -217.76556396484375,
                        -503.12725830078125,
                        -90.92488098144531
                    ],
                    [
                        -217.76556396484375,
                        -503.12725830078125,
                        90.92488098144531
                    ],
                    [
                        -283.14520263671875,
                        -481.6773986816406,
                        42.52980041503906
                    ],
                    [
                        -283.14520263671875,
                        -481.6773986816406,
                        -42.52980041503906
                    ],
                    [
                        142.80117797851562,
                        534.3509521484375,
                        88.14025115966797
                    ],
                    [
                        142.80117797851562,
                        534.3509521484375,
                        -88.14025115966797
                    ],
                    [
                        146.94091796875,
                        536.860595703125,
                        0.32562255859375
                    ],
                    [
                        -259.95233154296875,
                        476.6297607421875,
                        102.4403305053711
                    ],
                    [
                        -259.95233154296875,
                        476.6297607421875,
                        -102.4403305053711
                    ],
                    [
                        -302.9307861328125,
                        442.7886962890625,
                        147.25332641601562
                    ],
                    [
                        -302.9307861328125,
                        442.7886962890625,
                        -147.25332641601562
                    ],
                    [
                        -314.41357421875,
                        449.70233154296875,
                        92.77723693847656
                    ],
                    [
                        -314.41357421875,
                        449.70233154296875,
                        -92.77723693847656
                    ],
                    [
                        148.16119384765625,
                        -157.01748657226562,
                        -513.247802734375
                    ],
                    [
                        148.16119384765625,
                        -157.01748657226562,
                        513.247802734375
                    ],
                    [
                        96.12811279296875,
                        -149.3040313720703,
                        -524.815673828125
                    ],
                    [
                        96.12811279296875,
                        -149.3040313720703,
                        524.815673828125
                    ],
                    [
                        4.656715393066406,
                        -198.99673461914062,
                        -516.2244262695312
                    ],
                    [
                        4.656715393066406,
                        -198.99673461914062,
                        516.2244262695312
                    ],
                    [
                        376.4693603515625,
                        -191.3502197265625,
                        -371.63616943359375
                    ],
                    [
                        376.4693603515625,
                        -191.3502197265625,
                        371.63616943359375
                    ],
                    [
                        43.60481262207031,
                        -167.16302490234375,
                        -525.29345703125
                    ],
                    [
                        43.60481262207031,
                        -167.16302490234375,
                        525.29345703125
                    ],
                    [
                        357.44659423828125,
                        88.31910705566406,
                        -418.71832275390625
                    ],
                    [
                        357.44659423828125,
                        88.31910705566406,
                        418.71832275390625
                    ],
                    [
                        -126.41726684570312,
                        -338.6656494140625,
                        427.349853515625
                    ],
                    [
                        -126.41726684570312,
                        -338.6656494140625,
                        -427.349853515625
                    ],
                    [
                        61.1832275390625,
                        -483.96112060546875,
                        277.8592224121094
                    ],
                    [
                        61.1832275390625,
                        -483.96112060546875,
                        -277.8592224121094
                    ],
                    [
                        -6.87841796875,
                        -494.412353515625,
                        266.3360290527344
                    ],
                    [
                        -6.87841796875,
                        -494.412353515625,
                        -266.3360290527344
                    ],
                    [
                        32.58835220336914,
                        -511.87884521484375,
                        227.1771697998047
                    ],
                    [
                        32.58835220336914,
                        -511.87884521484375,
                        -227.1771697998047
                    ],
                    [
                        -526.5015869140625,
                        179.56387329101562,
                        0.6049156188964844
                    ],
                    [
                        -542.6185913085938,
                        -141.6610107421875,
                        -90.34276580810547
                    ],
                    [
                        -542.6185913085938,
                        -141.6610107421875,
                        90.34276580810547
                    ],
                    [
                        -521.1627197265625,
                        176.59947204589844,
                        -55.603004455566406
                    ],
                    [
                        -521.1627197265625,
                        176.59947204589844,
                        55.603004455566406
                    ],
                    [
                        -420.3575744628906,
                        -44.36219787597656,
                        358.7384033203125
                    ],
                    [
                        -420.3575744628906,
                        -44.36219787597656,
                        -358.7384033203125
                    ],
                    [
                        -327.182373046875,
                        10.77847671508789,
                        445.6202697753906
                    ],
                    [
                        -327.182373046875,
                        10.77847671508789,
                        -445.6202697753906
                    ]
                ],
                "landing_zones": {
                    "list": [
                        [
                            93.8780517578125,
                            -248.8251953125,
                            -491.96923828125
                        ],
                        [
                            93.8780517578125,
                            -248.8251953125,
                            491.96923828125
                        ]
                    ],
                    "rules": [
                        {
                            "min": 0,
                            "max": 10
                        },
                        {
                            "min": 0,
                            "max": 10
                        }
                    ]
                }
            },
            "planetCSG": [
                {
                    "weight": [
                        1,
                        1,
                        1,
                        1
                    ],
                    "spec": "/pa/terrain/lava/brushes/lava_plateau_09.json",
                    "proj": "BP_Bend",
                    "transform": [
                        -2.257094383239746,
                        -1.1227810382843018,
                        3.2207119464874268,
                        440.2346496582031,
                        -0.6409056186676025,
                        3.9328665733337402,
                        0.9218970537185669,
                        126.01283264160156,
                        -3.3500542640686035,
                        0.004067659378051758,
                        -2.346320152282715,
                        -320.71527099609375
                    ],
                    "op": "BO_Add",
                    "rotation": 0.2799999713897705,
                    "scale": [
                        4.089999198913574,
                        4.089999198913574,
                        4.089999198913574
                    ],
                    "height": 559.0563354492188,
                    "position": [
                        443.384521484375,
                        126.91445922851562,
                        -323.0098571777344
                    ],
                    "weightHard": false,
                    "weightScale": [
                        1,
                        1,
                        1
                    ],
                    "mirrored": false,
                    "twinId": 0,
                    "flooded": false,
                    "pathable": false,
                    "mergeable": false,
                    "no_features": false
                },
                {
                    "weight": [
                        1,
                        1,
                        1,
                        1
                    ],
                    "spec": "/pa/terrain/lava/brushes/lava_plateau_09.json",
                    "proj": "BP_Bend",
                    "transform": [
                        -2.257094383239746,
                        -1.1227810382843018,
                        3.2207119464874268,
                        440.234619140625,
                        -0.6409056186676025,
                        3.9328665733337402,
                        0.9218970537185669,
                        126.01282501220703,
                        3.3500542640686035,
                        -0.004067659378051758,
                        2.346320152282715,
                        320.71527099609375
                    ],
                    "op": "BO_Add",
                    "rotation": 0.2799999713897705,
                    "scale": [
                        4.089999198913574,
                        4.089999198913574,
                        4.089999198913574
                    ],
                    "height": 559.0563354492188,
                    "position": [
                        443.384521484375,
                        126.91445922851562,
                        -323.0098571777344
                    ],
                    "weightHard": false,
                    "weightScale": [
                        1,
                        1,
                        1
                    ],
                    "mirrored": true,
                    "twinId": 0,
                    "flooded": false,
                    "pathable": false,
                    "mergeable": false,
                    "no_features": false
                },
                {
                    "weight": [
                        1,
                        1,
                        1,
                        1
                    ],
                    "spec": "/pa/terrain/lava/brushes/lava_plateau_09.json",
                    "proj": "BP_Bend",
                    "transform": [
                        -0.21659886837005615,
                        3.484208345413208,
                        -1.341997504234314,
                        -196.4304962158203,
                        3.632206916809082,
                        0.5079541206359863,
                        0.73255455493927,
                        107.22527313232422,
                        0.8647187352180481,
                        -1.260894536972046,
                        -3.413207769393921,
                        -499.59710693359375
                    ],
                    "op": "BO_Add",
                    "rotation": 0.4699998199939728,
                    "scale": [
                        3.739997386932373,
                        3.739997386932373,
                        3.739997386932373
                    ],
                    "height": 547.4298706054688,
                    "position": [
                        -196.4302978515625,
                        107.22517395019531,
                        -499.59716796875
                    ],
                    "weightHard": false,
                    "weightScale": [
                        1,
                        1,
                        1
                    ],
                    "mirrored": false,
                    "twinId": 0,
                    "flooded": false,
                    "pathable": false,
                    "mergeable": false,
                    "no_features": false
                },
                {
                    "weight": [
                        1,
                        1,
                        1,
                        1
                    ],
                    "spec": "/pa/terrain/lava/brushes/lava_plateau_09.json",
                    "proj": "BP_Bend",
                    "transform": [
                        -0.21659886837005615,
                        3.484208345413208,
                        -1.341997504234314,
                        -196.4304962158203,
                        3.632206916809082,
                        0.5079541206359863,
                        0.73255455493927,
                        107.22527313232422,
                        -0.8647187352180481,
                        1.260894536972046,
                        3.413207769393921,
                        499.59710693359375
                    ],
                    "op": "BO_Add",
                    "rotation": 0.4699998199939728,
                    "scale": [
                        3.739997386932373,
                        3.739997386932373,
                        3.739997386932373
                    ],
                    "height": 547.4298706054688,
                    "position": [
                        -196.4302978515625,
                        107.22517395019531,
                        -499.59716796875
                    ],
                    "weightHard": false,
                    "weightScale": [
                        1,
                        1,
                        1
                    ],
                    "mirrored": true,
                    "twinId": 0,
                    "flooded": false,
                    "pathable": false,
                    "mergeable": false,
                    "no_features": false
                },
                {
                    "weight": [
                        1,
                        1,
                        1,
                        1
                    ],
                    "spec": "/pa/terrain/lava/brushes/lava_plateau_09.json",
                    "proj": "BP_Bend",
                    "transform": [
                        -1.0617889165878296,
                        1.636784553527832,
                        -3.9883720874786377,
                        -485.40838623046875,
                        1.636784553527832,
                        3.953052282333374,
                        1.1865431070327759,
                        144.40928649902344,
                        3.9883720874786377,
                        -1.1865431070327759,
                        -1.548733115196228,
                        -188.4899444580078
                    ],
                    "op": "BO_Add",
                    "rotation": 0,
                    "scale": [
                        4.439996719360352,
                        4.439996719360352,
                        4.439996719360352
                    ],
                    "height": 540.373779296875,
                    "position": [
                        -486.306640625,
                        144.676513671875,
                        -188.83880615234375
                    ],
                    "weightHard": false,
                    "weightScale": [
                        1,
                        1,
                        1
                    ],
                    "mirrored": false,
                    "twinId": 0,
                    "flooded": false,
                    "pathable": false,
                    "mergeable": false,
                    "no_features": false
                },
                {
                    "weight": [
                        1,
                        1,
                        1,
                        1
                    ],
                    "spec": "/pa/terrain/lava/brushes/lava_plateau_09.json",
                    "proj": "BP_Bend",
                    "transform": [
                        -1.0617889165878296,
                        1.636784553527832,
                        -3.9883720874786377,
                        -485.40838623046875,
                        1.636784553527832,
                        3.953052282333374,
                        1.1865431070327759,
                        144.40928649902344,
                        -3.9883720874786377,
                        1.1865431070327759,
                        1.548733115196228,
                        188.4899444580078
                    ],
                    "op": "BO_Add",
                    "rotation": 0,
                    "scale": [
                        4.439996719360352,
                        4.439996719360352,
                        4.439996719360352
                    ],
                    "height": 540.373779296875,
                    "position": [
                        -486.306640625,
                        144.676513671875,
                        -188.83880615234375
                    ],
                    "weightHard": false,
                    "weightScale": [
                        1,
                        1,
                        1
                    ],
                    "mirrored": true,
                    "twinId": 0,
                    "flooded": false,
                    "pathable": false,
                    "mergeable": false,
                    "no_features": false
                },
                {
                    "weight": [
                        1,
                        1,
                        1,
                        1
                    ],
                    "spec": "/pa/terrain/lava/brushes/lava_plateau_09.json",
                    "proj": "BP_Bend",
                    "transform": [
                        2.333970546722412,
                        2.3028554916381836,
                        -1.5342168807983398,
                        -234.96705627441406,
                        2.3028554916381836,
                        -0.5036666393280029,
                        2.7472827434539795,
                        420.7494812011719,
                        1.5342168807983398,
                        -2.7472827434539795,
                        -1.7896935939788818,
                        -274.0936279296875
                    ],
                    "op": "BO_Add",
                    "rotation": 0,
                    "scale": [
                        3.619997501373291,
                        3.619997501373291,
                        3.619997501373291
                    ],
                    "height": 554.40673828125,
                    "position": [
                        -234.967041015625,
                        420.7493896484375,
                        -274.093505859375
                    ],
                    "weightHard": false,
                    "weightScale": [
                        1,
                        1,
                        1
                    ],
                    "mirrored": false,
                    "twinId": 0,
                    "flooded": false,
                    "pathable": false,
                    "mergeable": false,
                    "no_features": false
                },
                {
                    "weight": [
                        1,
                        1,
                        1,
                        1
                    ],
                    "spec": "/pa/terrain/lava/brushes/lava_plateau_09.json",
                    "proj": "BP_Bend",
                    "transform": [
                        2.333970546722412,
                        2.3028554916381836,
                        -1.5342168807983398,
                        -234.96705627441406,
                        2.3028554916381836,
                        -0.5036666393280029,
                        2.7472827434539795,
                        420.7494812011719,
                        -1.5342168807983398,
                        2.7472827434539795,
                        1.7896935939788818,
                        274.0936279296875
                    ],
                    "op": "BO_Add",
                    "rotation": 0,
                    "scale": [
                        3.619997501373291,
                        3.619997501373291,
                        3.619997501373291
                    ],
                    "height": 554.40673828125,
                    "position": [
                        -234.967041015625,
                        420.7493896484375,
                        -274.093505859375
                    ],
                    "weightHard": false,
                    "weightScale": [
                        1,
                        1,
                        1
                    ],
                    "mirrored": true,
                    "twinId": 0,
                    "flooded": false,
                    "pathable": false,
                    "mergeable": false,
                    "no_features": false
                },
                {
                    "weight": [
                        1,
                        1,
                        1,
                        1
                    ],
                    "spec": "/pa/terrain/lava/brushes/lava_plateau_09.json",
                    "proj": "BP_Bend",
                    "transform": [
                        3.144102096557617,
                        0.02714364044368267,
                        -0.31539174914360046,
                        -54.419189453125,
                        0.02714364044368267,
                        3.1136474609375,
                        0.5385622382164001,
                        92.92607879638672,
                        0.31539174914360046,
                        -0.5385622382164001,
                        3.0977516174316406,
                        534.500732421875
                    ],
                    "op": "BO_Add",
                    "rotation": 0,
                    "scale": [
                        3.1599979400634766,
                        3.1599979400634766,
                        3.1599979400634766
                    ],
                    "height": 545.2410278320312,
                    "position": [
                        -54.419189453125,
                        92.92608642578125,
                        534.500732421875
                    ],
                    "weightHard": false,
                    "weightScale": [
                        1,
                        1,
                        1
                    ],
                    "mirrored": false,
                    "twinId": 0,
                    "flooded": false,
                    "pathable": false,
                    "mergeable": false,
                    "no_features": false
                },
                {
                    "weight": [
                        1,
                        1,
                        1,
                        1
                    ],
                    "spec": "/pa/terrain/lava/brushes/lava_plateau_09.json",
                    "proj": "BP_Bend",
                    "transform": [
                        3.144102096557617,
                        0.02714364044368267,
                        -0.31539174914360046,
                        -54.419189453125,
                        0.02714364044368267,
                        3.1136474609375,
                        0.5385622382164001,
                        92.92607116699219,
                        -0.31539174914360046,
                        0.5385622382164001,
                        -3.0977516174316406,
                        -534.500732421875
                    ],
                    "op": "BO_Add",
                    "rotation": 0,
                    "scale": [
                        3.1599979400634766,
                        3.1599979400634766,
                        3.1599979400634766
                    ],
                    "height": 545.2410278320312,
                    "position": [
                        -54.419189453125,
                        92.92608642578125,
                        534.500732421875
                    ],
                    "weightHard": false,
                    "weightScale": [
                        1,
                        1,
                        1
                    ],
                    "mirrored": true,
                    "twinId": 0,
                    "flooded": false,
                    "pathable": false,
                    "mergeable": false,
                    "no_features": false
                },
                {
                    "weight": [
                        1,
                        1,
                        1,
                        1
                    ],
                    "spec": "/pa/terrain/lava/brushes/lava_plateau_09.json",
                    "proj": "BP_Bend",
                    "transform": [
                        3.916379690170288,
                        -0.0028506191447377205,
                        0.16834749281406403,
                        23.247289657592773,
                        -0.0028506191447377205,
                        3.917750835418701,
                        0.13265490531921387,
                        18.31846046447754,
                        -0.16834749281406403,
                        -0.13265490531921387,
                        3.914133310317993,
                        540.5069580078125
                    ],
                    "op": "BO_Add",
                    "rotation": 0,
                    "scale": [
                        3.919997215270996,
                        3.919997215270996,
                        3.919997215270996
                    ],
                    "height": 541.3167114257812,
                    "position": [
                        23.376129150390625,
                        18.41998291015625,
                        543.50244140625
                    ],
                    "weightHard": false,
                    "weightScale": [
                        1,
                        1,
                        1
                    ],
                    "mirrored": false,
                    "twinId": 0,
                    "flooded": false,
                    "pathable": false,
                    "mergeable": false,
                    "no_features": false
                },
                {
                    "weight": [
                        1,
                        1,
                        1,
                        1
                    ],
                    "spec": "/pa/terrain/lava/brushes/lava_plateau_09.json",
                    "proj": "BP_Bend",
                    "transform": [
                        3.916379690170288,
                        -0.0028506191447377205,
                        0.16834749281406403,
                        23.247289657592773,
                        -0.0028506191447377205,
                        3.917750835418701,
                        0.13265490531921387,
                        18.31846046447754,
                        0.16834749281406403,
                        0.13265490531921387,
                        -3.914133310317993,
                        -540.5069580078125
                    ],
                    "op": "BO_Add",
                    "rotation": 0,
                    "scale": [
                        3.919997215270996,
                        3.919997215270996,
                        3.919997215270996
                    ],
                    "height": 541.3167114257812,
                    "position": [
                        23.376129150390625,
                        18.41998291015625,
                        543.50244140625
                    ],
                    "weightHard": false,
                    "weightScale": [
                        1,
                        1,
                        1
                    ],
                    "mirrored": true,
                    "twinId": 0,
                    "flooded": false,
                    "pathable": false,
                    "mergeable": false,
                    "no_features": false
                },
                {
                    "weight": [
                        1,
                        1,
                        1,
                        1
                    ],
                    "spec": "/pa/terrain/lava/brushes/lava_plateau_09.json",
                    "proj": "BP_Bend",
                    "transform": [
                        3.14033842086792,
                        1.2730953693389893,
                        -0.8760629296302795,
                        -139.03933715820312,
                        1.2730953693389893,
                        -1.0064125061035156,
                        3.1010239124298096,
                        492.1613464355469,
                        0.8760629296302795,
                        -3.1010239124298096,
                        -1.3660717010498047,
                        -216.80828857421875
                    ],
                    "op": "BO_Add",
                    "rotation": 0,
                    "scale": [
                        3.499997615814209,
                        3.499997615814209,
                        3.499997615814209
                    ],
                    "height": 555.482177734375,
                    "position": [
                        -139.03932189941406,
                        492.1612548828125,
                        -216.8082275390625
                    ],
                    "weightHard": false,
                    "weightScale": [
                        1,
                        1,
                        1
                    ],
                    "mirrored": false,
                    "twinId": 0,
                    "flooded": false,
                    "pathable": false,
                    "mergeable": false,
                    "no_features": false
                },
                {
                    "weight": [
                        1,
                        1,
                        1,
                        1
                    ],
                    "spec": "/pa/terrain/lava/brushes/lava_plateau_09.json",
                    "proj": "BP_Bend",
                    "transform": [
                        3.14033842086792,
                        1.2730953693389893,
                        -0.8760629296302795,
                        -139.03933715820312,
                        1.2730953693389893,
                        -1.0064125061035156,
                        3.1010239124298096,
                        492.1613464355469,
                        -0.8760629296302795,
                        3.1010239124298096,
                        1.3660717010498047,
                        216.80828857421875
                    ],
                    "op": "BO_Add",
                    "rotation": 0,
                    "scale": [
                        3.499997615814209,
                        3.499997615814209,
                        3.499997615814209
                    ],
                    "height": 555.482177734375,
                    "position": [
                        -139.03932189941406,
                        492.1612548828125,
                        -216.8082275390625
                    ],
                    "weightHard": false,
                    "weightScale": [
                        1,
                        1,
                        1
                    ],
                    "mirrored": true,
                    "twinId": 0,
                    "flooded": false,
                    "pathable": false,
                    "mergeable": false,
                    "no_features": false
                },
                {
                    "weight": [
                        1,
                        1,
                        1,
                        1
                    ],
                    "spec": "/pa/terrain/lava/brushes/lava_plateau_09.json",
                    "proj": "BP_Bend",
                    "transform": [
                        3.030299425125122,
                        1.1612356901168823,
                        -0.5990017652511597,
                        -100.72358703613281,
                        1.1612356901168823,
                        -1.6999138593673706,
                        2.579111337661743,
                        433.6837463378906,
                        0.5990017652511597,
                        -2.579111337661743,
                        -1.9696121215820312,
                        -331.1949768066406
                    ],
                    "op": "BO_Add",
                    "rotation": 0,
                    "scale": [
                        3.2999978065490723,
                        3.2999978065490723,
                        3.2999978065490723
                    ],
                    "height": 554.9025268554688,
                    "position": [
                        -100.72354125976562,
                        433.68359375,
                        -331.1949462890625
                    ],
                    "weightHard": false,
                    "weightScale": [
                        1,
                        1,
                        1
                    ],
                    "mirrored": false,
                    "twinId": 0,
                    "flooded": false,
                    "pathable": false,
                    "mergeable": false,
                    "no_features": false
                },
                {
                    "weight": [
                        1,
                        1,
                        1,
                        1
                    ],
                    "spec": "/pa/terrain/lava/brushes/lava_plateau_09.json",
                    "proj": "BP_Bend",
                    "transform": [
                        3.030299425125122,
                        1.1612356901168823,
                        -0.5990017652511597,
                        -100.72358703613281,
                        1.1612356901168823,
                        -1.6999138593673706,
                        2.579111337661743,
                        433.68377685546875,
                        -0.5990017652511597,
                        2.579111337661743,
                        1.9696121215820312,
                        331.1949768066406
                    ],
                    "op": "BO_Add",
                    "rotation": 0,
                    "scale": [
                        3.2999978065490723,
                        3.2999978065490723,
                        3.2999978065490723
                    ],
                    "height": 554.9025268554688,
                    "position": [
                        -100.72354125976562,
                        433.68359375,
                        -331.1949462890625
                    ],
                    "weightHard": false,
                    "weightScale": [
                        1,
                        1,
                        1
                    ],
                    "mirrored": true,
                    "twinId": 0,
                    "flooded": false,
                    "pathable": false,
                    "mergeable": false,
                    "no_features": false
                },
                {
                    "weight": [
                        1,
                        1,
                        1,
                        1
                    ],
                    "spec": "/pa/terrain/lava/brushes/lava_plateau_09.json",
                    "proj": "BP_Bend",
                    "transform": [
                        3.291008949279785,
                        -0.08452627062797546,
                        0.5636491179466248,
                        92.15330505371094,
                        -0.08452627062797546,
                        3.1941545009613037,
                        0.9725315570831299,
                        159.003173828125,
                        -0.5636491179466248,
                        -0.9725315570831299,
                        3.14516544342041,
                        514.2160034179688
                    ],
                    "op": "BO_Add",
                    "rotation": 0,
                    "scale": [
                        3.3399977684020996,
                        3.3399977684020996,
                        3.3399977684020996
                    ],
                    "height": 546.0699462890625,
                    "position": [
                        92.1533203125,
                        159.00320434570312,
                        514.216064453125
                    ],
                    "weightHard": false,
                    "weightScale": [
                        1,
                        1,
                        1
                    ],
                    "mirrored": false,
                    "twinId": 0,
                    "flooded": false,
                    "pathable": false,
                    "mergeable": false,
                    "no_features": false
                },
                {
                    "weight": [
                        1,
                        1,
                        1,
                        1
                    ],
                    "spec": "/pa/terrain/lava/brushes/lava_plateau_09.json",
                    "proj": "BP_Bend",
                    "transform": [
                        3.291008949279785,
                        -0.08452627062797546,
                        0.5636491179466248,
                        92.15330505371094,
                        -0.08452627062797546,
                        3.1941545009613037,
                        0.9725315570831299,
                        159.003173828125,
                        0.5636491179466248,
                        0.9725315570831299,
                        -3.14516544342041,
                        -514.216064453125
                    ],
                    "op": "BO_Add",
                    "rotation": 0,
                    "scale": [
                        3.3399977684020996,
                        3.3399977684020996,
                        3.3399977684020996
                    ],
                    "height": 546.0699462890625,
                    "position": [
                        92.1533203125,
                        159.00320434570312,
                        514.216064453125
                    ],
                    "weightHard": false,
                    "weightScale": [
                        1,
                        1,
                        1
                    ],
                    "mirrored": true,
                    "twinId": 0,
                    "flooded": false,
                    "pathable": false,
                    "mergeable": false,
                    "no_features": false
                },
                {
                    "weight": [
                        1,
                        1,
                        1,
                        1
                    ],
                    "spec": "/pa/terrain/lava/brushes/lava_plateau_09.json",
                    "proj": "BP_Bend",
                    "transform": [
                        2.879671573638916,
                        -0.02152949385344982,
                        0.03765347972512245,
                        7.285499572753906,
                        -0.02152949385344982,
                        1.460919976234436,
                        2.4818620681762695,
                        480.210693359375,
                        -0.03765347972512245,
                        -2.4818620681762695,
                        1.460593342781067,
                        282.6073913574219
                    ],
                    "op": "BO_Add",
                    "rotation": 0,
                    "scale": [
                        2.879998207092285,
                        2.879998207092285,
                        2.879998207092285
                    ],
                    "height": 557.2453002929688,
                    "position": [
                        7.285499572753906,
                        480.210693359375,
                        282.607421875
                    ],
                    "weightHard": false,
                    "weightScale": [
                        1,
                        1,
                        1
                    ],
                    "mirrored": false,
                    "twinId": 0,
                    "flooded": false,
                    "pathable": false,
                    "mergeable": false,
                    "no_features": false
                },
                {
                    "weight": [
                        1,
                        1,
                        1,
                        1
                    ],
                    "spec": "/pa/terrain/lava/brushes/lava_plateau_09.json",
                    "proj": "BP_Bend",
                    "transform": [
                        2.879671573638916,
                        -0.02152949385344982,
                        0.03765347972512245,
                        7.285499572753906,
                        -0.02152949385344982,
                        1.460919976234436,
                        2.4818620681762695,
                        480.210693359375,
                        0.03765347972512245,
                        2.4818620681762695,
                        -1.460593342781067,
                        -282.6073913574219
                    ],
                    "op": "BO_Add",
                    "rotation": 0,
                    "scale": [
                        2.879998207092285,
                        2.879998207092285,
                        2.879998207092285
                    ],
                    "height": 557.2453002929688,
                    "position": [
                        7.285499572753906,
                        480.210693359375,
                        282.607421875
                    ],
                    "weightHard": false,
                    "weightScale": [
                        1,
                        1,
                        1
                    ],
                    "mirrored": true,
                    "twinId": 0,
                    "flooded": false,
                    "pathable": false,
                    "mergeable": false,
                    "no_features": false
                },
                {
                    "weight": [
                        1,
                        1,
                        1,
                        1
                    ],
                    "spec": "/pa/terrain/lava/brushes/lava_plateau_09.json",
                    "proj": "BP_Bend",
                    "transform": [
                        2.2891130447387695,
                        -0.3398970663547516,
                        0.1637839674949646,
                        39.165924072265625,
                        -0.3398970663547516,
                        -1.4205793142318726,
                        1.80244779586792,
                        431.0222473144531,
                        -0.1637839674949646,
                        -1.80244779586792,
                        -1.4514650106430054,
                        -347.0911560058594
                    ],
                    "op": "BO_Add",
                    "rotation": 0,
                    "scale": [
                        2.3199987411499023,
                        2.3199987411499023,
                        2.3199987411499023
                    ],
                    "height": 554.7850341796875,
                    "position": [
                        39.23652648925781,
                        431.7991943359375,
                        -347.716796875
                    ],
                    "weightHard": false,
                    "weightScale": [
                        1,
                        1,
                        1
                    ],
                    "mirrored": false,
                    "twinId": 0,
                    "flooded": false,
                    "pathable": false,
                    "mergeable": false,
                    "no_features": false
                },
                {
                    "weight": [
                        1,
                        1,
                        1,
                        1
                    ],
                    "spec": "/pa/terrain/lava/brushes/lava_plateau_09.json",
                    "proj": "BP_Bend",
                    "transform": [
                        2.2891130447387695,
                        -0.3398970663547516,
                        0.1637839674949646,
                        39.165924072265625,
                        -0.3398970663547516,
                        -1.4205793142318726,
                        1.80244779586792,
                        431.0222473144531,
                        0.1637839674949646,
                        1.80244779586792,
                        1.4514650106430054,
                        347.0911560058594
                    ],
                    "op": "BO_Add",
                    "rotation": 0,
                    "scale": [
                        2.3199987411499023,
                        2.3199987411499023,
                        2.3199987411499023
                    ],
                    "height": 554.7850341796875,
                    "position": [
                        39.23652648925781,
                        431.7991943359375,
                        -347.716796875
                    ],
                    "weightHard": false,
                    "weightScale": [
                        1,
                        1,
                        1
                    ],
                    "mirrored": true,
                    "twinId": 0,
                    "flooded": false,
                    "pathable": false,
                    "mergeable": false,
                    "no_features": false
                },
                {
                    "weight": [
                        1,
                        1,
                        1,
                        1
                    ],
                    "spec": "/pa/terrain/lava/brushes/lava_plateau_09.json",
                    "proj": "BP_Bend",
                    "transform": [
                        2.6227879524230957,
                        -1.0744376182556152,
                        1.9493972063064575,
                        321.03839111328125,
                        -1.0744376182556152,
                        2.0273661613464355,
                        2.5629968643188477,
                        422.0896911621094,
                        -1.9493972063064575,
                        -2.5629968643188477,
                        1.2101565599441528,
                        199.29583740234375
                    ],
                    "op": "BO_Add",
                    "rotation": 0,
                    "scale": [
                        3.439997673034668,
                        3.439997673034668,
                        3.439997673034668
                    ],
                    "height": 566.5194091796875,
                    "position": [
                        321.0384521484375,
                        422.0897216796875,
                        199.29574584960938
                    ],
                    "weightHard": false,
                    "weightScale": [
                        1,
                        1,
                        1
                    ],
                    "mirrored": false,
                    "twinId": 0,
                    "flooded": false,
                    "pathable": false,
                    "mergeable": false,
                    "no_features": false
                },
                {
                    "weight": [
                        1,
                        1,
                        1,
                        1
                    ],
                    "spec": "/pa/terrain/lava/brushes/lava_plateau_09.json",
                    "proj": "BP_Bend",
                    "transform": [
                        2.6227879524230957,
                        -1.0744376182556152,
                        1.9493972063064575,
                        321.03839111328125,
                        -1.0744376182556152,
                        2.0273661613464355,
                        2.5629968643188477,
                        422.0896911621094,
                        1.9493972063064575,
                        2.5629968643188477,
                        -1.2101565599441528,
                        -199.29583740234375
                    ],
                    "op": "BO_Add",
                    "rotation": 0,
                    "scale": [
                        3.439997673034668,
                        3.439997673034668,
                        3.439997673034668
                    ],
                    "height": 566.5194091796875,
                    "position": [
                        321.0384521484375,
                        422.0897216796875,
                        199.29574584960938
                    ],
                    "weightHard": false,
                    "weightScale": [
                        1,
                        1,
                        1
                    ],
                    "mirrored": true,
                    "twinId": 0,
                    "flooded": false,
                    "pathable": false,
                    "mergeable": false,
                    "no_features": false
                },
                {
                    "weight": [
                        1,
                        1,
                        1,
                        1
                    ],
                    "spec": "/pa/terrain/lava/brushes/lava_plateau_09.json",
                    "proj": "BP_Bend",
                    "transform": [
                        0.10310220718383789,
                        -2.705932378768921,
                        2.608616352081299,
                        396.0389709472656,
                        -2.705932378768921,
                        1.7577329874038696,
                        1.9302549362182617,
                        293.0504455566406,
                        -2.608616352081299,
                        -1.9302549362182617,
                        -1.8991621732711792,
                        -288.3299560546875
                    ],
                    "op": "BO_Add",
                    "rotation": 0,
                    "scale": [
                        3.7599973678588867,
                        3.7599973678588867,
                        3.7599973678588867
                    ],
                    "height": 570.8411254882812,
                    "position": [
                        396.0389404296875,
                        293.0504150390625,
                        -288.3299560546875
                    ],
                    "weightHard": false,
                    "weightScale": [
                        1,
                        1,
                        1
                    ],
                    "mirrored": false,
                    "twinId": 0,
                    "flooded": false,
                    "pathable": false,
                    "mergeable": false,
                    "no_features": false
                },
                {
                    "weight": [
                        1,
                        1,
                        1,
                        1
                    ],
                    "spec": "/pa/terrain/lava/brushes/lava_plateau_09.json",
                    "proj": "BP_Bend",
                    "transform": [
                        0.10310220718383789,
                        -2.705932378768921,
                        2.608616352081299,
                        396.0389709472656,
                        -2.705932378768921,
                        1.7577329874038696,
                        1.9302549362182617,
                        293.0504455566406,
                        2.608616352081299,
                        1.9302549362182617,
                        1.8991621732711792,
                        288.3299560546875
                    ],
                    "op": "BO_Add",
                    "rotation": 0,
                    "scale": [
                        3.7599973678588867,
                        3.7599973678588867,
                        3.7599973678588867
                    ],
                    "height": 570.8411254882812,
                    "position": [
                        396.0389404296875,
                        293.0504150390625,
                        -288.3299560546875
                    ],
                    "weightHard": false,
                    "weightScale": [
                        1,
                        1,
                        1
                    ],
                    "mirrored": true,
                    "twinId": 0,
                    "flooded": false,
                    "pathable": false,
                    "mergeable": false,
                    "no_features": false
                },
                {
                    "weight": [
                        1,
                        1,
                        1,
                        1
                    ],
                    "spec": "/pa/terrain/lava/brushes/lava_plateau_09.json",
                    "proj": "BP_Bend",
                    "transform": [
                        0.8279823064804077,
                        -1.5986695289611816,
                        1.7632625102996826,
                        397.0453186035156,
                        0.19238948822021484,
                        1.905755877494812,
                        1.6375207901000977,
                        368.7312316894531,
                        -2.3723037242889404,
                        -0.4034149646759033,
                        0.7482143640518188,
                        168.48031616210938
                    ],
                    "op": "BO_Add",
                    "rotation": 0.5799999833106995,
                    "scale": [
                        2.519998550415039,
                        2.519998550415039,
                        2.519998550415039
                    ],
                    "height": 567.4445190429688,
                    "position": [
                        397.0452880859375,
                        368.731201171875,
                        168.48031616210938
                    ],
                    "weightHard": false,
                    "weightScale": [
                        1,
                        1,
                        1
                    ],
                    "mirrored": false,
                    "twinId": 0,
                    "flooded": false,
                    "pathable": false,
                    "mergeable": false,
                    "no_features": false
                },
                {
                    "weight": [
                        1,
                        1,
                        1,
                        1
                    ],
                    "spec": "/pa/terrain/lava/brushes/lava_plateau_09.json",
                    "proj": "BP_Bend",
                    "transform": [
                        0.8279823064804077,
                        -1.5986695289611816,
                        1.7632625102996826,
                        397.0453186035156,
                        0.19238948822021484,
                        1.905755877494812,
                        1.6375207901000977,
                        368.7312316894531,
                        2.3723037242889404,
                        0.4034149646759033,
                        -0.7482143640518188,
                        -168.48031616210938
                    ],
                    "op": "BO_Add",
                    "rotation": 0.5799999833106995,
                    "scale": [
                        2.519998550415039,
                        2.519998550415039,
                        2.519998550415039
                    ],
                    "height": 567.4445190429688,
                    "position": [
                        397.0452880859375,
                        368.731201171875,
                        168.48031616210938
                    ],
                    "weightHard": false,
                    "weightScale": [
                        1,
                        1,
                        1
                    ],
                    "mirrored": true,
                    "twinId": 0,
                    "flooded": false,
                    "pathable": false,
                    "mergeable": false,
                    "no_features": false
                },
                {
                    "weight": [
                        1,
                        1,
                        1,
                        1
                    ],
                    "spec": "/pa/terrain/lava/brushes/lava_plateau_09.json",
                    "proj": "BP_Bend",
                    "transform": [
                        0.3349973261356354,
                        1.2954905033111572,
                        2.0164010524749756,
                        472.76702880859375,
                        -2.0869505405426025,
                        -0.8434449434280396,
                        0.8886116147041321,
                        208.3446044921875,
                        1.178476333618164,
                        -1.8619067668914795,
                        1.0004440546035767,
                        234.56491088867188
                    ],
                    "op": "BO_Add",
                    "rotation": -1.7199989557266235,
                    "scale": [
                        2.4199986457824707,
                        2.4199986457824707,
                        2.4199986457824707
                    ],
                    "height": 567.3948364257812,
                    "position": [
                        473.600341796875,
                        208.71185302734375,
                        234.97830200195312
                    ],
                    "weightHard": false,
                    "weightScale": [
                        1,
                        1,
                        1
                    ],
                    "mirrored": false,
                    "twinId": 0,
                    "flooded": false,
                    "pathable": false,
                    "mergeable": false,
                    "no_features": false
                },
                {
                    "weight": [
                        1,
                        1,
                        1,
                        1
                    ],
                    "spec": "/pa/terrain/lava/brushes/lava_plateau_09.json",
                    "proj": "BP_Bend",
                    "transform": [
                        0.3349973261356354,
                        1.2954905033111572,
                        2.0164010524749756,
                        472.7670593261719,
                        -2.0869505405426025,
                        -0.8434449434280396,
                        0.8886116147041321,
                        208.34461975097656,
                        -1.178476333618164,
                        1.8619067668914795,
                        -1.0004440546035767,
                        -234.56492614746094
                    ],
                    "op": "BO_Add",
                    "rotation": -1.7199989557266235,
                    "scale": [
                        2.4199986457824707,
                        2.4199986457824707,
                        2.4199986457824707
                    ],
                    "height": 567.3948364257812,
                    "position": [
                        473.600341796875,
                        208.71185302734375,
                        234.97830200195312
                    ],
                    "weightHard": false,
                    "weightScale": [
                        1,
                        1,
                        1
                    ],
                    "mirrored": true,
                    "twinId": 0,
                    "flooded": false,
                    "pathable": false,
                    "mergeable": false,
                    "no_features": false
                },
                {
                    "weight": [
                        1,
                        1,
                        1,
                        1
                    ],
                    "spec": "/pa/terrain/lava/brushes/lava_plateau_09.json",
                    "proj": "BP_Bend",
                    "transform": [
                        4.005308151245117,
                        -0.060357868671417236,
                        0.9634515643119812,
                        124.81848907470703,
                        -0.060357868671417236,
                        4.088232040405273,
                        0.5070403814315796,
                        65.68883514404297,
                        -0.9634515643119812,
                        -0.5070403814315796,
                        3.973543405532837,
                        514.7863159179688
                    ],
                    "op": "BO_Add",
                    "rotation": 0,
                    "scale": [
                        4.119997024536133,
                        4.119997024536133,
                        4.119997024536133
                    ],
                    "height": 533.7598876953125,
                    "position": [
                        128.56005859375,
                        67.65792846679688,
                        530.217529296875
                    ],
                    "weightHard": false,
                    "weightScale": [
                        1,
                        1,
                        1
                    ],
                    "mirrored": false,
                    "twinId": 0,
                    "flooded": false,
                    "pathable": false,
                    "mergeable": false,
                    "no_features": false
                },
                {
                    "weight": [
                        1,
                        1,
                        1,
                        1
                    ],
                    "spec": "/pa/terrain/lava/brushes/lava_plateau_09.json",
                    "proj": "BP_Bend",
                    "transform": [
                        4.005308151245117,
                        -0.060357868671417236,
                        0.9634515643119812,
                        124.81848907470703,
                        -0.060357868671417236,
                        4.088232040405273,
                        0.5070403814315796,
                        65.68883514404297,
                        0.9634515643119812,
                        0.5070403814315796,
                        -3.973543405532837,
                        -514.7863159179688
                    ],
                    "op": "BO_Add",
                    "rotation": 0,
                    "scale": [
                        4.119997024536133,
                        4.119997024536133,
                        4.119997024536133
                    ],
                    "height": 533.7598876953125,
                    "position": [
                        128.56005859375,
                        67.65792846679688,
                        530.217529296875
                    ],
                    "weightHard": false,
                    "weightScale": [
                        1,
                        1,
                        1
                    ],
                    "mirrored": true,
                    "twinId": 0,
                    "flooded": false,
                    "pathable": false,
                    "mergeable": false,
                    "no_features": false
                },
                {
                    "weight": [
                        1,
                        1,
                        1,
                        1
                    ],
                    "spec": "/pa/terrain/lava/brushes/lava_plateau_09.json",
                    "proj": "BP_Bend",
                    "transform": [
                        2.0967183113098145,
                        1.9355666637420654,
                        -0.19221000373363495,
                        -36.97663497924805,
                        -0.5927566289901733,
                        0.9050149917602539,
                        2.6474852561950684,
                        509.313232421875,
                        1.8525664806365967,
                        -1.9010839462280273,
                        1.064644455909729,
                        204.81228637695312
                    ],
                    "op": "BO_Add",
                    "rotation": -0.6999996304512024,
                    "scale": [
                        2.8599982261657715,
                        2.8599982261657715,
                        2.8599982261657715
                    ],
                    "height": 550.1956787109375,
                    "position": [
                        -37.44708251953125,
                        515.7930908203125,
                        207.41806030273438
                    ],
                    "weightHard": false,
                    "weightScale": [
                        1,
                        1,
                        1
                    ],
                    "mirrored": false,
                    "twinId": 0,
                    "flooded": false,
                    "pathable": false,
                    "mergeable": false,
                    "no_features": false
                },
                {
                    "weight": [
                        1,
                        1,
                        1,
                        1
                    ],
                    "spec": "/pa/terrain/lava/brushes/lava_plateau_09.json",
                    "proj": "BP_Bend",
                    "transform": [
                        2.0967183113098145,
                        1.9355666637420654,
                        -0.19221000373363495,
                        -36.97663116455078,
                        -0.5927566289901733,
                        0.9050149917602539,
                        2.6474852561950684,
                        509.313232421875,
                        -1.8525664806365967,
                        1.9010839462280273,
                        -1.064644455909729,
                        -204.81228637695312
                    ],
                    "op": "BO_Add",
                    "rotation": -0.6999996304512024,
                    "scale": [
                        2.8599982261657715,
                        2.8599982261657715,
                        2.8599982261657715
                    ],
                    "height": 550.1956787109375,
                    "position": [
                        -37.44708251953125,
                        515.7930908203125,
                        207.41806030273438
                    ],
                    "weightHard": false,
                    "weightScale": [
                        1,
                        1,
                        1
                    ],
                    "mirrored": true,
                    "twinId": 0,
                    "flooded": false,
                    "pathable": false,
                    "mergeable": false,
                    "no_features": false
                },
                {
                    "weight": [
                        1,
                        1,
                        1,
                        1
                    ],
                    "spec": "/pa/terrain/lava/brushes/lava_plateau_09.json",
                    "proj": "BP_Bend",
                    "transform": [
                        -0.476203590631485,
                        1.4824905395507812,
                        -2.3271102905273438,
                        -458.1868896484375,
                        -2.0571670532226562,
                        1.3830320835113525,
                        1.3020278215408325,
                        256.3574523925781,
                        1.8388268947601318,
                        1.931174397468567,
                        0.8539739847183228,
                        168.1397247314453
                    ],
                    "op": "BO_Add",
                    "rotation": -1.31999933719635,
                    "scale": [
                        2.7999982833862305,
                        2.7999982833862305,
                        2.7999982833862305
                    ],
                    "height": 551.2942504882812,
                    "position": [
                        -458.1868896484375,
                        256.35748291015625,
                        168.13970947265625
                    ],
                    "weightHard": false,
                    "weightScale": [
                        1,
                        1,
                        1
                    ],
                    "mirrored": false,
                    "twinId": 0,
                    "flooded": false,
                    "pathable": false,
                    "mergeable": false,
                    "no_features": false
                },
                {
                    "weight": [
                        1,
                        1,
                        1,
                        1
                    ],
                    "spec": "/pa/terrain/lava/brushes/lava_plateau_09.json",
                    "proj": "BP_Bend",
                    "transform": [
                        -0.476203590631485,
                        1.4824905395507812,
                        -2.3271102905273438,
                        -458.1868896484375,
                        -2.0571670532226562,
                        1.3830320835113525,
                        1.3020278215408325,
                        256.3574523925781,
                        -1.8388268947601318,
                        -1.931174397468567,
                        -0.8539739847183228,
                        -168.1397247314453
                    ],
                    "op": "BO_Add",
                    "rotation": -1.31999933719635,
                    "scale": [
                        2.7999982833862305,
                        2.7999982833862305,
                        2.7999982833862305
                    ],
                    "height": 551.2942504882812,
                    "position": [
                        -458.1868896484375,
                        256.35748291015625,
                        168.13970947265625
                    ],
                    "weightHard": false,
                    "weightScale": [
                        1,
                        1,
                        1
                    ],
                    "mirrored": true,
                    "twinId": 0,
                    "flooded": false,
                    "pathable": false,
                    "mergeable": false,
                    "no_features": false
                },
                {
                    "weight": [
                        1,
                        1,
                        1,
                        1
                    ],
                    "spec": "/pa/terrain/lava/brushes/lava_plateau_09.json",
                    "proj": "BP_Bend",
                    "transform": [
                        -0.7063038349151611,
                        -0.9258947372436523,
                        2.8513574600219727,
                        516.1236572265625,
                        -0.9258947372436523,
                        2.853581428527832,
                        0.6972652673721313,
                        126.21185302734375,
                        -2.8513574600219727,
                        -0.6972652673721313,
                        -0.9327201247215271,
                        -168.83148193359375
                    ],
                    "op": "BO_Add",
                    "rotation": 0,
                    "scale": [
                        3.079998016357422,
                        3.079998016357422,
                        3.079998016357422
                    ],
                    "height": 557.5098266601562,
                    "position": [
                        516.1236572265625,
                        126.21185302734375,
                        -168.83160400390625
                    ],
                    "weightHard": false,
                    "weightScale": [
                        1,
                        1,
                        1
                    ],
                    "mirrored": false,
                    "twinId": 0,
                    "flooded": false,
                    "pathable": false,
                    "mergeable": false,
                    "no_features": false
                },
                {
                    "weight": [
                        1,
                        1,
                        1,
                        1
                    ],
                    "spec": "/pa/terrain/lava/brushes/lava_plateau_09.json",
                    "proj": "BP_Bend",
                    "transform": [
                        -0.7063038349151611,
                        -0.9258947372436523,
                        2.8513574600219727,
                        516.1236572265625,
                        -0.9258947372436523,
                        2.853581428527832,
                        0.6972652673721313,
                        126.21185302734375,
                        2.8513574600219727,
                        0.6972652673721313,
                        0.9327201247215271,
                        168.83148193359375
                    ],
                    "op": "BO_Add",
                    "rotation": 0,
                    "scale": [
                        3.079998016357422,
                        3.079998016357422,
                        3.079998016357422
                    ],
                    "height": 557.5098266601562,
                    "position": [
                        516.1236572265625,
                        126.21185302734375,
                        -168.83160400390625
                    ],
                    "weightHard": false,
                    "weightScale": [
                        1,
                        1,
                        1
                    ],
                    "mirrored": true,
                    "twinId": 0,
                    "flooded": false,
                    "pathable": false,
                    "mergeable": false,
                    "no_features": false
                },
                {
                    "weight": [
                        1,
                        1,
                        1,
                        1
                    ],
                    "spec": "/pa/terrain/lava/brushes/lava_plateau_09.json",
                    "proj": "BP_Bend",
                    "transform": [
                        1.6078238487243652,
                        0.06489575654268265,
                        4.394662857055664,
                        515.147705078125,
                        0.06489575654268265,
                        4.678625583648682,
                        -0.09283168613910675,
                        -10.881843566894531,
                        -4.394662857055664,
                        0.09283168613910675,
                        1.6064530611038208,
                        188.31039428710938
                    ],
                    "op": "BO_Add",
                    "rotation": 0,
                    "scale": [
                        4.679996490478516,
                        4.679996490478516,
                        4.679996490478516
                    ],
                    "height": 548.5949096679688,
                    "position": [
                        525.47705078125,
                        -11.10003662109375,
                        192.086181640625
                    ],
                    "weightHard": false,
                    "weightScale": [
                        1,
                        1,
                        1
                    ],
                    "mirrored": false,
                    "twinId": 0,
                    "flooded": false,
                    "pathable": false,
                    "mergeable": false,
                    "no_features": false
                },
                {
                    "weight": [
                        1,
                        1,
                        1,
                        1
                    ],
                    "spec": "/pa/terrain/lava/brushes/lava_plateau_09.json",
                    "proj": "BP_Bend",
                    "transform": [
                        1.6078238487243652,
                        0.06489575654268265,
                        4.394662857055664,
                        515.147705078125,
                        0.06489575654268265,
                        4.678625583648682,
                        -0.09283168613910675,
                        -10.881843566894531,
                        4.394662857055664,
                        -0.09283168613910675,
                        -1.6064530611038208,
                        -188.31040954589844
                    ],
                    "op": "BO_Add",
                    "rotation": 0,
                    "scale": [
                        4.679996490478516,
                        4.679996490478516,
                        4.679996490478516
                    ],
                    "height": 548.5949096679688,
                    "position": [
                        525.47705078125,
                        -11.10003662109375,
                        192.086181640625
                    ],
                    "weightHard": false,
                    "weightScale": [
                        1,
                        1,
                        1
                    ],
                    "mirrored": true,
                    "twinId": 0,
                    "flooded": false,
                    "pathable": false,
                    "mergeable": false,
                    "no_features": false
                },
                {
                    "weight": [
                        1,
                        1,
                        1,
                        1
                    ],
                    "spec": "/pa/terrain/lava/brushes/lava_plateau_09.json",
                    "proj": "BP_Bend",
                    "transform": [
                        0.9992547631263733,
                        0.006472595501691103,
                        -0.03805355355143547,
                        -20.94186782836914,
                        0.006472595501691103,
                        0.9437854886054993,
                        0.33049505949020386,
                        181.88009643554688,
                        0.03805355355143547,
                        -0.33049505949020386,
                        0.9430402517318726,
                        518.9797973632812
                    ],
                    "op": "BO_Add",
                    "rotation": 0,
                    "scale": [
                        1,
                        1,
                        1
                    ],
                    "height": 550.3262329101562,
                    "position": [
                        -20.941871643066406,
                        181.880126953125,
                        518.9797973632812
                    ],
                    "weightHard": false,
                    "weightScale": [
                        1,
                        1,
                        1
                    ],
                    "mirrored": false,
                    "twinId": 0,
                    "flooded": false,
                    "pathable": false,
                    "mergeable": false,
                    "no_features": false
                },
                {
                    "weight": [
                        1,
                        1,
                        1,
                        1
                    ],
                    "spec": "/pa/terrain/lava/brushes/lava_plateau_09.json",
                    "proj": "BP_Bend",
                    "transform": [
                        0.9992547631263733,
                        0.006472595501691103,
                        -0.03805355355143547,
                        -20.94186782836914,
                        0.006472595501691103,
                        0.9437854886054993,
                        0.33049505949020386,
                        181.88009643554688,
                        -0.03805355355143547,
                        0.33049505949020386,
                        -0.9430402517318726,
                        -518.9797973632812
                    ],
                    "op": "BO_Add",
                    "rotation": 0,
                    "scale": [
                        1,
                        1,
                        1
                    ],
                    "height": 550.3262329101562,
                    "position": [
                        -20.941871643066406,
                        181.880126953125,
                        518.9797973632812
                    ],
                    "weightHard": false,
                    "weightScale": [
                        1,
                        1,
                        1
                    ],
                    "mirrored": true,
                    "twinId": 0,
                    "flooded": false,
                    "pathable": false,
                    "mergeable": false,
                    "no_features": false
                },
                {
                    "weight": [
                        1,
                        1,
                        1,
                        1
                    ],
                    "spec": "/pa/terrain/lava/brushes/lava_plateau_09.json",
                    "proj": "BP_Bend",
                    "transform": [
                        -0.4855048656463623,
                        -0.5198860168457031,
                        4.098728656768799,
                        546.4899291992188,
                        4.108407497406006,
                        -0.497123122215271,
                        0.4235957860946655,
                        56.47869110107422,
                        0.43686360120773315,
                        4.097335338592529,
                        0.571457028388977,
                        76.1932601928711
                    ],
                    "op": "BO_Add",
                    "rotation": 1.7799988985061646,
                    "scale": [
                        4.15999698638916,
                        4.15999698638916,
                        4.15999698638916
                    ],
                    "height": 554.658935546875,
                    "position": [
                        546.489990234375,
                        56.47869873046875,
                        76.19319915771484
                    ],
                    "weightHard": false,
                    "weightScale": [
                        1,
                        1,
                        1
                    ],
                    "mirrored": false,
                    "twinId": 0,
                    "flooded": false,
                    "pathable": false,
                    "mergeable": false,
                    "no_features": false
                },
                {
                    "weight": [
                        1,
                        1,
                        1,
                        1
                    ],
                    "spec": "/pa/terrain/lava/brushes/lava_plateau_09.json",
                    "proj": "BP_Bend",
                    "transform": [
                        -0.4855048656463623,
                        -0.5198860168457031,
                        4.098728656768799,
                        546.4899291992188,
                        4.108407497406006,
                        -0.497123122215271,
                        0.4235957860946655,
                        56.47868728637695,
                        -0.43686360120773315,
                        -4.097335338592529,
                        -0.571457028388977,
                        -76.1932601928711
                    ],
                    "op": "BO_Add",
                    "rotation": 1.7799988985061646,
                    "scale": [
                        4.15999698638916,
                        4.15999698638916,
                        4.15999698638916
                    ],
                    "height": 554.658935546875,
                    "position": [
                        546.489990234375,
                        56.47869873046875,
                        76.19319915771484
                    ],
                    "weightHard": false,
                    "weightScale": [
                        1,
                        1,
                        1
                    ],
                    "mirrored": true,
                    "twinId": 0,
                    "flooded": false,
                    "pathable": false,
                    "mergeable": false,
                    "no_features": false
                },
                {
                    "weight": [
                        1,
                        1,
                        1,
                        1
                    ],
                    "spec": "/pa/terrain/lava/brushes/lava_plateau_05.json",
                    "proj": "BP_Bend",
                    "transform": [
                        0.5280354619026184,
                        0.6188756227493286,
                        3.07417631149292,
                        527.534912109375,
                        0.6188756227493286,
                        3.035573959350586,
                        -0.7174056172370911,
                        -123.10826873779297,
                        -3.07417631149292,
                        0.7174056172370911,
                        0.3836115598678589,
                        65.82852935791016
                    ],
                    "op": "BO_Add",
                    "rotation": 0,
                    "scale": [
                        3.1799979209899902,
                        3.1799979209899902,
                        3.1799979209899902
                    ],
                    "height": 545.6941528320312,
                    "position": [
                        528.5015869140625,
                        -123.3338623046875,
                        65.94914245605469
                    ],
                    "weightHard": false,
                    "weightScale": [
                        1,
                        1,
                        1
                    ],
                    "mirrored": false,
                    "twinId": 0,
                    "flooded": false,
                    "pathable": false,
                    "mergeable": false,
                    "no_features": false
                },
                {
                    "weight": [
                        1,
                        1,
                        1,
                        1
                    ],
                    "spec": "/pa/terrain/lava/brushes/lava_plateau_05.json",
                    "proj": "BP_Bend",
                    "transform": [
                        0.5280354619026184,
                        0.6188756227493286,
                        3.07417631149292,
                        527.534912109375,
                        0.6188756227493286,
                        3.035573959350586,
                        -0.7174056172370911,
                        -123.10826873779297,
                        3.07417631149292,
                        -0.7174056172370911,
                        -0.3836115598678589,
                        -65.82852935791016
                    ],
                    "op": "BO_Add",
                    "rotation": 0,
                    "scale": [
                        3.1799979209899902,
                        3.1799979209899902,
                        3.1799979209899902
                    ],
                    "height": 545.6941528320312,
                    "position": [
                        528.5015869140625,
                        -123.3338623046875,
                        65.94914245605469
                    ],
                    "weightHard": false,
                    "weightScale": [
                        1,
                        1,
                        1
                    ],
                    "mirrored": true,
                    "twinId": 0,
                    "flooded": false,
                    "pathable": false,
                    "mergeable": false,
                    "no_features": false
                },
                {
                    "weight": [
                        1,
                        1,
                        1,
                        1
                    ],
                    "spec": "/pa/terrain/lava/brushes/lava_plateau_09.json",
                    "proj": "BP_Bend",
                    "transform": [
                        2.3860223293304443,
                        0.08246134221553802,
                        3.0330967903137207,
                        440.02001953125,
                        0.08246134221553802,
                        3.855384111404419,
                        -0.1696862280368805,
                        -24.616867065429688,
                        -3.0330967903137207,
                        0.1696862280368805,
                        2.381409168243408,
                        345.4778137207031
                    ],
                    "op": "BO_Add",
                    "rotation": 0,
                    "scale": [
                        3.859997272491455,
                        3.859997272491455,
                        3.859997272491455
                    ],
                    "height": 559.9808349609375,
                    "position": [
                        440.02001953125,
                        -24.616867065429688,
                        345.47784423828125
                    ],
                    "weightHard": false,
                    "weightScale": [
                        1,
                        1,
                        1
                    ],
                    "mirrored": false,
                    "twinId": 0,
                    "flooded": false,
                    "pathable": false,
                    "mergeable": false,
                    "no_features": false
                },
                {
                    "weight": [
                        1,
                        1,
                        1,
                        1
                    ],
                    "spec": "/pa/terrain/lava/brushes/lava_plateau_09.json",
                    "proj": "BP_Bend",
                    "transform": [
                        2.3860223293304443,
                        0.08246134221553802,
                        3.0330967903137207,
                        440.02001953125,
                        0.08246134221553802,
                        3.855384111404419,
                        -0.1696862280368805,
                        -24.616867065429688,
                        3.0330967903137207,
                        -0.1696862280368805,
                        -2.381409168243408,
                        -345.4778137207031
                    ],
                    "op": "BO_Add",
                    "rotation": 0,
                    "scale": [
                        3.859997272491455,
                        3.859997272491455,
                        3.859997272491455
                    ],
                    "height": 559.9808349609375,
                    "position": [
                        440.02001953125,
                        -24.616867065429688,
                        345.47784423828125
                    ],
                    "weightHard": false,
