{
    "name": "Roll Of The Die Teams NS/FFA",
    "creator": "TheEffectTheCause",
    "version": "1",
    "description": "A map in the shape of a dice for 2v2v2 3v3 or 6 Player FFA, a defensive map.",
    "players": [
        6,
        6
    ],
    "planets": [
        {
            "name": "Gamble",
            "mass": 10000,
            "position_x": 24300,
            "position_y": -28400,
            "velocity_x": 87.880859375,
            "velocity_y": 75.19384765625,
            "required_thrust_to_move": 0,
            "starting_planet": true,
            "respawn": false,
            "start_destroyed": false,
            "min_spawn_delay": 0,
            "max_spawn_delay": 0,
            "planet": {
                "seed": 318879520,
                "radius": 350,
                "heightRange": 0,
                "waterHeight": 0,
                "waterDepth": 0,
                "temperature": 0,
                "metalDensity": 0,
                "metalClusters": 0,
                "metalSpotLimit": -1,
                "biomeScale": 50,
                "biome": "moon",
                "symmetryType": "none",
                "symmetricalMetal": false,
                "symmetricalStarts": false,
                "numArmies": 2,
                "landingZonesPerArmy": 0,
                "landingZoneSize": 0
            },
            "planetCSG": [
                {
                    "weight": [
                        0,
                        0,
                        0,
                        0
                    ],
                    "spec": "/pa/terrain/metal/brushes/metal_t1_large_8_ramp.json",
                    "proj": "BP_None",
                    "transform": [
                        1.7149991989135742,
                        0,
                        0,
                        0,
                        0,
                        1.0222191804132308e-7,
                        8.277606010437012,
                        -334.3051452636719,
                        0,
                        -1.7149990797042847,
                        4.933838226861553e-7,
                        -0.000019926141249015927
                    ],
                    "op": "BO_Subtract",
                    "rotation": 0,
                    "scale": [
                        1.7149991989135742,
                        1.7149991989135742,
                        8.277606964111328
                    ],
                    "height": -334.30517578125,
                    "position": [
                        0,
                        359.9619140625,
                        0
                    ],
                    "weightHard": false,
                    "weightScale": [
                        1,
                        1,
                        1
                    ],
                    "mirrored": false,
                    "twinId": 0,
                    "flooded": false,
                    "pathable": true,
                    "mergeable": false,
                    "no_features": true
                },
                {
                    "weight": [
                        0,
                        0,
                        0,
                        0
                    ],
                    "spec": "/pa/terrain/metal/brushes/metal_t1_large_8_ramp.json",
                    "proj": "BP_None",
                    "transform": [
                        -4.363251788005876e-15,
                        -1.0222191804132308e-7,
                        -8.277605056762695,
                        334.3051452636719,
                        1.7149991989135742,
                        -7.496499421222325e-8,
                        5.068404281375358e-16,
                        -2.046961165565013e-14,
                        -7.496498710679589e-8,
                        -1.7149990797042847,
                        4.933837658427365e-7,
                        -0.000019926141249015927
                    ],
                    "op": "BO_Subtract",
                    "rotation": 1.5707963705062866,
                    "scale": [
                        1.7149991989135742,
                        1.7149991989135742,
                        8.277606964111328
                    ],
                    "height": -334.30517578125,
                    "position": [
                        -359.9619140625,
                        2.2040581640066052e-14,
                        0
                    ],
                    "weightHard": false,
                    "weightScale": [
                        1,
                        1,
                        1
                    ],
                    "mirrored": false,
                    "twinId": 0,
                    "flooded": false,
                    "pathable": true,
                    "mergeable": false,
                    "no_features": true
                },
                {
                    "weight": [
                        0,
                        0,
                        0,
                        0
                    ],
                    "spec": "/pa/terrain/metal/brushes/metal_t1_large_8_ramp.json",
                    "proj": "BP_None",
                    "transform": [
                        -1.7149991989135742,
                        1.499299884244465e-7,
                        -1.01368096215419e-15,
                        4.093922331130026e-14,
                        -8.726503576011752e-15,
                        -1.0222191804132308e-7,
                        -8.277606010437012,
                        334.3051452636719,
                        -1.4992997421359178e-7,
                        -1.7149990797042847,
                        4.933838226861553e-7,
                        -0.000019926141249015927
                    ],
                    "op": "BO_Subtract",
                    "rotation": 3.1415927410125732,
                    "scale": [
                        1.7149991989135742,
                        1.7149991989135742,
                        8.277606964111328
                    ],
                    "height": -334.30517578125,
                    "position": [
                        -4.4081163280132105e-14,
                        -359.9619140625,
                        0
                    ],
                    "weightHard": false,
                    "weightScale": [
                        1,
                        1,
                        1
                    ],
                    "mirrored": false,
                    "twinId": 0,
                    "flooded": false,
                    "pathable": true,
                    "mergeable": false,
                    "no_features": true
                },
                {
                    "weight": [
                        0,
                        0,
                        0,
                        0
                    ],
                    "spec": "/pa/terrain/metal/brushes/metal_t1_large_8_ramp.json",
                    "proj": "BP_None",
                    "transform": [
                        9.039543024636182e-16,
                        1.0222191804132308e-7,
                        8.277606010437012,
                        -334.3051452636719,
                        -1.7149991989135742,
                        2.0451160764878296e-8,
                        -1.5205216549895218e-15,
                        6.140883835508218e-14,
                        -2.0451158988521456e-8,
                        -1.7149990797042847,
                        4.933838226861553e-7,
                        -0.000019926141249015927
                    ],
                    "op": "BO_Subtract",
                    "rotation": 4.71238899230957,
                    "scale": [
                        1.7149991989135742,
                        1.7149991989135742,
                        8.277606964111328
                    ],
                    "height": -334.30517578125,
                    "position": [
                        359.9619140625,
                        -6.612175000239584e-14,
                        0
                    ],
                    "weightHard": false,
                    "weightScale": [
                        1,
                        1,
                        1
                    ],
                    "mirrored": false,
                    "twinId": 0,
                    "flooded": false,
                    "pathable": true,
                    "mergeable": false,
                    "no_features": true
                },
                {
                    "weight": [
                        0,
                        0,
                        0,
                        0
                    ],
                    "spec": "/pa/terrain/metal/brushes/metal_t1_large_8_ramp.json",
                    "proj": "BP_None",
                    "transform": [
                        1.7149991989135742,
                        -2.99859976848893e-7,
                        0,
                        0,
                        2.99859976848893e-7,
                        1.7149991989135742,
                        0,
                        0,
                        0,
                        0,
                        8.277606964111328,
                        -334.30517578125
                    ],
                    "op": "BO_Subtract",
                    "rotation": 6.2831854820251465,
                    "scale": [
                        1.7149991989135742,
                        1.7149991989135742,
                        8.277606964111328
                    ],
                    "height": -334.30517578125,
                    "position": [
                        0,
                        0,
                        500
                    ],
                    "weightHard": false,
                    "weightScale": [
                        1,
                        1,
                        1
                    ],
                    "mirrored": false,
                    "twinId": 0,
                    "flooded": false,
                    "pathable": true,
                    "mergeable": false,
                    "no_features": true
                },
                {
                    "weight": [
                        0,
                        0,
                        0,
                        0
                    ],
                    "spec": "/pa/terrain/metal/brushes/metal_t1_large_8_ramp.json",
                    "proj": "BP_None",
                    "transform": [
                        -2.0451160764878296e-8,
                        -1.7149991989135742,
                        0,
                        0,
                        -1.7149991989135742,
                        2.0451160764878296e-8,
                        0,
                        0,
                        0,
                        0,
                        -8.277606964111328,
                        334.30517578125
                    ],
                    "op": "BO_Subtract",
                    "rotation": 4.71238899230957,
                    "scale": [
                        1.7149991989135742,
                        1.7149991989135742,
                        8.277606964111328
                    ],
                    "height": -334.30517578125,
                    "position": [
                        0,
                        0,
                        -500
                    ],
                    "weightHard": false,
                    "weightScale": [
                        1,
                        1,
                        1
                    ],
                    "mirrored": false,
                    "twinId": 0,
                    "flooded": false,
                    "pathable": true,
                    "mergeable": false,
                    "no_features": true
                }
            ],
            "metal_spots": [
                [
                    -251.52960205078125,
                    -36.458740234375,
                    36.47507095336914
                ],
                [
                    -251.52960205078125,
                    36.63356018066406,
                    36.57737731933594
                ],
                [
                    -251.52960205078125,
                    36.0384407043457,
                    -36.38983917236328
                ],
                [
                    -251.52960205078125,
                    -36.399993896484375,
                    -36.24293899536133
                ],
                [
                    -251.529541015625,
                    -171.7603759765625,
                    -0.09870719909667969
                ],
                [
                    -251.52957153320312,
                    0.17479705810546875,
                    -171.47743225097656
                ],
                [
                    -251.52952575683594,
                    171.42181396484375,
                    -0.0602642297744751
                ],
                [
                    -251.52960205078125,
                    -0.4980287551879883,
                    171.46337890625
                ],
                [
                    -216.1177978515625,
                    -215.43536376953125,
                    -170.63693237304688
                ],
                [
                    -219.27337646484375,
                    -171.4979248046875,
                    -211.0849609375
                ],
                [
                    -171.68075561523438,
                    -217.35166931152344,
                    -214.03131103515625
                ],
                [
                    -216.1177978515625,
                    -215.43536376953125,
                    170.63693237304688
                ],
                [
                    -219.27337646484375,
                    -171.4979248046875,
                    211.0849609375
                ],
                [
                    -171.68075561523438,
                    -217.35166931152344,
                    214.03131103515625
                ],
                [
                    36.458740234375,
                    -251.52960205078125,
                    36.47507095336914
                ],
                [
                    -36.63356018066406,
                    -251.52960205078125,
                    36.57737731933594
                ],
                [
                    -36.0384407043457,
                    -251.52960205078125,
                    -36.38983917236328
                ],
                [
                    36.399993896484375,
                    -251.52960205078125,
                    -36.24293899536133
                ],
                [
                    171.7603759765625,
                    -251.529541015625,
                    -0.09870719909667969
                ],
                [
                    -0.17479705810546875,
                    -251.52957153320312,
                    -171.47743225097656
                ],
                [
                    -171.42181396484375,
                    -251.52952575683594,
                    -0.0602642297744751
                ],
                [
                    0.4980287551879883,
                    -251.52960205078125,
                    171.46337890625
                ],
                [
                    215.43536376953125,
                    -216.1177978515625,
                    -170.63693237304688
                ],
                [
                    171.4979248046875,
                    -219.27337646484375,
                    -211.0849609375
                ],
                [
                    217.35166931152344,
                    -171.68075561523438,
                    -214.03131103515625
                ],
                [
                    215.43536376953125,
                    -216.1177978515625,
                    170.63693237304688
                ],
                [
                    171.4979248046875,
                    -219.27337646484375,
                    211.0849609375
                ],
                [
                    217.35166931152344,
                    -171.68075561523438,
                    214.03131103515625
                ],
                [
                    251.52960205078125,
                    36.458740234375,
                    36.47507095336914
                ],
                [
                    251.52960205078125,
                    -36.63356018066406,
                    36.57737731933594
                ],
                [
                    251.52960205078125,
                    -36.0384407043457,
                    -36.38983917236328
                ],
                [
                    251.52960205078125,
                    36.399993896484375,
                    -36.24293899536133
                ],
                [
                    251.529541015625,
                    171.7603759765625,
                    -0.09870719909667969
                ],
                [
                    251.52957153320312,
                    -0.17479705810546875,
                    -171.47743225097656
                ],
                [
                    251.52952575683594,
                    -171.42181396484375,
                    -0.0602642297744751
                ],
                [
                    251.52960205078125,
                    0.4980287551879883,
                    171.46337890625
                ],
                [
                    216.1177978515625,
                    215.43536376953125,
                    -170.63693237304688
                ],
                [
                    219.27337646484375,
                    171.4979248046875,
                    -211.0849609375
                ],
                [
                    171.68075561523438,
                    217.35166931152344,
                    -214.03131103515625
                ],
                [
                    216.1177978515625,
                    215.43536376953125,
                    170.63693237304688
                ],
                [
                    219.27337646484375,
                    171.4979248046875,
                    211.0849609375
                ],
                [
                    171.68075561523438,
                    217.35166931152344,
                    214.03131103515625
                ],
                [
                    -36.458740234375,
                    251.52960205078125,
                    36.47507095336914
                ],
                [
                    36.63356018066406,
                    251.52960205078125,
                    36.57737731933594
                ],
                [
                    36.0384407043457,
                    251.52960205078125,
                    -36.38983917236328
                ],
                [
                    -36.399993896484375,
                    251.52960205078125,
                    -36.24293899536133
                ],
                [
                    -171.7603759765625,
                    251.529541015625,
                    -0.09870719909667969
                ],
                [
                    0.17479705810546875,
                    251.52957153320312,
                    -171.47743225097656
                ],
                [
                    171.42181396484375,
                    251.52952575683594,
                    -0.0602642297744751
                ],
                [
                    -0.4980287551879883,
                    251.52960205078125,
                    171.46337890625
                ],
                [
                    -215.43536376953125,
                    216.1177978515625,
                    -170.63693237304688
                ],
                [
                    -171.4979248046875,
                    219.27337646484375,
                    -211.0849609375
                ],
                [
                    -217.35166931152344,
                    171.68075561523438,
                    -214.03131103515625
                ],
                [
                    -215.43536376953125,
                    216.1177978515625,
                    170.63693237304688
                ],
                [
                    -171.4979248046875,
                    219.27337646484375,
                    211.0849609375
                ],
                [
                    -217.35166931152344,
                    171.68075561523438,
                    214.03131103515625
                ],
                [
                    -35.809898376464844,
                    -35.717674255371094,
                    -251.52960205078125
                ],
                [
                    -35.92420959472656,
                    36.200862884521484,
                    -251.52960205078125
                ],
                [
                    36.43863296508789,
                    36.20912170410156,
                    -251.52963256835938
                ],
                [
                    36.226158142089844,
                    -36.2192268371582,
                    -251.52960205078125
                ],
                [
                    0.27763986587524414,
                    171.92982482910156,
                    -251.52957153320312
                ],
                [
                    171.34178161621094,
                    0.7637190818786621,
                    -251.529541015625
                ],
                [
                    0.03281658887863159,
                    -170.759521484375,
                    -251.52960205078125
                ],
                [
                    -171.77239990234375,
                    0.26622772216796875,
                    -251.52957153320312
                ],
                [
                    -0.344210147857666,
                    -171.6726837158203,
                    251.52957153320312
                ],
                [
                    171.44638061523438,
                    0.5706939697265625,
                    251.52960205078125
                ],
                [
                    -0.1061239242553711,
                    171.50753784179688,
                    251.52960205078125
                ],
                [
                    -171.63546752929688,
                    0.08396720886230469,
                    251.52960205078125
                ],
                [
                    -35.17866134643555,
                    35.456993103027344,
                    251.52963256835938
                ],
                [
                    -36.032039642333984,
                    -36.344581604003906,
                    251.52963256835938
                ],
                [
                    36.27444839477539,
                    -36.03547668457031,
                    251.52963256835938
                ],
                [
                    36.02969741821289,
                    35.55572509765625,
                    251.52960205078125
                ],
                [
                    -0.207855224609375,
                    0.1282806396484375,
                    -251.5296630859375
                ],
                [
                    251.52963256835938,
                    -0.06180381774902344,
                    -0.11058163642883301
                ],
                [
                    -0.05346250534057617,
                    -0.17384910583496094,
                    251.52967834472656
                ],
                [
                    -251.52960205078125,
                    -0.12407493591308594,
                    0.425190806388855
                ],
                [
                    -0.2687110900878906,
                    251.52963256835938,
                    -1.0666465759277344
                ],
                [
                    0.13807058334350586,
                    -251.52960205078125,
                    -0.4454841613769531
                ]
            ],
            "landing_zones": {
                "list": [
                    [
                        0.23666763305664062,
                        251.5296287536621,
                        0.3910636901855469
                    ],
                    [
                        -0.45749378204345703,
                        -251.52965545654297,
                        0.3891410827636719
                    ],
                    [
                        251.52960205078125,
                        0.8441381454467773,
                        0.8503615856170654
                    ],
                    [
                        -251.52960205078125,
                        0.16408252716064453,
                        -0.5153155326843262
                    ],
                    [
                        -0.19606590270996094,
                        0.4452371597290039,
                        -251.52965545654297
                    ],
                    [
                        -0.74810791015625,
                        -0.5742988586425781,
                        251.52965545654297
                    ]
                ],
                "rules": [
                    {
                        "min": 0,
                        "max": 10
                    },
                    {
                        "min": 0,
                        "max": 10
                    },
                    {
                        "min": 0,
                        "max": 10
                    },
                    {
                        "min": 0,
                        "max": 10
                    },
                    {
                        "min": 0,
                        "max": 10
                    },
                    {
                        "min": 0,
                        "max": 10
                    }
                ]
            }
        }
    ],
    "system_index": 9
}