{
    "name": "Its Just a Sphere 2v2v2/3v3/FFA",
	"creator": "TheEffectTheCause",
	"version": "2",
	"description": "Equal spawns, equal oppertunity, equally short distances, may the craziest openings win.",
	"players": [
		2,
		6
	],
    "planets": [
        {
            "name": "Gamble",
            "mass": 10000,
            "position_x": 24300,
            "position_y": -28400,
            "velocity_x": 87.880859375,
            "velocity_y": 75.19384765625,
            "required_thrust_to_move": 0,
            "starting_planet": true,
            "respawn": false,
            "start_destroyed": false,
            "min_spawn_delay": 0,
            "max_spawn_delay": 0,
            "planet": {
                "seed": 318879520,
                "radius": 350,
                "heightRange": 0,
                "waterHeight": 0,
                "waterDepth": 0,
                "temperature": 0,
                "metalDensity": 0,
                "metalClusters": 0,
                "metalSpotLimit": -1,
                "biomeScale": 50,
                "biome": "moon",
                "symmetryType": "none",
                "symmetricalMetal": false,
                "symmetricalStarts": false,
                "numArmies": 2,
                "landingZonesPerArmy": 0,
                "landingZoneSize": 0
            },
            "planetCSG": [
                {
                    "weight": [
                        2,
                        2,
                        2,
                        2
                    ],
                    "spec": "/pa/terrain/moon/brushes/moon_crater_02.json",
                    "proj": "BP_Bend",
                    "transform": [
                        0.707170307636261,
                        -0.04434594511985779,
                        0.2282630354166031,
                        107.41690063476562,
                        0.16712746024131775,
                        -0.41115397214889526,
                        -0.5976463556289673,
                        -281.24273681640625,
                        0.1616755574941635,
                        0.618988037109375,
                        -0.3806246817111969,
                        -179.1158447265625
                    ],
                    "op": "BO_Subtract",
                    "rotation": 0.6203237175941467,
                    "scale": [
                        0.744419515132904,
                        0.744419515132904,
                        0.744419515132904
                    ],
                    "height": 350.31182861328125,
                    "position": [
                        107.41691589355469,
                        -281.2427673339844,
                        -179.11590576171875
                    ],
                    "weightHard": true,
                    "weightScale": [
                        1,
                        1,
                        1
                    ],
                    "mirrored": false,
                    "twinId": 0,
                    "flooded": false,
                    "pathable": true,
                    "mergeable": true,
                    "no_features": false
                },
                {
                    "weight": [
                        2,
                        2,
                        2,
                        2
                    ],
                    "spec": "/pa/terrain/moon/brushes/moon_crater_02.json",
                    "proj": "BP_Bend",
                    "transform": [
                        0.01230086013674736,
                        -0.5229640603065491,
                        0.5190904140472412,
                        245.13858032226562,
                        0.72957843542099,
                        0.08139488101005554,
                        0.0647135004401207,
                        30.56071662902832,
                        -0.10325527936220169,
                        0.5128167867660522,
                        0.519090473651886,
                        245.13861083984375
                    ],
                    "op": "BO_Subtract",
                    "rotation": 1.4961309432983398,
                    "scale": [
                        0.7369515895843506,
                        0.7369515895843506,
                        0.7369515895843506
                    ],
                    "height": 348.0227355957031,
                    "position": [
                        245.13858032226562,
                        30.560714721679688,
                        245.1386260986328
                    ],
                    "weightHard": true,
                    "weightScale": [
                        1,
                        1,
                        1
                    ],
                    "mirrored": false,
                    "twinId": 0,
                    "flooded": false,
                    "pathable": true,
                    "mergeable": true,
                    "no_features": false
                },
                {
                    "weight": [
                        2,
                        2,
                        2,
                        2
                    ],
                    "spec": "/pa/terrain/moon/brushes/moon_crater_02.json",
                    "proj": "BP_Bend",
                    "transform": [
                        1.096053957939148,
                        0.1562010943889618,
                        0.5207118988037109,
                        148.3118133544922,
                        -0.24245890974998474,
                        -0.908416748046875,
                        0.7828578948974609,
                        222.97755432128906,
                        0.48657310009002686,
                        -0.8045209646224976,
                        -0.7828576564788818,
                        -222.9774932861328
                    ],
                    "op": "BO_Subtract",
                    "rotation": 5.152298450469971,
                    "scale": [
                        1.2234680652618408,
                        1.2234680652618408,
                        1.2234680652618408
                    ],
                    "height": 348.4743957519531,
                    "position": [
                        148.3118438720703,
                        222.9776153564453,
                        -222.9776153564453
                    ],
                    "weightHard": true,
                    "weightScale": [
                        1,
                        1,
                        1
                    ],
                    "mirrored": false,
                    "twinId": 0,
                    "flooded": false,
                    "pathable": true,
                    "mergeable": true,
                    "no_features": false
                },
                {
                    "weight": [
                        2,
                        2,
                        2,
                        2
                    ],
                    "spec": "/pa/terrain/moon/brushes/moon_crater_02.json",
                    "proj": "BP_Bend",
                    "transform": [
                        -0.5838653445243835,
                        0.3747234344482422,
                        -0.12545709311962128,
                        -62.13420104980469,
                        0.3934090733528137,
                        0.5301048159599304,
                        -0.24753569066524506,
                        -122.59516143798828,
                        -0.037235744297504425,
                        -0.27500346302986145,
                        -0.6481067538261414,
                        -320.9830017089844
                    ],
                    "op": "BO_Subtract",
                    "rotation": 2.8070831298828125,
                    "scale": [
                        0.7050219774246216,
                        0.7050219774246216,
                        0.7050219774246216
                    ],
                    "height": 349.1709899902344,
                    "position": [
                        -62.13419723510742,
                        -122.59515380859375,
                        -320.98309326171875
                    ],
                    "weightHard": true,
                    "weightScale": [
                        1,
                        1,
                        1
                    ],
                    "mirrored": false,
                    "twinId": 0,
                    "flooded": false,
                    "pathable": true,
                    "mergeable": true,
                    "no_features": false
                },
                {
                    "weight": [
                        2,
                        2,
                        2,
                        2
                    ],
                    "spec": "/pa/terrain/moon/brushes/moon_crater_02.json",
                    "proj": "BP_Bend",
                    "transform": [
                        0.5672578811645508,
                        0.3905074894428253,
                        -0.5811873078346252,
                        -225.55258178710938,
                        0.402382493019104,
                        -0.7939409017562866,
                        -0.14072099328041077,
                        -54.6123161315918,
                        -0.5730297565460205,
                        -0.1709326207637787,
                        -0.6741477251052856,
                        -261.6295471191406
                    ],
                    "op": "BO_Subtract",
                    "rotation": 3.08925461769104,
                    "scale": [
                        0.9011416435241699,
                        0.9011416435241699,
                        0.9011416435241699
                    ],
                    "height": 349.72344970703125,
                    "position": [
                        -225.55262756347656,
                        -54.61232376098633,
                        -261.6295166015625
                    ],
                    "weightHard": true,
                    "weightScale": [
                        1,
                        1,
                        1
                    ],
                    "mirrored": false,
                    "twinId": 0,
                    "flooded": false,
                    "pathable": true,
                    "mergeable": true,
                    "no_features": false
                },
                {
                    "weight": [
                        2,
                        2,
                        2,
                        2
                    ],
                    "spec": "/pa/terrain/moon/brushes/moon_crater_02.json",
                    "proj": "BP_Bend",
                    "transform": [
                        -0.3043333888053894,
                        -1.07377290725708,
                        -0.844646155834198,
                        -209.98928833007812,
                        1.0581321716308594,
                        -0.7326356172561646,
                        0.5501230955123901,
                        136.7672882080078,
                        -0.8641595244407654,
                        -0.5189325213432312,
                        0.9710672497749329,
                        241.4191131591797
                    ],
                    "op": "BO_Subtract",
                    "rotation": 2.0235087871551514,
                    "scale": [
                        1.3996551036834717,
                        1.3996551036834717,
                        1.3996551036834717
                    ],
                    "height": 347.9712219238281,
                    "position": [
                        -209.98927307128906,
                        136.76727294921875,
                        241.41912841796875
                    ],
                    "weightHard": true,
                    "weightScale": [
                        1,
                        1,
                        1
                    ],
                    "mirrored": false,
                    "twinId": 0,
                    "flooded": false,
                    "pathable": true,
                    "mergeable": true,
                    "no_features": false
                },
                {
                    "weight": [
                        2,
                        2,
                        2,
                        2
                    ],
                    "spec": "/pa/terrain/moon/brushes/moon_crater_02.json",
                    "proj": "BP_Bend",
                    "transform": [
                        -0.39650142192840576,
                        0.6118108034133911,
                        -1.1575671434402466,
                        -295.050048828125,
                        0.552609384059906,
                        -1.0182768106460571,
                        -0.7274768352508545,
                        -185.4251708984375,
                        -1.1869696378707886,
                        -0.6784447431564331,
                        0.04799312725663185,
                        12.23287582397461
                    ],
                    "op": "BO_Subtract",
                    "rotation": 3.18341326713562,
                    "scale": [
                        1.368023157119751,
                        1.368023157119751,
                        1.368023157119751
                    ],
                    "height": 348.6927795410156,
                    "position": [
                        -295.050048828125,
                        -185.4251708984375,
                        12.232898712158203
                    ],
                    "weightHard": true,
                    "weightScale": [
                        1,
                        1,
                        1
                    ],
                    "mirrored": false,
                    "twinId": 0,
                    "flooded": false,
                    "pathable": true,
                    "mergeable": true,
                    "no_features": false
                }
            ],
            "metal_spots": [
                [
                    -251.52960205078125,
                    -36.458740234375,
                    36.47507095336914
                ],
                [
                    -251.52960205078125,
                    36.63356018066406,
                    36.57737731933594
                ],
                [
                    -251.52960205078125,
                    36.0384407043457,
                    -36.38983917236328
                ],
                [
                    -251.52960205078125,
                    -36.399993896484375,
                    -36.24293899536133
                ],
                [
                    -251.529541015625,
                    -171.7603759765625,
                    -0.09870719909667969
                ],
                [
                    -251.52957153320312,
                    0.17479705810546875,
                    -171.47743225097656
                ],
                [
                    -251.52952575683594,
                    171.42181396484375,
                    -0.0602642297744751
                ],
                [
                    -251.52960205078125,
                    -0.4980287551879883,
                    171.46337890625
                ],
                [
                    -216.1177978515625,
                    -215.43536376953125,
                    -170.63693237304688
                ],
                [
                    -219.27337646484375,
                    -171.4979248046875,
                    -211.0849609375
                ],
                [
                    -171.68075561523438,
                    -217.35166931152344,
                    -214.03131103515625
                ],
                [
                    -216.1177978515625,
                    -215.43536376953125,
                    170.63693237304688
                ],
                [
                    -219.27337646484375,
                    -171.4979248046875,
                    211.0849609375
                ],
                [
                    -171.68075561523438,
                    -217.35166931152344,
                    214.03131103515625
                ],
                [
                    36.458740234375,
                    -251.52960205078125,
                    36.47507095336914
                ],
                [
                    -36.63356018066406,
                    -251.52960205078125,
                    36.57737731933594
                ],
                [
                    -36.0384407043457,
                    -251.52960205078125,
                    -36.38983917236328
                ],
                [
                    36.399993896484375,
                    -251.52960205078125,
                    -36.24293899536133
                ],
                [
                    171.7603759765625,
                    -251.529541015625,
                    -0.09870719909667969
                ],
                [
                    -0.17479705810546875,
                    -251.52957153320312,
                    -171.47743225097656
                ],
                [
                    -171.42181396484375,
                    -251.52952575683594,
                    -0.0602642297744751
                ],
                [
                    0.4980287551879883,
                    -251.52960205078125,
                    171.46337890625
                ],
                [
                    215.43536376953125,
                    -216.1177978515625,
                    -170.63693237304688
                ],
                [
                    171.4979248046875,
                    -219.27337646484375,
                    -211.0849609375
                ],
                [
                    217.35166931152344,
                    -171.68075561523438,
                    -214.03131103515625
                ],
                [
                    215.43536376953125,
                    -216.1177978515625,
                    170.63693237304688
                ],
                [
                    171.4979248046875,
                    -219.27337646484375,
                    211.0849609375
                ],
                [
                    217.35166931152344,
                    -171.68075561523438,
                    214.03131103515625
                ],
                [
                    251.52960205078125,
                    36.458740234375,
                    36.47507095336914
                ],
                [
                    251.52960205078125,
                    -36.63356018066406,
                    36.57737731933594
                ],
                [
                    251.52960205078125,
                    -36.0384407043457,
                    -36.38983917236328
                ],
                [
                    251.52960205078125,
                    36.399993896484375,
                    -36.24293899536133
                ],
                [
                    251.529541015625,
                    171.7603759765625,
                    -0.09870719909667969
                ],
                [
                    251.52957153320312,
                    -0.17479705810546875,
                    -171.47743225097656
                ],
                [
                    251.52952575683594,
                    -171.42181396484375,
                    -0.0602642297744751
                ],
                [
                    251.52960205078125,
                    0.4980287551879883,
                    171.46337890625
                ],
                [
                    216.1177978515625,
                    215.43536376953125,
                    -170.63693237304688
                ],
                [
                    219.27337646484375,
                    171.4979248046875,
                    -211.0849609375
                ],
                [
                    171.68075561523438,
                    217.35166931152344,
                    -214.03131103515625
                ],
                [
                    216.1177978515625,
                    215.43536376953125,
                    170.63693237304688
                ],
                [
                    219.27337646484375,
                    171.4979248046875,
                    211.0849609375
                ],
                [
                    171.68075561523438,
                    217.35166931152344,
                    214.03131103515625
                ],
                [
                    -36.458740234375,
                    251.52960205078125,
                    36.47507095336914
                ],
                [
                    36.63356018066406,
                    251.52960205078125,
                    36.57737731933594
                ],
                [
                    36.0384407043457,
                    251.52960205078125,
                    -36.38983917236328
                ],
                [
                    -36.399993896484375,
                    251.52960205078125,
                    -36.24293899536133
                ],
                [
                    -171.7603759765625,
                    251.529541015625,
                    -0.09870719909667969
                ],
                [
                    0.17479705810546875,
                    251.52957153320312,
                    -171.47743225097656
                ],
                [
                    171.42181396484375,
                    251.52952575683594,
                    -0.0602642297744751
                ],
                [
                    -0.4980287551879883,
                    251.52960205078125,
                    171.46337890625
                ],
                [
                    -215.43536376953125,
                    216.1177978515625,
                    -170.63693237304688
                ],
                [
                    -171.4979248046875,
                    219.27337646484375,
                    -211.0849609375
                ],
                [
                    -217.35166931152344,
                    171.68075561523438,
                    -214.03131103515625
                ],
                [
                    -215.43536376953125,
                    216.1177978515625,
                    170.63693237304688
                ],
                [
                    -171.4979248046875,
                    219.27337646484375,
                    211.0849609375
                ],
                [
                    -217.35166931152344,
                    171.68075561523438,
                    214.03131103515625
                ],
                [
                    -35.809898376464844,
                    -35.717674255371094,
                    -251.52960205078125
                ],
                [
                    -35.92420959472656,
                    36.200862884521484,
                    -251.52960205078125
                ],
                [
                    36.43863296508789,
                    36.20912170410156,
                    -251.52963256835938
                ],
                [
                    36.226158142089844,
                    -36.2192268371582,
                    -251.52960205078125
                ],
                [
                    0.27763986587524414,
                    171.92982482910156,
                    -251.52957153320312
                ],
                [
                    171.34178161621094,
                    0.7637190818786621,
                    -251.529541015625
                ],
                [
                    0.03281658887863159,
                    -170.759521484375,
                    -251.52960205078125
                ],
                [
                    -171.77239990234375,
                    0.26622772216796875,
                    -251.52957153320312
                ],
                [
                    -0.344210147857666,
                    -171.6726837158203,
                    251.52957153320312
                ],
                [
                    171.44638061523438,
                    0.5706939697265625,
                    251.52960205078125
                ],
                [
                    -0.1061239242553711,
                    171.50753784179688,
                    251.52960205078125
                ],
                [
                    -171.63546752929688,
                    0.08396720886230469,
                    251.52960205078125
                ],
                [
                    -35.17866134643555,
                    35.456993103027344,
                    251.52963256835938
                ],
                [
                    -36.032039642333984,
                    -36.344581604003906,
                    251.52963256835938
                ],
                [
                    36.27444839477539,
                    -36.03547668457031,
                    251.52963256835938
                ],
                [
                    36.02969741821289,
                    35.55572509765625,
                    251.52960205078125
                ],
                [
                    -0.207855224609375,
                    0.1282806396484375,
                    -251.5296630859375
                ],
                [
                    251.52963256835938,
                    -0.06180381774902344,
                    -0.11058163642883301
                ],
                [
                    -0.05346250534057617,
                    -0.17384910583496094,
                    251.52967834472656
                ],
                [
                    -251.52960205078125,
                    -0.12407493591308594,
                    0.425190806388855
                ],
                [
                    -0.2687110900878906,
                    251.52963256835938,
                    -1.0666465759277344
                ],
                [
                    0.13807058334350586,
                    -251.52960205078125,
                    -0.4454841613769531
                ]
            ],
            "landing_zones": {
                "list": [
                    [
                        -0.5516014099121094,
                        346.805419921875,
                        0.4332847595214844
                    ],
                    [
                        -350.03369140625,
                        -1.0847415924072266,
                        -0.08981847763061523
                    ],
                    [
                        -0.07568359375,
                        -349.26373291015625,
                        -1.3052067756652832
                    ],
                    [
                        -2.7894058227539062,
                        -1.0912723541259766,
                        -349.80621337890625
                    ],
                    [
                        349.11248779296875,
                        1.1741294860839844,
                        -1.1426010131835938
                    ],
                    [
                        0.6779861450195312,
                        1.7122879028320312,
                        346.7467041015625
                    ]
                ],
                "rules": [
                    {
                        "min": 0,
                        "max": 10
                    },
                    {
                        "min": 0,
                        "max": 10
                    },
                    {
                        "min": 0,
                        "max": 10
                    },
                    {
                        "min": 0,
                        "max": 10
                    },
                    {
                        "min": 0,
                        "max": 10
                    },
                    {
                        "min": 0,
                        "max": 10
                    }
                ]
            }
        }
    ]
}