{
	"name": "Mune 5v5 NS",
	"creator": "TheEffectTheCause",
	"version": "1",
	"description": "A metal edit of GrandHomies Lune 5v5v ns, more room to build.",
	"players": [
		10,
		10
	],
	"planets": [{
			"name": "Mune 5v5 NS",
			"mass": 10000,
			"position_x": -600,
			"position_y": -17800,
			"velocity_x": 167.45770263671875,
			"velocity_y": -5.644634246826172,
			"required_thrust_to_move": 0,
			"starting_planet": true,
			"respawn": false,
			"start_destroyed": false,
			"min_spawn_delay": 0,
			"max_spawn_delay": 0,
			"planet": {
				"seed": 1068903808,
				"radius": 550,
				"heightRange": 0,
				"waterHeight": 0,
				"waterDepth": 0,
				"temperature": 0,
				"metalDensity": 50,
				"metalClusters": 50,
				"metalSpotLimit": -1,
				"biomeScale": 50,
				"biome": "moon",
				"symmetryType": "terrain and CSG",
				"symmetricalMetal": true,
				"symmetricalStarts": false,
				"numArmies": 2,
				"landingZonesPerArmy": 0,
				"landingZoneSize": 89
			},
			"planetCSG": [{
					"spec": "/pa/terrain/moon/brushes/moon_crater_02.json",
					"weight": [
						0,
						0,
						0,
						0
					],
					"proj": "BP_Bend",
					"op": "BO_Subtract",
					"transform": [
						1.3199996948242188,
						0,
						0,
						0,
						0,
						1.3199996948242188,
						0,
						0,
						0,
						0,
						1.3199996948242188,
						552.8579711914062
					],
					"scale": [
						1.3199996948242188,
						1.3199996948242188,
						1.3199996948242188
					],
					"rotation": 0,
					"position": [
						0,
						0,
						550
					],
					"height": 552.8579711914062,
					"weightHard": false,
					"weightScale": [
						1,
						1,
						1
					],
					"mirrored": false,
					"twinId": 0,
					"flooded": false,
					"pathable": true,
					"mergeable": true,
					"no_features": false
				}, {
					"spec": "/pa/terrain/moon/brushes/moon_crater_02.json",
					"weight": [
						0,
						0,
						0,
						0
					],
					"proj": "BP_Bend",
					"op": "BO_Subtract",
					"transform": [
						-1.3199996948242188,
						1.1539803779214708e-7,
						0,
						0,
						-1.1539803779214708e-7,
						-1.3199996948242188,
						0,
						0,
						0,
						0,
						-1.3199996948242188,
						-549.8579711914062
					],
					"scale": [
						1.3199996948242188,
						1.3199996948242188,
						1.3199996948242188
					],
					"rotation": 3.1415927410125732,
					"position": [
						0,
						0,
						550
					],
					"height": 549.8579711914062,
					"weightHard": false,
					"weightScale": [
						1,
						1,
						1
					],
					"mirrored": true,
					"twinId": 0,
					"flooded": false,
					"pathable": true,
					"mergeable": true,
					"no_features": false
				}
			],
			"metal_spots": [
				[
					154.5863800048828,
					-430.7860107421875,
					303.845458984375
				],
				[
					154.5863800048828,
					-430.7860107421875,
					-303.845458984375
				],
				[
					94.33525085449219,
					-517.92822265625,
					157.0721435546875
				],
				[
					94.33525085449219,
					-517.92822265625,
					-157.0721435546875
				],
				[
					132.9837188720703,
					-507.909423828125,
					162.45751953125
				],
				[
					132.9837188720703,
					-507.909423828125,
					-162.45751953125
				],
				[
					178.3651123046875,
					-518.740966796875,
					23.436599731445312
				],
				[
					178.3651123046875,
					-518.740966796875,
					-23.436599731445312
				],
				[
					33.725830078125,
					-116.54052734375,
					536.655029296875
				],
				[
					33.725830078125,
					-116.54052734375,
					-536.655029296875
				],
				[
					45.540771484375,
					-164.6475830078125,
					522.3509521484375
				],
				[
					45.540771484375,
					-164.6475830078125,
					-522.3509521484375
				],
				[
					135.59149169921875,
					-345.3394775390625,
					406.44793701171875
				],
				[
					135.59149169921875,
					-345.3394775390625,
					-406.44793701171875
				],
				[
					163.01760864257812,
					-309.59619140625,
					425.2240295410156
				],
				[
					163.01760864257812,
					-309.59619140625,
					-425.2240295410156
				],
				[
					23.77438735961914,
					-400.3509521484375,
					375.9638671875
				],
				[
					23.77438735961914,
					-400.3509521484375,
					-375.9638671875
				],
				[
					26.530258178710938,
					-428.9683837890625,
					343.01678466796875
				],
				[
					26.530258178710938,
					-428.9683837890625,
					-343.01678466796875
				],
				[
					-154.5863800048828,
					-430.7860107421875,
					303.845458984375
				],
				[
					-154.5863800048828,
					-430.7860107421875,
					-303.845458984375
				],
				[
					-94.33525085449219,
					-517.92822265625,
					157.0721435546875
				],
				[
					-94.33525085449219,
					-517.92822265625,
					-157.0721435546875
				],
				[
					-132.9837188720703,
					-507.909423828125,
					162.45751953125
				],
				[
					-132.9837188720703,
					-507.909423828125,
					-162.45751953125
				],
				[
					-178.3651123046875,
					-518.740966796875,
					23.436599731445312
				],
				[
					-178.3651123046875,
					-518.740966796875,
					-23.436599731445312
				],
				[
					-33.725830078125,
					-116.54052734375,
					536.655029296875
				],
				[
					-33.725830078125,
					-116.54052734375,
					-536.655029296875
				],
				[
					-45.540771484375,
					-164.6475830078125,
					522.3509521484375
				],
				[
					-45.540771484375,
					-164.6475830078125,
					-522.3509521484375
				],
				[
					-135.59149169921875,
					-345.3394775390625,
					406.44793701171875
				],
				[
					-135.59149169921875,
					-345.3394775390625,
					-406.44793701171875
				],
				[
					-163.01760864257812,
					-309.59619140625,
					425.2240295410156
				],
				[
					-163.01760864257812,
					-309.59619140625,
					-425.2240295410156
				],
				[
					-23.77438735961914,
					-400.3509521484375,
					375.9638671875
				],
				[
					-23.77438735961914,
					-400.3509521484375,
					-375.9638671875
				],
				[
					-26.530258178710938,
					-428.9683837890625,
					343.01678466796875
				],
				[
					-26.530258178710938,
					-428.9683837890625,
					-343.01678466796875
				],
				[
					-27.590316772460938,
					-271.28338623046875,
					476.3203125
				],
				[
					-27.590316772460938,
					-271.28338623046875,
					-476.3203125
				],
				[
					27.590316772460938,
					-271.28338623046875,
					476.3203125
				],
				[
					27.590316772460938,
					-271.28338623046875,
					-476.3203125
				],
				[
					457.4716491699219,
					13.900185585021973,
					303.845458984375
				],
				[
					457.4716491699219,
					13.900185585021973,
					-303.845458984375
				],
				[
					521.730224609375,
					-70.3304672241211,
					157.0721435546875
				],
				[
					521.730224609375,
					-70.3304672241211,
					-157.0721435546875
				],
				[
					524.144775390625,
					-30.477611541748047,
					162.45751953125
				],
				[
					524.144775390625,
					-30.477611541748047,
					-162.45751953125
				],
				[
					548.4698486328125,
					9.335528373718262,
					23.436599731445312
				],
				[
					548.4698486328125,
					9.335528373718262,
					-23.436599731445312
				],
				[
					121.25848388671875,
					-3.937833070755005,
					536.655029296875
				],
				[
					121.25848388671875,
					-3.937833070755005,
					-536.655029296875
				],
				[
					170.6620330810547,
					-7.56705379486084,
					522.3509521484375
				],
				[
					170.6620330810547,
					-7.56705379486084,
					-522.3509521484375
				],
				[
					370.3374328613281,
					22.239404678344727,
					406.44793701171875
				],
				[
					370.3374328613281,
					22.239404678344727,
					-406.44793701171875
				],
				[
					344.8186950683594,
					59.368473052978516,
					425.2240295410156
				],
				[
					344.8186950683594,
					59.368473052978516,
					-425.2240295410156
				],
				[
					388.1030578613281,
					-101.10446166992188,
					375.9638671875
				],
				[
					388.1030578613281,
					-101.10446166992188,
					-375.9638671875
				],
				[
					416.1714782714844,
					-107.32674407958984,
					343.01678466796875
				],
				[
					416.1714782714844,
					-107.32674407958984,
					-343.01678466796875
				],
				[
					361.9320373535156,
					-280.1405944824219,
					303.845458984375
				],
				[
					361.9320373535156,
					-280.1405944824219,
					-303.845458984375
				],
				[
					463.4278259277344,
					-249.76678466796875,
					157.0721435546875
				],
				[
					463.4278259277344,
					-249.76678466796875,
					-157.0721435546875
				],
				[
					441.9563293457031,
					-283.42767333984375,
					162.45751953125
				],
				[
					441.9563293457031,
					-283.42767333984375,
					-162.45751953125
				],
				[
					438.234130859375,
					-329.9350891113281,
					23.436599731445312
				],
				[
					438.234130859375,
					-329.9350891113281,
					-23.436599731445312
				],
				[
					100.4147720336914,
					-68.08817291259766,
					536.655029296875
				],
				[
					100.4147720336914,
					-68.08817291259766,
					-536.655029296875
				],
				[
					142.5162811279297,
					-94.19075012207031,
					522.3509521484375
				],
				[
					142.5162811279297,
					-94.19075012207031,
					-522.3509521484375
				],
				[
					286.53729248046875,
					-235.6709442138672,
					406.44793701171875
				],
				[
					286.53729248046875,
					-235.6709442138672,
					-406.44793701171875
				],
				[
					244.06826782226562,
					-250.70944213867188,
					425.2240295410156
				],
				[
					244.06826782226562,
					-250.70944213867188,
					-425.2240295410156
				],
				[
					373.4096984863281,
					-146.32603454589844,
					375.9638671875
				],
				[
					373.4096984863281,
					-146.32603454589844,
					-375.9638671875
				],
				[
					399.7748718261719,
					-157.79029846191406,
					343.01678466796875
				],
				[
					399.7748718261719,
					-157.79029846191406,
					-343.01678466796875
				],
				[
					249.47994995117188,
					-110.07112884521484,
					476.3203125
				],
				[
					249.47994995117188,
					-110.07112884521484,
					-476.3203125
				],
				[
					266.5317077636719,
					-57.591224670410156,
					476.3203125
				],
				[
					266.5317077636719,
					-57.591224670410156,
					-476.3203125
				],
				[
					128.1466522216797,
					439.3768005371094,
					303.845458984375
				],
				[
					128.1466522216797,
					439.3768005371094,
					-303.845458984375
				],
				[
					228.11175537109375,
					474.46160888671875,
					157.0721435546875
				],
				[
					228.11175537109375,
					474.46160888671875,
					-157.0721435546875
				],
				[
					190.95558166503906,
					489.0732116699219,
					162.45751953125
				],
				[
					190.95558166503906,
					489.0732116699219,
					-162.45751953125
				],
				[
					160.60787963867188,
					524.5106201171875,
					23.436599731445312
				],
				[
					160.60787963867188,
					524.5106201171875,
					-23.436599731445312
				],
				[
					41.216033935546875,
					114.1068115234375,
					536.655029296875
				],
				[
					41.216033935546875,
					114.1068115234375,
					-536.655029296875
				],
				[
					59.93416213989258,
					159.97088623046875,
					522.3509521484375
				],
				[
					59.93416213989258,
					159.97088623046875,
					-522.3509521484375
				],
				[
					93.28962707519531,
					359.0841979980469,
					406.44793701171875
				],
				[
					93.28962707519531,
					359.0841979980469,
					-406.44793701171875
				],
				[
					50.09206008911133,
					346.2879333496094,
					425.2240295410156
				],
				[
					50.09206008911133,
					346.2879333496094,
					-425.2240295410156
				],
				[
					216.0865020751953,
					337.8649597167969,
					375.9638671875
				],
				[
					216.0865020751953,
					337.8649597167969,
					-375.9638671875
				],
				[
					230.6778564453125,
					362.6368103027344,
					343.01678466796875
				],
				[
					230.6778564453125,
					362.6368103027344,
					-343.01678466796875
				],
				[
					378.2726745605469,
					257.64959716796875,
					303.845458984375
				],
				[
					378.2726745605469,
					257.64959716796875,
					-303.845458984375
				],
				[
					380.7493896484375,
					363.5638732910156,
					157.0721435546875
				],
				[
					380.7493896484375,
					363.5638732910156,
					-157.0721435546875
				],
				[
					406.12774658203125,
					332.7414855957031,
					162.45751953125
				],
				[
					406.12774658203125,
					332.7414855957031,
					-162.45751953125
				],
				[
					449.2087097167969,
					314.8298645019531,
					23.436599731445312
				],
				[
					449.2087097167969,
					314.8298645019531,
					-23.436599731445312
				],
				[
					95.78557586669922,
					74.45972442626953,
					536.655029296875
				],
				[
					95.78557586669922,
					74.45972442626953,
					-536.655029296875
				],
				[
					133.6206817626953,
					106.43450164794922,
					522.3509521484375
				],
				[
					133.6206817626953,
					106.43450164794922,
					-522.3509521484375
				],
				[
					312.6812744140625,
					199.68682861328125,
					406.44793701171875
				],
				[
					312.6812744140625,
					199.68682861328125,
					-406.44793701171875
				],
				[
					313.8600769042969,
					154.64923095703125,
					425.2240295410156
				],
				[
					313.8600769042969,
					154.64923095703125,
					-425.2240295410156
				],
				[
					254.5542755126953,
					309.91650390625,
					375.9638671875
				],
				[
					254.5542755126953,
					309.91650390625,
					-375.9638671875
				],
				[
					273.6047058105469,
					331.4486083984375,
					343.01678466796875
				],
				[
					273.6047058105469,
					331.4486083984375,
					-343.01678466796875
				],
				[
					181.77740478515625,
					203.2556915283203,
					476.3203125
				],
				[
					181.77740478515625,
					203.2556915283203,
					-476.3203125
				],
				[
					137.13534545898438,
					235.69004821777344,
					476.3203125
				],
				[
					137.13534545898438,
					235.69004821777344,
					-476.3203125
				],
				[
					-378.2726745605469,
					257.64959716796875,
					303.845458984375
				],
				[
					-378.2726745605469,
					257.64959716796875,
					-303.845458984375
				],
				[
					-380.7493896484375,
					363.5638732910156,
					157.0721435546875
				],
				[
					-380.7493896484375,
					363.5638732910156,
					-157.0721435546875
				],
				[
					-406.12774658203125,
					332.7414855957031,
					162.45751953125
				],
				[
					-406.12774658203125,
					332.7414855957031,
					-162.45751953125
				],
				[
					-449.2087097167969,
					314.8298645019531,
					23.436599731445312
				],
				[
					-449.2087097167969,
					314.8298645019531,
					-23.436599731445312
				],
				[
					-95.78557586669922,
					74.45972442626953,
					536.655029296875
				],
				[
					-95.78557586669922,
					74.45972442626953,
					-536.655029296875
				],
				[
					-133.6206817626953,
					106.43450164794922,
					522.3509521484375
				],
				[
					-133.6206817626953,
					106.43450164794922,
					-522.3509521484375
				],
				[
					-312.6812744140625,
					199.68682861328125,
					406.44793701171875
				],
				[
					-312.6812744140625,
					199.68682861328125,
					-406.44793701171875
				],
				[
					-313.8600769042969,
					154.64923095703125,
					425.2240295410156
				],
				[
					-313.8600769042969,
					154.64923095703125,
					-425.2240295410156
				],
				[
					-254.5542755126953,
					309.91650390625,
					375.9638671875
				],
				[
					-254.5542755126953,
					309.91650390625,
					-375.9638671875
				],
				[
					-273.6047058105469,
					331.4486083984375,
					343.01678466796875
				],
				[
					-273.6047058105469,
					331.4486083984375,
					-343.01678466796875
				],
				[
					-128.1466522216797,
					439.3768005371094,
					303.845458984375
				],
				[
					-128.1466522216797,
					439.3768005371094,
					-303.845458984375
				],
				[
					-228.11175537109375,
					474.46160888671875,
					157.0721435546875
				],
				[
					-228.11175537109375,
					474.46160888671875,
					-157.0721435546875
				],
				[
					-190.95558166503906,
					489.0732116699219,
					162.45751953125
				],
				[
					-190.95558166503906,
					489.0732116699219,
					-162.45751953125
				],
				[
					-160.60787963867188,
					524.5106201171875,
					23.436599731445312
				],
				[
					-160.60787963867188,
					524.5106201171875,
					-23.436599731445312
				],
				[
					-41.216033935546875,
					114.1068115234375,
					536.655029296875
				],
				[
					-41.216033935546875,
					114.1068115234375,
					-536.655029296875
				],
				[
					-59.93416213989258,
					159.97088623046875,
					522.3509521484375
				],
				[
					-59.93416213989258,
					159.97088623046875,
					-522.3509521484375
				],
				[
					-93.28962707519531,
					359.0841979980469,
					406.44793701171875
				],
				[
					-93.28962707519531,
					359.0841979980469,
					-406.44793701171875
				],
				[
					-50.09206008911133,
					346.2879333496094,
					425.2240295410156
				],
				[
					-50.09206008911133,
					346.2879333496094,
					-425.2240295410156
				],
				[
					-216.0865020751953,
					337.8649597167969,
					375.9638671875
				],
				[
					-216.0865020751953,
					337.8649597167969,
					-375.9638671875
				],
				[
					-230.6778564453125,
					362.6368103027344,
					343.01678466796875
				],
				[
					-230.6778564453125,
					362.6368103027344,
					-343.01678466796875
				],
				[
					-137.13534545898438,
					235.69004821777344,
					476.3203125
				],
				[
					-137.13534545898438,
					235.69004821777344,
					-476.3203125
				],
				[
					-181.77740478515625,
					203.2556915283203,
					476.3203125
				],
				[
					-181.77740478515625,
					203.2556915283203,
					-476.3203125
				],
				[
					-361.9320373535156,
					-280.1405944824219,
					303.845458984375
				],
				[
					-361.9320373535156,
					-280.1405944824219,
					-303.845458984375
				],
				[
					-463.4278259277344,
					-249.76678466796875,
					157.0721435546875
				],
				[
					-463.4278259277344,
					-249.76678466796875,
					-157.0721435546875
				],
				[
					-441.9563293457031,
					-283.42767333984375,
					162.45751953125
				],
				[
					-441.9563293457031,
					-283.42767333984375,
					-162.45751953125
				],
				[
					-438.234130859375,
					-329.9350891113281,
					23.436599731445312
				],
				[
					-438.234130859375,
					-329.9350891113281,
					-23.436599731445312
				],
				[
					-100.4147720336914,
					-68.08817291259766,
					536.655029296875
				],
				[
					-100.4147720336914,
					-68.08817291259766,
					-536.655029296875
				],
				[
					-142.5162811279297,
					-94.19075012207031,
					522.3509521484375
				],
				[
					-142.5162811279297,
					-94.19075012207031,
					-522.3509521484375
				],
				[
					-286.53729248046875,
					-235.6709442138672,
					406.44793701171875
				],
				[
					-286.53729248046875,
					-235.6709442138672,
					-406.44793701171875
				],
				[
					-244.06826782226562,
					-250.70944213867188,
					425.2240295410156
				],
				[
					-244.06826782226562,
					-250.70944213867188,
					-425.2240295410156
				],
				[
					-373.4096984863281,
					-146.32603454589844,
					375.9638671875
				],
				[
					-373.4096984863281,
					-146.32603454589844,
					-375.9638671875
				],
				[
					-399.7748718261719,
					-157.79029846191406,
					343.01678466796875
				],
				[
					-399.7748718261719,
					-157.79029846191406,
					-343.01678466796875
				],
				[
					-457.4716491699219,
					13.900185585021973,
					303.845458984375
				],
				[
					-457.4716491699219,
					13.900185585021973,
					-303.845458984375
				],
				[
					-521.730224609375,
					-70.3304672241211,
					157.0721435546875
				],
				[
					-521.730224609375,
					-70.3304672241211,
					-157.0721435546875
				],
				[
					-524.144775390625,
					-30.477611541748047,
					162.45751953125
				],
				[
					-524.144775390625,
					-30.477611541748047,
					-162.45751953125
				],
				[
					-548.4698486328125,
					9.335528373718262,
					23.436599731445312
				],
				[
					-548.4698486328125,
					9.335528373718262,
					-23.436599731445312
				],
				[
					-121.25848388671875,
					-3.937833070755005,
					536.655029296875
				],
				[
					-121.25848388671875,
					-3.937833070755005,
					-536.655029296875
				],
				[
					-170.6620330810547,
					-7.56705379486084,
					522.3509521484375
				],
				[
					-170.6620330810547,
					-7.56705379486084,
					-522.3509521484375
				],
				[
					-370.3374328613281,
					22.239404678344727,
					406.44793701171875
				],
				[
					-370.3374328613281,
					22.239404678344727,
					-406.44793701171875
				],
				[
					-344.8186950683594,
					59.368473052978516,
					425.2240295410156
				],
				[
					-344.8186950683594,
					59.368473052978516,
					-425.2240295410156
				],
				[
					-388.1030578613281,
					-101.10446166992188,
					375.9638671875
				],
				[
					-388.1030578613281,
					-101.10446166992188,
					-375.9638671875
				],
				[
					-416.1714782714844,
					-107.32674407958984,
					343.01678466796875
				],
				[
					-416.1714782714844,
					-107.32674407958984,
					-343.01678466796875
				],
				[
					-266.5317077636719,
					-57.591224670410156,
					476.3203125
				],
				[
					-266.5317077636719,
					-57.591224670410156,
					-476.3203125
				],
				[
					-249.47994995117188,
					-110.07112884521484,
					476.3203125
				],
				[
					-249.47994995117188,
					-110.07112884521484,
					-476.3203125
				],
				[
					-267.1749267578125,
					-476.18505859375,
					64.95120239257812
				],
				[
					-267.1749267578125,
					-476.18505859375,
					-64.95120239257812
				],
				[
					-295.384765625,
					-463.0697021484375,
					29.155925750732422
				],
				[
					-295.384765625,
					-463.0697021484375,
					-29.155925750732422
				],
				[
					267.1749267578125,
					-476.18505859375,
					64.95120239257812
				],
				[
					267.1749267578125,
					-476.18505859375,
					-64.95120239257812
				],
				[
					295.384765625,
					-463.0697021484375,
					29.155925750732422
				],
				[
					295.384765625,
					-463.0697021484375,
					-29.155925750732422
				],
				[
					535.4404907226562,
					106.94918060302734,
					64.95120239257812
				],
				[
					535.4404907226562,
					106.94918060302734,
					-64.95120239257812
				],
				[
					531.6843872070312,
					137.83119201660156,
					29.155925750732422
				],
				[
					531.6843872070312,
					137.83119201660156,
					-29.155925750732422
				],
				[
					63.74549865722656,
					542.2832641601562,
					64.95120239257812
				],
				[
					63.74549865722656,
					542.2832641601562,
					-64.95120239257812
				],
				[
					33.2142448425293,
					548.2540893554688,
					29.155925750732422
				],
				[
					33.2142448425293,
					548.2540893554688,
					-29.155925750732422
				],
				[
					370.31732177734375,
					-401.24774169921875,
					64.95120239257812
				],
				[
					370.31732177734375,
					-401.24774169921875,
					-64.95120239257812
				],
				[
					349.1265563964844,
					-424.0240173339844,
					29.155925750732422
				],
				[
					349.1265563964844,
					-424.0240173339844,
					-29.155925750732422
				],
				[
					-496.0436096191406,
					228.2003173828125,
					64.95120239257812
				],
				[
					-496.0436096191406,
					228.2003173828125,
					-64.95120239257812
				],
				[
					-511.1568298339844,
					201.00845336914062,
					29.155925750732422
				],
				[
					-511.1568298339844,
					201.00845336914062,
					-29.155925750732422
				],
				[
					496.0436096191406,
					228.2003173828125,
					64.95120239257812
				],
				[
					496.0436096191406,
					228.2003173828125,
					-64.95120239257812
				],
				[
					511.1568298339844,
					201.00845336914062,
					29.155925750732422
				],
				[
					511.1568298339844,
					201.00845336914062,
					-29.155925750732422
				],
				[
					-370.31732177734375,
					-401.24774169921875,
					64.95120239257812
				],
				[
					-370.31732177734375,
					-401.24774169921875,
					-64.95120239257812
				],
				[
					-349.1265563964844,
					-424.0240173339844,
					29.155925750732422
				],
				[
					-349.1265563964844,
					-424.0240173339844,
					-29.155925750732422
				],
				[
					-63.74549865722656,
					542.2832641601562,
					64.95120239257812
				],
				[
					-63.74549865722656,
					542.2832641601562,
					-64.95120239257812
				],
				[
					-33.2142448425293,
					548.2540893554688,
					29.155925750732422
				],
				[
					-33.2142448425293,
					548.2540893554688,
					-29.155925750732422
				],
				[
					-535.4404907226562,
					106.94918060302734,
					64.95120239257812
				],
				[
					-535.4404907226562,
					106.94918060302734,
					-64.95120239257812
				],
				[
					-531.6843872070312,
					137.83119201660156,
					29.155925750732422
				],
				[
					-531.6843872070312,
					137.83119201660156,
					-29.155925750732422
				],
				[
					272.78515625,
					-435.96466064453125,
					-189.24658203125
				],
				[
					272.78515625,
					-435.96466064453125,
					189.24658203125
				],
				[
					256.69195556640625,
					-429.54437255859375,
					-224.63955688476562
				],
				[
					256.69195556640625,
					-429.54437255859375,
					224.63955688476562
				],
				[
					-272.78515625,
					-435.96466064453125,
					-189.24658203125
				],
				[
					-272.78515625,
					-435.96466064453125,
					189.24658203125
				],
				[
					-256.69195556640625,
					-429.54437255859375,
					-224.63955688476562
				],
				[
					-256.69195556640625,
					-429.54437255859375,
					224.63955688476562
				],
				[
					498.9222717285156,
					124.71360778808594,
					-189.24658203125
				],
				[
					498.9222717285156,
					124.71360778808594,
					189.24658203125
				],
				[
					487.8431396484375,
					111.39204406738281,
					-224.63955688476562
				],
				[
					487.8431396484375,
					111.39204406738281,
					224.63955688476562
				],
				[
					330.331787109375,
					-394.15460205078125,
					-189.24658203125
				],
				[
					330.331787109375,
					-394.15460205078125,
					189.24658203125
				],
				[
					329.19879150390625,
					-376.8650817871094,
					-224.63955688476562
				],
				[
					329.19879150390625,
					-376.8650817871094,
					224.63955688476562
				],
				[
					35.56576919555664,
					513.0419311523438,
					-189.24658203125
				],
				[
					35.56576919555664,
					513.0419311523438,
					189.24658203125
				],
				[
					44.81169128417969,
					498.3884582519531,
					-224.63955688476562
				],
				[
					44.81169128417969,
					498.3884582519531,
					224.63955688476562
				],
				[
					476.9414367675781,
					192.3637237548828,
					-189.24658203125
				],
				[
					476.9414367675781,
					192.3637237548828,
					189.24658203125
				],
				[
					460.14801025390625,
					196.6289520263672,
					-224.63955688476562
				],
				[
					460.14801025390625,
					196.6289520263672,
					224.63955688476562
				],
				[
					-476.9414367675781,
					192.3637237548828,
					-189.24658203125
				],
				[
					-476.9414367675781,
					192.3637237548828,
					189.24658203125
				],
				[
					-460.14801025390625,
					196.6289520263672,
					-224.63955688476562
				],
				[
					-460.14801025390625,
					196.6289520263672,
					224.63955688476562
				],
				[
					-35.56576919555664,
					513.0419311523438,
					-189.24658203125
				],
				[
					-35.56576919555664,
					513.0419311523438,
					189.24658203125
				],
				[
					-44.81169128417969,
					498.3884582519531,
					-224.63955688476562
				],
				[
					-44.81169128417969,
					498.3884582519531,
					224.63955688476562
				],
				[
					-330.331787109375,
					-394.15460205078125,
					-189.24658203125
				],
				[
					-330.331787109375,
					-394.15460205078125,
					189.24658203125
				],
				[
					-329.19879150390625,
					-376.8650817871094,
					-224.63955688476562
				],
				[
					-329.19879150390625,
					-376.8650817871094,
					224.63955688476562
				],
				[
					-498.9222717285156,
					124.71360778808594,
					-189.24658203125
				],
				[
					-498.9222717285156,
					124.71360778808594,
					189.24658203125
				],
				[
					-487.8431396484375,
					111.39204406738281,
					-224.63955688476562
				],
				[
					-487.8431396484375,
					111.39204406738281,
					224.63955688476562
				],
				[
					-0.3164634704589844,
					-545.47509765625,
					69.10322570800781
				],
				[
					-0.3164634704589844,
					-545.47509765625,
					-69.10322570800781
				],
				[
					-0.5567626953125,
					-549.4664306640625,
					-24.110864639282227
				],
				[
					-0.5567626953125,
					-549.4664306640625,
					24.110864639282227
				],
				[
					0.22563982009887695,
					-491.20001220703125,
					246.81655883789062
				],
				[
					0.22563982009887695,
					-491.20001220703125,
					-246.81655883789062
				],
				[
					518.6798706054688,
					-168.86204528808594,
					69.10322570800781
				],
				[
					518.6798706054688,
					-168.86204528808594,
					-69.10322570800781
				],
				[
					522.4015502929688,
					-170.323974609375,
					-24.110864639282227
				],
				[
					522.4015502929688,
					-170.323974609375,
					24.110864639282227
				],
				[
					467.22869873046875,
					-151.57455444335938,
					246.81655883789062
				],
				[
					467.22869873046875,
					-151.57455444335938,
					-246.81655883789062
				],
				[
					320.87823486328125,
					441.11260986328125,
					69.10322570800781
				],
				[
					320.87823486328125,
					441.11260986328125,
					-69.10322570800781
				],
				[
					323.418701171875,
					444.2004089355469,
					-24.110864639282227
				],
				[
					323.418701171875,
					444.2004089355469,
					24.110864639282227
				],
				[
					288.5375671386719,
					397.52178955078125,
					246.81655883789062
				],
				[
					288.5375671386719,
					397.52178955078125,
					-246.81655883789062
				],
				[
					-320.3661804199219,
					441.4846496582031,
					69.10322570800781
				],
				[
					-320.3661804199219,
					441.4846496582031,
					-69.10322570800781
				],
				[
					-322.517822265625,
					444.8549499511719,
					-24.110864639282227
				],
				[
					-322.517822265625,
					444.8549499511719,
					24.110864639282227
				],
				[
					-288.9026794433594,
					397.25653076171875,
					246.81655883789062
				],
				[
					-288.9026794433594,
					397.25653076171875,
					-246.81655883789062
				],
				[
					-518.8754272460938,
					-168.26010131835938,
					69.10322570800781
				],
				[
					-518.8754272460938,
					-168.26010131835938,
					-69.10322570800781
				],
				[
					-522.7456665039062,
					-169.26495361328125,
					-24.110864639282227
				],
				[
					-522.7456665039062,
					-169.26495361328125,
					24.110864639282227
				],
				[
					-467.0892333984375,
					-152.00375366210938,
					246.81655883789062
				],
				[
					-467.0892333984375,
					-152.00375366210938,
					-246.81655883789062
				]
			],
			"landing_zones": {
				"list": [
					[
						-1.5758514404296875,
						-415.0677490234375,
						-360.5390625
					],
					[
						399.65399169921875,
						-121.90655517578125,
						-358.2584228515625
					],
					[
						243.43316650390625,
						336.07769775390625,
						-365.8525390625
					],
					[
						-245.0908203125,
						334.0704345703125,
						-358.6435546875
					],
					[
						-398.4970703125,
						-127.47247314453125,
						-358.90625
					],
					[
						-0.8788909912109375,
						-416.76318359375,
						358.6571044921875
					],
					[
						396.5853271484375,
						-126.42205810546875,
						360.014892578125
					],
					[
						244.9521484375,
						337.86737060546875,
						363.2945556640625
					],
					[
						-249.56207275390625,
						332.426513671875,
						357.1826171875
					],
					[
						-396.9462890625,
						-127.99456787109375,
						360.5479736328125
					]
				],
				"rules": [{
						"min": 10,
						"max": 10
					}, {
						"min": 10,
						"max": 10
					}, {
						"min": 10,
						"max": 10
					}, {
						"min": 10,
						"max": 10
					}, {
						"min": 10,
						"max": 10
					}, {
						"min": 10,
						"max": 10
					}, {
						"min": 10,
						"max": 10
					}, {
						"min": 10,
						"max": 10
					}, {
						"min": 10,
						"max": 10
					}, {
						"min": 10,
						"max": 10
					}
				]
			}
		}
	]
}
