{
    "name": "O Ring",
	"creator": "TheEffectTheCause",
	"version": "1.1",
	"description": "For 1v1 Shared Teams. A naval map which focvuses around a choke and a land platform, players spawn in the ocean and are tasked with either securing land, or securing the water in a way land holds no value.",
	"players": [
	    2,
		4
	],
    "planets": [
        {
            "name": "Blargmarfix2",
            "mass": 5000,
            "position_x": 19800,
            "position_y": -33000,
            "velocity_x": 97.74034118652344,
            "velocity_y": 58.64421081542969,
            "required_thrust_to_move": 3,
            "starting_planet": true,
            "respawn": false,
            "start_destroyed": false,
            "min_spawn_delay": 0,
            "max_spawn_delay": 0,
            "planet": {
                "seed": 611823424,
                "radius": 500,
                "heightRange": 12,
                "waterHeight": 70,
                "waterDepth": 100,
                "temperature": 0,
                "metalDensity": 0,
                "metalClusters": 0,
                "metalSpotLimit": -1,
                "biomeScale": 50,
                "biome": "oasis",
                "symmetryType": "terrain",
                "symmetricalMetal": false,
                "symmetricalStarts": false,
                "numArmies": 2,
                "landingZonesPerArmy": 0,
                "landingZoneSize": 0
            },
            "planetCSG": [
                {
                    "weight": [
                        0,
                        0,
                        0,
                        0
                    ],
                    "spec": "/pa/terrain/metal/brushes/metal_t1_large_4_ramp.json",
                    "proj": "BP_Bend",
                    "transform": [
                        5.360010623931885,
                        0,
                        0,
                        0,
                        0,
                        5.360010623931885,
                        0,
                        0,
                        0,
                        0,
                        3.319997787475586,
                        490.8675231933594
                    ],
                    "op": "BO_Add",
                    "rotation": 0,
                    "scale": [
                        5.360010623931885,
                        5.360010623931885,
                        3.319997787475586
                    ],
                    "height": 490.8675231933594,
                    "position": [
                        0,
                        0,
                        500
                    ],
                    "weightHard": false,
                    "weightScale": [
                        1,
                        1,
                        1
                    ],
                    "mirrored": false,
                    "twinId": 0,
                    "flooded": false,
                    "pathable": true,
                    "mergeable": false,
                    "no_features": true
                },
                {
                    "weight": [
                        0,
                        0,
                        0,
                        0
                    ],
                    "spec": "/pa/terrain/metal/brushes/metal_structure_06.json",
                    "proj": "BP_Bend",
                    "transform": [
                        -0.1944064199924469,
                        0,
                        -4.496778964996338,
                        -511.0694274902344,
                        0,
                        1.919999122619629,
                        0,
                        0,
                        1.9101314544677734,
                        0,
                        -0.4576662480831146,
                        -52.01483917236328
                    ],
                    "op": "BO_Add",
                    "rotation": 0,
                    "scale": [
                        1.919999122619629,
                        1.919999122619629,
                        4.5200090408325195
                    ],
                    "height": 513.7095947265625,
                    "position": [
                        -505.099853515625,
                        0,
                        -51.40728759765625
                    ],
                    "weightHard": false,
                    "weightScale": [
                        1,
                        1,
                        1
                    ],
                    "mirrored": false,
                    "twinId": 0,
                    "flooded": false,
                    "pathable": false,
                    "mergeable": false,
                    "no_features": false
                },
                {
                    "weight": [
                        0,
                        0,
                        0,
                        0
                    ],
                    "spec": "/pa/terrain/metal/brushes/metal_structure_06.json",
                    "proj": "BP_Bend",
                    "transform": [
                        -0.1944064199924469,
                        0,
                        4.496778964996338,
                        509.0797119140625,
                        0,
                        1.919999122619629,
                        0,
                        0,
                        -1.9101314544677734,
                        0,
                        -0.4576662480831146,
                        -51.81233215332031
                    ],
                    "op": "BO_Add",
                    "rotation": 0,
                    "scale": [
                        1.919999122619629,
                        1.919999122619629,
                        4.5200090408325195
                    ],
                    "height": 511.7095947265625,
                    "position": [
                        505.099853515625,
                        0,
                        -51.40728759765625
                    ],
                    "weightHard": false,
                    "weightScale": [
                        1,
                        1,
                        1
                    ],
                    "mirrored": false,
                    "twinId": 0,
                    "flooded": false,
                    "pathable": false,
                    "mergeable": false,
                    "no_features": false
                },
                {
                    "weight": [
                        0,
                        0,
                        0,
                        0
                    ],
                    "spec": "/pa/terrain/metal/brushes/metal_structure_05.json",
                    "proj": "BP_Longitude",
                    "transform": [
                        1.2799997329711914,
                        0,
                        0,
                        0,
                        0,
                        -1.2544173002243042,
                        -0.698244035243988,
                        -98.63385772705078,
                        0,
                        0.2546304166316986,
                        -3.4398458003997803,
                        -485.91217041015625
                    ],
                    "op": "BO_Add",
                    "rotation": 0,
                    "scale": [
                        1.2799997329711914,
                        1.2799997329711914,
                        3.509997606277466
                    ],
                    "height": 495.8218078613281,
                    "position": [
                        0,
                        -101.02044677734375,
                        -497.6689453125
                    ],
                    "weightHard": false,
                    "weightScale": [
                        1,
                        1,
                        1
                    ],
                    "mirrored": false,
                    "twinId": 0,
                    "flooded": false,
                    "pathable": false,
                    "mergeable": false,
                    "no_features": false
                },
                {
                    "weight": [
                        0,
                        0,
                        0,
                        0
                    ],
                    "spec": "/pa/terrain/metal/brushes/metal_structure_05.json",
                    "proj": "BP_Longitude",
                    "transform": [
                        5.483232357050838e-8,
                        1.2544173002243042,
                        0.6982439756393433,
                        98.63385772705078,
                        1.2799997329711914,
                        -5.595056506990659e-8,
                        -4.275369684508519e-17,
                        -6.039382183372841e-15,
                        1.1130248722679426e-8,
                        0.2546304166316986,
                        -3.439845561981201,
                        -485.91217041015625
                    ],
                    "op": "BO_Add",
                    "rotation": 1.5707963705062866,
                    "scale": [
                        1.2799997329711914,
                        1.2799997329711914,
                        3.509997606277466
                    ],
                    "height": 495.8218078613281,
                    "position": [
                        101.02044677734375,
                        -6.185514001499047e-15,
                        -497.6689453125
                    ],
                    "weightHard": false,
                    "weightScale": [
                        1,
                        1,
                        1
                    ],
                    "mirrored": false,
                    "twinId": 0,
                    "flooded": false,
                    "pathable": false,
                    "mergeable": false,
                    "no_features": false
                },
                {
                    "weight": [
                        0,
                        0,
                        0,
                        0
                    ],
                    "spec": "/pa/terrain/metal/brushes/metal_structure_05.json",
                    "proj": "BP_Longitude",
                    "transform": [
                        -1.2799997329711914,
                        1.1190113013981318e-7,
                        8.550740030761528e-17,
                        1.2078764366745681e-14,
                        1.0966464714101676e-7,
                        1.2544173002243042,
                        0.698244035243988,
                        98.63385772705078,
                        2.226049744535885e-8,
                        0.2546304166316986,
                        -3.4398458003997803,
                        -485.91217041015625
                    ],
                    "op": "BO_Add",
                    "rotation": 3.1415927410125732,
                    "scale": [
                        1.2799997329711914,
                        1.2799997329711914,
                        3.509997606277466
                    ],
                    "height": 495.8218078613281,
                    "position": [
                        1.2371028002998094e-14,
                        101.02044677734375,
                        -497.6689453125
                    ],
                    "weightHard": false,
                    "weightScale": [
                        1,
                        1,
                        1
                    ],
                    "mirrored": false,
                    "twinId": 0,
                    "flooded": false,
                    "pathable": false,
                    "mergeable": false,
                    "no_features": false
                },
                {
                    "weight": [
                        0,
                        0,
                        0,
                        0
                    ],
                    "spec": "/pa/terrain/metal/brushes/metal_structure_05.json",
                    "proj": "BP_Longitude",
                    "transform": [
                        -1.4958775551576764e-8,
                        -1.2544173002243042,
                        -0.698244035243988,
                        -98.63385772705078,
                        -1.2799997329711914,
                        1.5263843522461684e-8,
                        1.2826109053525557e-16,
                        1.8118144856052627e-14,
                        3.0364373238001008e-9,
                        0.2546304166316986,
                        -3.4398458003997803,
                        -485.91217041015625
                    ],
                    "op": "BO_Add",
                    "rotation": 4.71238899230957,
                    "scale": [
                        1.2799997329711914,
                        1.2799997329711914,
                        3.509997606277466
                    ],
                    "height": 495.8218078613281,
                    "position": [
                        -101.02044677734375,
                        1.855654200449714e-14,
                        -497.6689453125
                    ],
                    "weightHard": false,
                    "weightScale": [
                        1,
                        1,
                        1
                    ],
                    "mirrored": false,
                    "twinId": 0,
                    "flooded": false,
                    "pathable": false,
                    "mergeable": false,
                    "no_features": false
                }
            ],
            "metal_spots": [
                [
                    -311.2164306640625,
                    98.77931213378906,
                    -367.8436279296875
                ],
                [
                    -359.85174560546875,
                    36.28326416015625,
                    -333.41986083984375
                ],
                [
                    -483.60113525390625,
                    58.23603820800781,
                    -194.87965393066406
                ],
                [
                    -511.93182373046875,
                    42.98980712890625,
                    -102.81112670898438
                ],
                [
                    -501.98388671875,
                    124.05335998535156,
                    -80.24911499023438
                ],
                [
                    -391.80059814453125,
                    278.49530029296875,
                    207.9998779296875
                ],
                [
                    -421.6925048828125,
                    239.76068115234375,
                    194.94207763671875
                ],
                [
                    -403.199462890625,
                    296.5845642089844,
                    150.0052490234375
                ],
                [
                    -393.62994384765625,
                    104.98683166503906,
                    329.7999267578125
                ],
                [
                    -443.43902587890625,
                    68.93655395507812,
                    268.83514404296875
                ],
                [
                    0.2158336639404297,
                    49.51861572265625,
                    -489.22271728515625
                ],
                [
                    -311.2164306640625,
                    -98.77931213378906,
                    -367.8436279296875
                ],
                [
                    -359.85174560546875,
                    -36.28326416015625,
                    -333.41986083984375
                ],
                [
                    -483.60113525390625,
                    -58.23603820800781,
                    -194.87965393066406
                ],
                [
                    -511.93182373046875,
                    -42.98980712890625,
                    -102.81112670898438
                ],
                [
                    -501.98388671875,
                    -124.05335998535156,
                    -80.24911499023438
                ],
                [
                    -391.80059814453125,
                    -278.49530029296875,
                    207.9998779296875
                ],
                [
                    -421.6925048828125,
                    -239.76068115234375,
                    194.94207763671875
                ],
                [
                    -403.199462890625,
                    -296.5845642089844,
                    150.0052490234375
                ],
                [
                    -393.62994384765625,
                    -104.98683166503906,
                    329.7999267578125
                ],
                [
                    -443.43902587890625,
                    -68.93655395507812,
                    268.83514404296875
                ],
                [
                    0.2158336639404297,
                    -49.51861572265625,
                    -489.22271728515625
                ],
                [
                    95.23829650878906,
                    490.9244384765625,
                    -109.7734375
                ],
                [
                    -94.68154907226562,
                    490.8499755859375,
                    -110.71098327636719
                ],
                [
                    -72.64017486572266,
                    504.3983154296875,
                    -48.166168212890625
                ],
                [
                    73.26356506347656,
                    504.38775634765625,
                    -47.41294860839844
                ],
                [
                    -0.03050994873046875,
                    511.70654296875,
                    -15.86431884765625
                ],
                [
                    244.2354278564453,
                    417.15203857421875,
                    90.50424194335938
                ],
                [
                    -257.497802734375,
                    409.32647705078125,
                    90.02641296386719
                ],
                [
                    -27.183883666992188,
                    459.45770263671875,
                    173.0523681640625
                ],
                [
                    25.229856491088867,
                    459.56005859375,
                    173.09005737304688
                ],
                [
                    -44.60692596435547,
                    249.8372344970703,
                    -421.2298583984375
                ],
                [
                    -0.9560356140136719,
                    198.81716918945312,
                    -449.85064697265625
                ],
                [
                    44.17536926269531,
                    246.21096801757812,
                    -423.40625
                ],
                [
                    185.40658569335938,
                    325.17144775390625,
                    -319.0966796875
                ],
                [
                    -183.23583984375,
                    329.1834716796875,
                    -316.2711181640625
                ],
                [
                    311.2164306640625,
                    98.77931213378906,
                    -367.8436279296875
                ],
                [
                    359.85174560546875,
                    36.28326416015625,
                    -333.41986083984375
                ],
                [
                    483.60113525390625,
                    58.23603820800781,
                    -194.87965393066406
                ],
                [
                    511.93182373046875,
                    42.98980712890625,
                    -102.81112670898438
                ],
                [
                    501.98388671875,
                    124.05335998535156,
                    -80.24911499023438
                ],
                [
                    391.80059814453125,
                    278.49530029296875,
                    207.9998779296875
                ],
                [
                    421.6925048828125,
                    239.76068115234375,
                    194.94207763671875
                ],
                [
                    403.199462890625,
                    296.5845642089844,
                    150.0052490234375
                ],
                [
                    393.62994384765625,
                    104.98683166503906,
                    329.7999267578125
                ],
                [
                    443.43902587890625,
                    68.93655395507812,
                    268.83514404296875
                ],
                [
                    311.2164306640625,
                    -98.77931213378906,
                    -367.8436279296875
                ],
                [
                    359.85174560546875,
                    -36.28326416015625,
                    -333.41986083984375
                ],
                [
                    483.60113525390625,
                    -58.23603820800781,
                    -194.87965393066406
                ],
                [
                    511.93182373046875,
                    -42.98980712890625,
                    -102.81112670898438
                ],
                [
                    501.98388671875,
                    -124.05335998535156,
                    -80.24911499023438
                ],
                [
                    391.80059814453125,
                    -278.49530029296875,
                    207.9998779296875
                ],
                [
                    421.6925048828125,
                    -239.76068115234375,
                    194.94207763671875
                ],
                [
                    403.199462890625,
                    -296.5845642089844,
                    150.0052490234375
                ],
                [
                    393.62994384765625,
                    -104.98683166503906,
                    329.7999267578125
                ],
                [
                    443.43902587890625,
                    -68.93655395507812,
                    268.83514404296875
                ],
                [
                    95.23829650878906,
                    -490.9244384765625,
                    -109.7734375
                ],
                [
                    -94.68154907226562,
                    -490.8499755859375,
                    -110.71098327636719
                ],
                [
                    -72.64017486572266,
                    -504.3983154296875,
                    -48.166168212890625
                ],
                [
                    73.26356506347656,
                    -504.38775634765625,
                    -47.41294860839844
                ],
                [
                    -0.03050994873046875,
                    -511.70654296875,
                    -15.86431884765625
                ],
                [
                    244.2354278564453,
                    -417.15203857421875,
                    90.50424194335938
                ],
                [
                    -257.497802734375,
                    -409.32647705078125,
                    90.02641296386719
                ],
                [
                    -27.183883666992188,
                    -459.45770263671875,
                    173.0523681640625
                ],
                [
                    25.229856491088867,
                    -459.56005859375,
                    173.09005737304688
                ],
                [
                    -44.60692596435547,
                    -249.8372344970703,
                    -421.2298583984375
                ],
                [
                    -0.9560356140136719,
                    -198.81716918945312,
                    -449.85064697265625
                ],
                [
                    44.17536926269531,
                    -246.21096801757812,
                    -423.40625
                ],
                [
                    185.40658569335938,
                    -325.17144775390625,
                    -319.0966796875
                ],
                [
                    -183.23583984375,
                    -329.1834716796875,
                    -316.2711181640625
                ],
                [
                    54.47665786743164,
                    0.4004547595977783,
                    -488.6866455078125
                ],
                [
                    -59.68896484375,
                    -0.008273601531982422,
                    -488.15692138671875
                ],
                [
                    1.4539337158203125,
                    -2.0215301513671875,
                    -491.688232421875
                ],
                [
                    414.1756286621094,
                    0.26604747772216797,
                    320.37420654296875
                ],
                [
                    -411.199462890625,
                    0.5793997049331665,
                    324.3857421875
                ],
                [
                    -129.94679260253906,
                    -163.55564880371094,
                    484.06512451171875
                ],
                [
                    -85.00784301757812,
                    -209.5338134765625,
                    479.491943359375
                ],
                [
                    91.23271942138672,
                    -206.73880004882812,
                    473.6790771484375
                ],
                [
                    134.2369842529297,
                    -162.54080200195312,
                    478.86553955078125
                ],
                [
                    46.95252990722656,
                    -120.228515625,
                    506.347412109375
                ],
                [
                    -42.30580139160156,
                    -120.13142395019531,
                    507.088134765625
                ],
                [
                    -129.94679260253906,
                    163.55564880371094,
                    484.06512451171875
                ],
                [
                    -85.00784301757812,
                    209.5338134765625,
                    479.491943359375
                ],
                [
                    91.23271942138672,
                    206.73880004882812,
                    473.6790771484375
                ],
                [
                    134.2369842529297,
                    162.54080200195312,
                    478.86553955078125
                ],
                [
                    46.95252990722656,
                    120.228515625,
                    506.347412109375
                ],
                [
                    -42.30580139160156,
                    120.13142395019531,
                    507.088134765625
                ],
                [
                    2.5433807373046875,
                    -0.13507843017578125,
                    523.8987426757812
                ]
            ],
            "landing_zones": {
                "list": [
                    [
                        0.861724853515625,
                        -495.916259765625,
                        -108.89828491210938
                    ],
                    [
                        -0.19309234619140625,
                        495.11328125,
                        -112.80863189697266
                    ]
                ],
                "rules": [
                    {
                        "min": 0,
                        "max": 10
                    },
                    {
                        "min": 0,
                        "max": 10
                    }
                ]
            }
        }
    ]
}