{
    "name": "Tournament Gas",
	"creator": "TheEffectTheCause",
	"version": "1",
	"description": "Two moons and a Gas Giant, lets see how long you can keep eachother at bay. For 1v1 and Shared Teams",
	"players": [
	    2,
	    4
	],
    "planets": [
        {
            "name": "Who Farted?",
            "mass": 50000,
            "position_x": 23535.5859375,
            "position_y": -22990.7734375,
            "velocity_x": 86.14256286621094,
            "velocity_y": 88.18389129638672,
            "required_thrust_to_move": 0,
            "starting_planet": false,
            "respawn": false,
            "start_destroyed": false,
            "min_spawn_delay": 0,
            "max_spawn_delay": 0,
            "planet": {
                "seed": 1525892096,
                "radius": 600,
                "heightRange": 0,
                "waterHeight": 0,
                "waterDepth": 100,
                "temperature": 86,
                "metalDensity": 0,
                "metalClusters": 0,
                "metalSpotLimit": -1,
                "biomeScale": 100.00000013739177,
                "biome": "gas",
                "symmetryType": "none",
                "symmetricalMetal": false,
                "symmetricalStarts": false,
                "numArmies": 2,
                "landingZonesPerArmy": 0,
                "landingZoneSize": 0
            }
        },
        {
            "name": "Its a Moon",
            "mass": 5000,
            "position_x": 24900,
            "position_y": -20800,
            "velocity_x": -178.0419464111328,
            "velocity_y": 252.718017578125,
            "required_thrust_to_move": 1,
            "starting_planet": true,
            "respawn": false,
            "start_destroyed": false,
            "min_spawn_delay": 0,
            "max_spawn_delay": 0,
            "planet": {
                "seed": 812524992,
                "radius": 250,
                "heightRange": 50,
                "waterHeight": 0,
                "waterDepth": 100,
                "temperature": 0,
                "metalDensity": 25,
                "metalClusters": 25,
                "metalSpotLimit": -1,
                "biomeScale": 50,
                "biome": "moon",
                "symmetryType": "none",
                "symmetricalMetal": false,
                "symmetricalStarts": false,
                "numArmies": 2,
                "landingZonesPerArmy": 0,
                "landingZoneSize": 0
            },
            "planetCSG": [
                {
                    "weight": [
                        2,
                        2,
                        2,
                        2
                    ],
                    "spec": "/pa/terrain/moon/brushes/moon_crater_02.json",
                    "proj": "BP_Bend",
                    "transform": [
                        -0.339339941740036,
                        -0.5420921444892883,
                        0.2429196685552597,
                        87.97178649902344,
                        0.548987627029419,
                        -0.39305004477500916,
                        -0.11022543907165527,
                        -39.91742706298828,
                        0.2269062101840973,
                        0.14026115834712982,
                        0.6299728155136108,
                        228.1405792236328
                    ],
                    "op": "BO_Subtract",
                    "rotation": 2.1619670391082764,
                    "scale": [
                        0.6841238141059875,
                        0.6841238141059875,
                        0.6841238141059875
                    ],
                    "height": 247.75100708007812,
                    "position": [
                        87.97177124023438,
                        -39.917423248291016,
                        228.1405487060547
                    ],
                    "weightHard": true,
                    "weightScale": [
                        1,
                        1,
                        1
                    ],
                    "mirrored": false,
                    "twinId": 0,
                    "flooded": false,
                    "pathable": true,
                    "mergeable": true,
                    "no_features": false
                },
                {
                    "weight": [
                        2,
                        2,
                        2,
                        2
                    ],
                    "spec": "/pa/terrain/moon/brushes/moon_crater_02.json",
                    "proj": "BP_Bend",
                    "transform": [
                        -0.35855647921562195,
                        0.675342321395874,
                        -0.5042463541030884,
                        -120.60221862792969,
                        0.006654500961303711,
                        -0.5456947088241577,
                        -0.735586404800415,
                        -175.9325714111328,
                        -0.8427973389625549,
                        -0.29162371158599854,
                        0.20871663093566895,
                        49.91942596435547
                    ],
                    "op": "BO_Subtract",
                    "rotation": 3.7783355712890625,
                    "scale": [
                        0.9159226417541504,
                        0.9159226417541504,
                        0.9159226417541504
                    ],
                    "height": 219.0641632080078,
                    "position": [
                        -120.6021957397461,
                        -175.93252563476562,
                        49.91946029663086
                    ],
                    "weightHard": true,
                    "weightScale": [
                        1,
                        1,
                        1
                    ],
                    "mirrored": false,
                    "twinId": 0,
                    "flooded": false,
                    "pathable": true,
                    "mergeable": true,
                    "no_features": false
                },
                {
                    "weight": [
                        2,
                        2,
                        2,
                        2
                    ],
                    "spec": "/pa/terrain/moon/brushes/moon_crater_02.json",
                    "proj": "BP_Bend",
                    "transform": [
                        -0.8418119549751282,
                        -0.05069524049758911,
                        0.3279044032096863,
                        74.88531494140625,
                        -0.32453376054763794,
                        0.3119199275970459,
                        -0.7849346995353699,
                        -179.2598114013672,
                        -0.06905898451805115,
                        -0.8478647470474243,
                        -0.3083745539188385,
                        -70.42517852783203
                    ],
                    "op": "BO_Subtract",
                    "rotation": 3.61857533454895,
                    "scale": [
                        0.9048418402671814,
                        0.9048418402671814,
                        0.9048418402671814
                    ],
                    "height": 206.64366149902344,
                    "position": [
                        74.88531494140625,
                        -179.2598114013672,
                        -70.42520141601562
                    ],
                    "weightHard": true,
                    "weightScale": [
                        1,
                        1,
                        1
                    ],
                    "mirrored": false,
                    "twinId": 0,
                    "flooded": false,
                    "pathable": true,
                    "mergeable": true,
                    "no_features": false
                },
                {
                    "weight": [
                        2,
                        2,
                        2,
                        2
                    ],
                    "spec": "/pa/terrain/moon/brushes/moon_crater_02.json",
                    "proj": "BP_Bend",
                    "transform": [
                        0.6280776858329773,
                        0.534700870513916,
                        0.43488582968711853,
                        119.35940551757812,
                        -0.4814022183418274,
                        -0.08072468638420105,
                        0.7945109605789185,
                        218.06265258789062,
                        0.49323683977127075,
                        -0.7596648931503296,
                        0.22167296707630157,
                        60.84069061279297
                    ],
                    "op": "BO_Subtract",
                    "rotation": 5.206498622894287,
                    "scale": [
                        0.9324764013290405,
                        0.9324764013290405,
                        0.9324764013290405
                    ],
                    "height": 255.92884826660156,
                    "position": [
                        119.3593978881836,
                        218.06263732910156,
                        60.84071350097656
                    ],
                    "weightHard": true,
                    "weightScale": [
                        1,
                        1,
                        1
                    ],
                    "mirrored": false,
                    "twinId": 0,
                    "flooded": false,
                    "pathable": true,
                    "mergeable": true,
                    "no_features": false
                },
                {
                    "weight": [
                        2,
                        2,
                        2,
                        2
                    ],
                    "spec": "/pa/terrain/moon/brushes/moon_crater_02.json",
                    "proj": "BP_Bend",
                    "transform": [
                        -1.09006929397583,
                        0.545438289642334,
                        0.5050109028816223,
                        90.6623764038086,
                        0.7426493167877197,
                        0.7607969641685486,
                        0.7813131213188171,
                        140.2657012939453,
                        0.03179296851158142,
                        0.9297717809677124,
                        -0.9355769157409668,
                        -167.95999145507812
                    ],
                    "op": "BO_Subtract",
                    "rotation": 2.6019604206085205,
                    "scale": [
                        1.3193899393081665,
                        1.3193899393081665,
                        1.3193899393081665
                    ],
                    "height": 236.8642578125,
                    "position": [
                        90.66236877441406,
                        140.2656707763672,
                        -167.9599151611328
                    ],
                    "weightHard": true,
                    "weightScale": [
                        1,
                        1,
                        1
                    ],
                    "mirrored": false,
                    "twinId": 0,
                    "flooded": false,
                    "pathable": true,
                    "mergeable": true,
                    "no_features": false
                },
                {
                    "weight": [
                        2,
                        2,
                        2,
                        2
                    ],
                    "spec": "/pa/terrain/moon/brushes/moon_crater_02.json",
                    "proj": "BP_Bend",
                    "transform": [
                        0.40702712535858154,
                        0.32375532388687134,
                        -0.399190753698349,
                        -143.16360473632812,
                        0.5013987421989441,
                        -0.13815903663635254,
                        0.399190753698349,
                        143.16360473632812,
                        0.1130044162273407,
                        -0.5531152486801147,
                        -0.3333698511123657,
                        -119.55794525146484
                    ],
                    "op": "BO_Subtract",
                    "rotation": 0.5838662385940552,
                    "scale": [
                        0.655623197555542,
                        0.655623197555542,
                        0.655623197555542
                    ],
                    "height": 235.12913513183594,
                    "position": [
                        -143.16358947753906,
                        143.16358947753906,
                        -119.55787658691406
                    ],
                    "weightHard": true,
                    "weightScale": [
                        1,
                        1,
                        1
                    ],
                    "mirrored": false,
                    "twinId": 0,
                    "flooded": false,
                    "pathable": true,
                    "mergeable": true,
                    "no_features": false
                }
            ],
            "metal_spots": [
                [
                    -128.56353759765625,
                    199.6464385986328,
                    80.1800308227539
                ],
                [
                    -159.11009216308594,
                    162.40692138671875,
                    88.51895141601562
                ],
                [
                    101.65035247802734,
                    168.23272705078125,
                    -127.98495483398438
                ],
                [
                    -144.7657470703125,
                    147.60638427734375,
                    139.39205932617188
                ],
                [
                    -190.9702606201172,
                    99.72913360595703,
                    -67.80302429199219
                ],
                [
                    -154.42063903808594,
                    159.17843627929688,
                    -82.53311157226562
                ],
                [
                    199.76280212402344,
                    134.0148468017578,
                    76.67105102539062
                ],
                [
                    192.5532989501953,
                    156.5543670654297,
                    19.300233840942383
                ],
                [
                    -79.89232635498047,
                    144.52574157714844,
                    -167.63922119140625
                ],
                [
                    -147.68215942382812,
                    105.51112365722656,
                    177.4595489501953
                ],
                [
                    -195.37911987304688,
                    48.409019470214844,
                    151.21315002441406
                ],
                [
                    63.127655029296875,
                    67.29632568359375,
                    -200.80772399902344
                ],
                [
                    -208.13192749023438,
                    3.7155959606170654,
                    140.91921997070312
                ],
                [
                    -176.43307495117188,
                    6.059106826782227,
                    176.39236450195312
                ],
                [
                    49.446075439453125,
                    -18.83120346069336,
                    -202.26602172851562
                ],
                [
                    167.19351196289062,
                    18.215892791748047,
                    -149.79168701171875
                ],
                [
                    94.87464904785156,
                    -30.29860496520996,
                    -186.7783203125
                ],
                [
                    69.63172912597656,
                    -70.34989929199219,
                    -180.96112060546875
                ],
                [
                    221.8631134033203,
                    -61.53046417236328,
                    34.2770881652832
                ],
                [
                    119.45375061035156,
                    -58.124210357666016,
                    -165.57479858398438
                ],
                [
                    177.59988403320312,
                    -81.4163589477539,
                    -97.53230285644531
                ],
                [
                    -107.44390869140625,
                    -137.02618408203125,
                    -95.76941680908203
                ],
                [
                    120.63143157958984,
                    -111.95001983642578,
                    -129.16183471679688
                ],
                [
                    135.40858459472656,
                    -124.8797378540039,
                    -100.91168212890625
                ],
                [
                    -4.9331817626953125,
                    -202.26370239257812,
                    68.60649108886719
                ],
                [
                    -39.511940002441406,
                    -203.58636474609375,
                    47.44699478149414
                ],
                [
                    -28.84307098388672,
                    -205.54159545898438,
                    21.27625274658203
                ],
                [
                    -10.137102127075195,
                    253.418701171875,
                    -20.883996963500977
                ],
                [
                    -29.845767974853516,
                    253.41738891601562,
                    10.110330581665039
                ],
                [
                    -4.307669639587402,
                    254.85214233398438,
                    33.45676040649414
                ],
                [
                    -68.73892211914062,
                    -195.86468505859375,
                    -11.965694427490234
                ],
                [
                    -40.807106018066406,
                    -203.04647827148438,
                    -9.336576461791992
                ],
                [
                    -44.62421417236328,
                    -195.71420288085938,
                    -41.438575744628906
                ]
            ],
            "landing_zones": {
                "list": [
                    [
                        126.06036376953125,
                        -38.89599609375,
                        -170.1829833984375
                    ]
                ],
                "rules": [
                    {
                        "min": 0,
                        "max": 10
                    }
                ]
            }
        },
        {
            "name": "Also a Moon",
            "mass": 5000,
            "position_x": 22200,
            "position_y": -25200,
            "velocity_x": 352.45159912109375,
            "velocity_y": -72.81299591064453,
            "required_thrust_to_move": 1,
            "starting_planet": true,
            "respawn": false,
            "start_destroyed": false,
            "min_spawn_delay": 0,
            "max_spawn_delay": 0,
            "planet": {
                "seed": 1704985728,
                "radius": 250,
                "heightRange": 50,
                "waterHeight": 0,
                "waterDepth": 100,
                "temperature": 0,
                "metalDensity": 25,
                "metalClusters": 25,
                "metalSpotLimit": -1,
                "biomeScale": 50,
                "biome": "moon",
                "symmetryType": "none",
                "symmetricalMetal": false,
                "symmetricalStarts": false,
                "numArmies": 2,
                "landingZonesPerArmy": 0,
                "landingZoneSize": 0
            },
            "planetCSG": [
                {
                    "weight": [
                        2,
                        2,
                        2,
                        2
                    ],
                    "spec": "/pa/terrain/moon/brushes/moon_crater_02.json",
                    "proj": "BP_Bend",
                    "transform": [
                        0.16310670971870422,
                        -0.7556613087654114,
                        0.24380148947238922,
                        73.31756591796875,
                        -0.5751947164535522,
                        -0.2840270400047302,
                        -0.4955267012119293,
                        -149.01800537109375,
                        0.5473703145980835,
                        -0.07329121232032776,
                        -0.5933642983436584,
                        -178.44036865234375
                    ],
                    "op": "BO_Subtract",
                    "rotation": 2.161132574081421,
                    "scale": [
                        0.8105967044830322,
                        0.8105967044830322,
                        0.8105967044830322
                    ],
                    "height": 243.7678985595703,
                    "position": [
                        73.31756591796875,
                        -149.01800537109375,
                        -178.44032287597656
                    ],
                    "weightHard": true,
                    "weightScale": [
                        1,
                        1,
                        1
                    ],
                    "mirrored": false,
                    "twinId": 0,
                    "flooded": false,
                    "pathable": true,
                    "mergeable": true,
                    "no_features": false
                },
                {
                    "weight": [
                        2,
                        2,
                        2,
                        2
                    ],
                    "spec": "/pa/terrain/moon/brushes/moon_crater_02.json",
                    "proj": "BP_Bend",
                    "transform": [
                        0.07396388053894043,
                        -0.6464555859565735,
                        0.2714231014251709,
                        99.46356964111328,
                        0.06849895417690277,
                        -0.2649608254432678,
                        -0.6497304439544678,
                        -238.0950927734375,
                        0.6977702379226685,
                        0.09453529119491577,
                        0.03501202166080475,
                        12.830228805541992
                    ],
                    "op": "BO_Subtract",
                    "rotation": 1.831845760345459,
                    "scale": [
                        0.7050148248672485,
                        0.7050148248672485,
                        0.7050148248672485
                    ],
                    "height": 258.3541564941406,
                    "position": [
                        99.46354675292969,
                        -238.0950469970703,
                        12.830238342285156
                    ],
                    "weightHard": true,
                    "weightScale": [
                        1,
                        1,
                        1
                    ],
                    "mirrored": false,
                    "twinId": 0,
                    "flooded": false,
                    "pathable": true,
                    "mergeable": true,
                    "no_features": false
                },
                {
                    "weight": [
                        2,
                        2,
                        2,
                        2
                    ],
                    "spec": "/pa/terrain/moon/brushes/moon_crater_02.json",
                    "proj": "BP_Bend",
                    "transform": [
                        0.24240538477897644,
                        -0.23357990384101868,
                        0.611947774887085,
                        234.6810302734375,
                        0.5260862708091736,
                        0.45815932750701904,
                        -0.033514849841594696,
                        -12.852892875671387,
                        -0.3902215361595154,
                        0.4725785255432129,
                        0.3349577784538269,
                        128.45579528808594
                    ],
                    "op": "BO_Subtract",
                    "rotation": 0.8258501887321472,
                    "scale": [
                        0.6984268426895142,
                        0.6984268426895142,
                        0.6984268426895142
                    ],
                    "height": 267.8456115722656,
                    "position": [
                        234.6810302734375,
                        -12.852892875671387,
                        128.45574951171875
                    ],
                    "weightHard": true,
                    "weightScale": [
                        1,
                        1,
                        1
                    ],
                    "mirrored": false,
                    "twinId": 0,
                    "flooded": false,
                    "pathable": true,
                    "mergeable": true,
                    "no_features": false
                },
                {
                    "weight": [
                        2,
                        2,
                        2,
                        2
                    ],
                    "spec": "/pa/terrain/moon/brushes/moon_crater_02.json",
                    "proj": "BP_Bend",
                    "transform": [
                        -1.0237367153167725,
                        0.10895507037639618,
                        0.05012616887688637,
                        12.974753379821777,
                        -0.01762617751955986,
                        -0.5628061294555664,
                        0.8633418083190918,
                        223.4690399169922,
                        0.11863033473491669,
                        0.8566204309463501,
                        0.5608465075492859,
                        145.1705780029297
                    ],
                    "op": "BO_Subtract",
                    "rotation": 3.221208333969116,
                    "scale": [
                        1.0307378768920898,
                        1.0307378768920898,
                        1.0307378768920898
                    ],
                    "height": 266.79815673828125,
                    "position": [
                        12.974753379821777,
                        223.46905517578125,
                        145.17059326171875
                    ],
                    "weightHard": true,
                    "weightScale": [
                        1,
                        1,
                        1
                    ],
                    "mirrored": false,
                    "twinId": 0,
                    "flooded": false,
                    "pathable": true,
                    "mergeable": true,
                    "no_features": false
                },
                {
                    "weight": [
                        2,
                        2,
                        2,
                        2
                    ],
                    "spec": "/pa/terrain/moon/brushes/moon_crater_02.json",
                    "proj": "BP_Bend",
                    "transform": [
                        -0.3646368980407715,
                        -0.3872802257537842,
                        -0.716974139213562,
                        -199.61407470703125,
                        -0.7885382175445557,
                        0.3658130466938019,
                        0.20343557000160217,
                        56.63886642456055,
                        0.20553623139858246,
                        0.7163748145103455,
                        -0.4914875328540802,
                        -136.8359375
                    ],
                    "op": "BO_Subtract",
                    "rotation": 4.715320110321045,
                    "scale": [
                        0.8927472829818726,
                        0.8927472829818726,
                        0.8927472829818726
                    ],
                    "height": 248.5513916015625,
                    "position": [
                        -199.61407470703125,
                        56.63886260986328,
                        -136.83592224121094
                    ],
                    "weightHard": true,
                    "weightScale": [
                        1,
                        1,
                        1
                    ],
                    "mirrored": false,
                    "twinId": 0,
                    "flooded": false,
                    "pathable": true,
                    "mergeable": true,
                    "no_features": false
                },
                {
                    "weight": [
                        2,
                        2,
                        2,
                        2
                    ],
                    "spec": "/pa/terrain/moon/brushes/moon_crater_02.json",
                    "proj": "BP_Bend",
                    "transform": [
                        -0.3498784899711609,
                        -1.0022813081741333,
                        -0.29119279980659485,
                        -63.84212112426758,
                        0.4659002721309662,
                        0.12484445422887802,
                        -0.9895082116127014,
                        -216.94322204589844,
                        0.9339689016342163,
                        -0.4377465844154358,
                        0.38452038168907166,
                        84.3035888671875
                    ],
                    "op": "BO_Subtract",
                    "rotation": 1.7228866815567017,
                    "scale": [
                        1.1008069515228271,
                        1.1008069515228271,
                        1.1008069515228271
                    ],
                    "height": 241.3447265625,
                    "position": [
                        -63.842132568359375,
                        -216.94325256347656,
                        84.3035888671875
                    ],
                    "weightHard": true,
                    "weightScale": [
                        1,
                        1,
                        1
                    ],
                    "mirrored": false,
                    "twinId": 0,
                    "flooded": false,
                    "pathable": true,
                    "mergeable": true,
                    "no_features": false
                },
                {
                    "weight": [
                        2,
                        2,
                        2,
                        2
                    ],
                    "spec": "/pa/terrain/moon/brushes/moon_crater_02.json",
                    "proj": "BP_Bend",
                    "transform": [
                        0.331341952085495,
                        -0.5879663228988647,
                        -0.6474485397338867,
                        -176.01519775390625,
                        0.5349531173706055,
                        -0.41148146986961365,
                        0.6474485397338867,
                        176.01519775390625,
                        -0.6918952465057373,
                        -0.5997166633605957,
                        0.19053135812282562,
                        51.79780578613281
                    ],
                    "op": "BO_Subtract",
                    "rotation": 1.642042636871338,
                    "scale": [
                        0.935244083404541,
                        0.935244083404541,
                        0.935244083404541
                    ],
                    "height": 254.25521850585938,
                    "position": [
                        -176.01519775390625,
                        176.01519775390625,
                        51.79782485961914
                    ],
                    "weightHard": true,
                    "weightScale": [
                        1,
                        1,
                        1
                    ],
                    "mirrored": false,
                    "twinId": 0,
                    "flooded": false,
                    "pathable": true,
                    "mergeable": true,
                    "no_features": false
                },
                {
                    "weight": [
                        2,
                        2,
                        2,
                        2
                    ],
                    "spec": "/pa/terrain/moon/brushes/moon_crater_02.json",
                    "proj": "BP_Bend",
                    "transform": [
                        -0.5456516146659851,
                        -0.41691985726356506,
                        0.7484908103942871,
                        192.70474243164062,
                        -0.24870622158050537,
                        -0.7721089720726013,
                        -0.6113830208778381,
                        -157.4052734375,
                        0.8198816776275635,
                        -0.5116852521896362,
                        0.3126797676086426,
                        80.50182342529297
                    ],
                    "op": "BO_Subtract",
                    "rotation": 3.0146281719207764,
                    "scale": [
                        1.0157737731933594,
                        1.0157737731933594,
                        1.0157737731933594
                    ],
                    "height": 261.5187683105469,
                    "position": [
                        192.7047119140625,
                        -157.40525817871094,
                        80.50186157226562
                    ],
                    "weightHard": true,
                    "weightScale": [
                        1,
                        1,
                        1
                    ],
                    "mirrored": false,
                    "twinId": 0,
                    "flooded": false,
                    "pathable": true,
                    "mergeable": true,
                    "no_features": false
                }
            ],
            "metal_spots": [
                [
                    -9.17078685760498,
                    242.85003662109375,
                    -65.17564392089844
                ],
                [
                    15.853876113891602,
                    204.11309814453125,
                    156.78204345703125
                ],
                [
                    112.87169647216797,
                    220.57778930664062,
                    89.6155776977539
                ],
                [
                    132.19566345214844,
                    180.2054443359375,
                    142.6012420654297
                ],
                [
                    101.93937683105469,
                    211.16542053222656,
                    124.73246765136719
                ],
                [
                    144.4168701171875,
                    185.32656860351562,
                    -101.56806182861328
                ],
                [
                    165.86155700683594,
                    146.76177978515625,
                    -127.15666198730469
                ],
                [
                    171.62948608398438,
                    168.91668701171875,
                    -81.22525787353516
                ],
                [
                    87.99916076660156,
                    130.07003784179688,
                    227.74134826660156
                ],
                [
                    139.46543884277344,
                    122.07014465332031,
                    198.84814453125
                ],
                [
                    25.252685546875,
                    81.59219360351562,
                    -236.05894470214844
                ],
                [
                    51.119232177734375,
                    110.57647705078125,
                    -216.54879760742188
                ],
                [
                    47.986183166503906,
                    51.7903938293457,
                    -241.98590087890625
                ],
                [
                    167.07196044921875,
                    60.328399658203125,
                    -182.58424377441406
                ],
                [
                    182.74234008789062,
                    92.02285766601562,
                    -153.4676513671875
                ],
                [
                    105.02008056640625,
                    28.79193878173828,
                    -228.15260314941406
                ],
                [
                    134.31173706054688,
                    32.8161735534668,
                    -213.68917846679688
                ],
                [
                    -241.7550048828125,
                    -20.968826293945312,
                    102.64024353027344
                ],
                [
                    -113.07185363769531,
                    -59.968017578125,
                    218.80691528320312
                ],
                [
                    145.48060607910156,
                    -26.004667282104492,
                    226.9474639892578
                ],
                [
                    73.24417114257812,
                    -80.84573364257812,
                    247.8585968017578
                ],
                [
                    93.58000183105469,
                    -56.689857482910156,
                    -223.53689575195312
                ],
                [
                    -183.48013305664062,
                    -143.62835693359375,
                    27.361324310302734
                ],
                [
                    -140.86895751953125,
                    -143.6175537109375,
                    137.33786010742188
                ],
                [
                    -7.192802429199219,
                    -163.07406616210938,
                    201.1932830810547
                ],
                [
                    196.634521484375,
                    -157.3188018798828,
                    -26.914634704589844
                ],
                [
                    -129.07666015625,
                    -189.19638061523438,
                    -46.89411926269531
                ],
                [
                    -128.3362274169922,
                    -161.67034912109375,
                    -94.34107971191406
                ],
                [
                    -83.91026306152344,
                    -212.46664428710938,
                    -58.908111572265625
                ],
                [
                    102.54254150390625,
                    -165.30252075195312,
                    170.37152099609375
                ],
                [
                    61.765625,
                    -215.64512634277344,
                    -95.28291320800781
                ],
                [
                    -45.187530517578125,
                    -232.73602294921875,
                    -41.76158142089844
                ],
                [
                    23.496456146240234,
                    -247.755615234375,
                    -9.867609024047852
                ]
            ],
            "landing_zones": {
                "list": [
                    [
                        131.3138427734375,
                        106.59799194335938,
                        -185.28118896484375
                    ]
                ],
                "rules": [
                    {
                        "min": 0,
                        "max": 10
                    }
                ]
            }
        }
    ]
}