{
    "name": "The Choke",
	"creator": "TheEffectTheCause",
	"version": "1",
	"description": "A very small map with choke points between bases, plays good 1v1 and 2v2 shared.",
	"players": [
	    2,
	    4
	],
    "planets": [
        {
            "name": "The choke",
            "mass": 10000,
            "position_x": 16300,
            "position_y": -1300,
            "velocity_x": 13.902131080627441,
            "velocity_y": 174.31143188476562,
            "required_thrust_to_move": 0,
            "starting_planet": true,
            "respawn": false,
            "start_destroyed": false,
            "min_spawn_delay": 0,
            "max_spawn_delay": 0,
            "planet": {
                "seed": 1305493120,
                "radius": 370,
                "heightRange": 35,
                "waterHeight": 51,
                "waterDepth": 0,
                "temperature": 80,
                "metalDensity": 6,
                "metalClusters": 0,
                "metalSpotLimit": -1,
                "biomeScale": 50,
                "biome": "lava",
                "symmetryType": "terrain and CSG",
                "symmetricalMetal": true,
                "symmetricalStarts": true,
                "numArmies": 2,
                "landingZonesPerArmy": 1,
                "landingZoneSize": 0
            },
            "source": {
                "brushes": [
                    {
                        "spec": "/pa/terrain/lava/brushes/lava_plateau_03.json",
                        "weight": [
                            1,
                            1,
                            1,
                            1
                        ],
                        "proj": "BP_Bend",
                        "op": "BO_Add",
                        "transform": [
                            0.3581010699272156,
                            -1.0111808776855469,
                            1.2024222612380981,
                            282.40167236328125,
                            0.8327130079269409,
                            -0.9236236214637756,
                            -1.0247199535369873,
                            -240.66636657714844,
                            1.3322519063949585,
                            0.8491024971008301,
                            0.3172890245914459,
                            74.5186996459961
                        ],
                        "scale": [
                            1.6113791465759277,
                            1.6113791465759277,
                            1.6113791465759277
                        ],
                        "rotation": 1.8683886528015137,
                        "position": [
                            282.40167236328125,
                            -240.6663818359375,
                            74.51869201660156
                        ],
                        "height": 378.44952392578125,
                        "weightHard": false,
                        "weightScale": [
                            1,
                            1,
                            1
                        ],
                        "mirrored": false,
                        "twinId": 1,
                        "flooded": false,
                        "pathable": false,
                        "mergeable": false,
                        "no_features": false
                    },
                    {
                        "spec": "/pa/terrain/lava/brushes/lava_plateau_03.json",
                        "weight": [
                            1,
                            1,
                            1,
                            1
                        ],
                        "proj": "BP_Bend",
                        "op": "BO_Add",
                        "transform": [
                            0.3581010699272156,
                            -1.0111808776855469,
                            1.2024222612380981,
                            282.40167236328125,
                            0.8327130079269409,
                            -0.9236236214637756,
                            -1.0247199535369873,
                            -240.66636657714844,
                            -1.3322519063949585,
                            -0.8491024971008301,
                            -0.3172890245914459,
                            -74.5186996459961
                        ],
                        "scale": [
                            1.6113791465759277,
                            1.6113791465759277,
                            1.6113791465759277
                        ],
                        "rotation": 1.8683886528015137,
                        "position": [
                            282.40167236328125,
                            -240.6663818359375,
                            74.51869201660156
                        ],
                        "height": 378.44952392578125,
                        "weightHard": false,
                        "weightScale": [
                            1,
                            1,
                            1
                        ],
                        "mirrored": true,
                        "twinId": 1,
                        "flooded": false,
                        "pathable": false,
                        "mergeable": false,
                        "no_features": false
                    },
                    {
                        "spec": "/pa/terrain/lava/brushes/lava_plateau_03.json",
                        "weight": [
                            1,
                            1,
                            1,
                            1
                        ],
                        "proj": "BP_Bend",
                        "op": "BO_Add",
                        "transform": [
                            0.2648496627807617,
                            -0.0039536431431770325,
                            1.5894596576690674,
                            383.2233581542969,
                            1.486728310585022,
                            0.5705366134643555,
                            -0.24631251394748688,
                            -59.38666915893555,
                            -0.5621713399887085,
                            1.506988763809204,
                            0.09742239862680435,
                            23.488826751708984
                        ],
                        "scale": [
                            1.6113791465759277,
                            1.6113791465759277,
                            1.6113791465759277
                        ],
                        "rotation": 1.0599993467330933,
                        "position": [
                            376.318603515625,
                            -58.31666564941406,
                            23.065635681152344
                        ],
                        "height": 388.50823974609375,
                        "weightHard": false,
                        "weightScale": [
                            1,
                            1,
                            1
                        ],
                        "mirrored": false,
                        "twinId": 2,
                        "flooded": false,
                        "pathable": false,
                        "mergeable": false,
                        "no_features": false
                    },
                    {
                        "spec": "/pa/terrain/lava/brushes/lava_plateau_03.json",
                        "weight": [
                            1,
                            1,
                            1,
                            1
                        ],
                        "proj": "BP_Bend",
                        "op": "BO_Add",
                        "transform": [
                            0.2648496627807617,
                            -0.0039536431431770325,
                            1.5894596576690674,
                            383.2233581542969,
                            1.486728310585022,
                            0.5705366134643555,
                            -0.24631251394748688,
                            -59.38666915893555,
                            0.5621713399887085,
                            -1.506988763809204,
                            -0.09742239862680435,
                            -23.488826751708984
                        ],
                        "scale": [
                            1.6113791465759277,
                            1.6113791465759277,
                            1.6113791465759277
                        ],
                        "rotation": 1.0599993467330933,
                        "position": [
                            376.318603515625,
                            -58.31666564941406,
                            23.065635681152344
                        ],
                        "height": 388.50823974609375,
                        "weightHard": false,
                        "weightScale": [
                            1,
                            1,
                            1
                        ],
                        "mirrored": true,
                        "twinId": 2,
                        "flooded": false,
                        "pathable": false,
                        "mergeable": false,
                        "no_features": false
                    },
                    {
                        "spec": "/pa/terrain/lava/brushes/lava_plateau_03.json",
                        "weight": [
                            1,
                            1,
                            1,
                            1
                        ],
                        "proj": "BP_Bend",
                        "op": "BO_Add",
                        "transform": [
                            1.087315320968628,
                            0.2255500853061676,
                            1.3283621072769165,
                            293.90667724609375,
                            0.17039193212985992,
                            1.6702253818511963,
                            -0.4230692386627197,
                            -93.60615539550781,
                            -1.336557388305664,
                            0.3964191675186157,
                            1.0267130136489868,
                            227.1653289794922
                        ],
                        "scale": [
                            1.7313790321350098,
                            1.7313790321350098,
                            1.7313790321350098
                        ],
                        "rotation": -0.019999999552965164,
                        "position": [
                            292.37225341796875,
                            -93.11746215820312,
                            225.97933959960938
                        ],
                        "height": 383.076171875,
                        "weightHard": false,
                        "weightScale": [
                            1,
                            1,
                            1
                        ],
                        "mirrored": false,
                        "twinId": 3,
                        "flooded": false,
                        "pathable": false,
                        "mergeable": false,
                        "no_features": false
                    },
                    {
                        "spec": "/pa/terrain/lava/brushes/lava_plateau_03.json",
                        "weight": [
                            1,
                            1,
                            1,
                            1
                        ],
                        "proj": "BP_Bend",
                        "op": "BO_Add",
                        "transform": [
                            1.087315320968628,
                            0.2255500853061676,
                            1.3283621072769165,
                            293.90667724609375,
                            0.17039193212985992,
                            1.6702253818511963,
                            -0.4230692386627197,
                            -93.60615539550781,
                            1.336557388305664,
                            -0.3964191675186157,
                            -1.0267130136489868,
                            -227.16534423828125
                        ],
                        "scale": [
                            1.7313790321350098,
                            1.7313790321350098,
                            1.7313790321350098
                        ],
                        "rotation": -0.019999999552965164,
                        "position": [
                            292.37225341796875,
                            -93.11746215820312,
                            225.97933959960938
                        ],
                        "height": 383.076171875,
                        "weightHard": false,
                        "weightScale": [
                            1,
                            1,
                            1
                        ],
                        "mirrored": true,
                        "twinId": 3,
                        "flooded": false,
                        "pathable": false,
                        "mergeable": false,
                        "no_features": false
                    },
                    {
                        "spec": "/pa/terrain/lava/brushes/lava_plateau_03.json",
                        "weight": [
                            1,
                            1,
                            1,
                            1
                        ],
                        "proj": "BP_Bend",
                        "op": "BO_Add",
                        "transform": [
                            0.5037195086479187,
                            -1.8779823780059814,
                            -0.823024332523346,
                            -145.1901397705078,
                            1.6019688844680786,
                            0.8894346952438354,
                            -1.0490574836730957,
                            -185.06475830078125,
                            1.2797977924346924,
                            -0.37417665123939514,
                            1.6370795965194702,
                            288.79803466796875
                        ],
                        "scale": [
                            2.1113786697387695,
                            2.1113786697387695,
                            2.1113786697387695
                        ],
                        "rotation": 1.1899992227554321,
                        "position": [
                            -145.19012451171875,
                            -185.06475830078125,
                            288.79803466796875
                        ],
                        "height": 372.4693908691406,
                        "weightHard": false,
                        "weightScale": [
                            1,
                            1,
                            1
                        ],
                        "mirrored": false,
                        "twinId": 4,
                        "flooded": false,
                        "pathable": false,
                        "mergeable": false,
                        "no_features": false
                    },
                    {
                        "spec": "/pa/terrain/lava/brushes/lava_plateau_03.json",
                        "weight": [
                            1,
                            1,
                            1,
                            1
                        ],
                        "proj": "BP_Bend",
                        "op": "BO_Add",
                        "transform": [
                            0.5037195086479187,
                            -1.8779823780059814,
                            -0.823024332523346,
                            -145.1901397705078,
                            1.6019688844680786,
                            0.8894346952438354,
                            -1.0490574836730957,
                            -185.06475830078125,
                            -1.2797977924346924,
                            0.37417665123939514,
                            -1.6370795965194702,
                            -288.79803466796875
                        ],
                        "scale": [
                            2.1113786697387695,
                            2.1113786697387695,
                            2.1113786697387695
                        ],
                        "rotation": 1.1899992227554321,
                        "position": [
                            -145.19012451171875,
                            -185.06475830078125,
                            288.79803466796875
                        ],
                        "height": 372.4693908691406,
                        "weightHard": false,
                        "weightScale": [
                            1,
                            1,
                            1
                        ],
                        "mirrored": true,
                        "twinId": 4,
                        "flooded": false,
                        "pathable": false,
                        "mergeable": false,
                        "no_features": false
                    }
                ],
                "metal_spots": [
                    [
                        -65.87629699707031,
                        -147.2615966796875,
                        340.978271484375
                    ],
                    [
                        -43.195335388183594,
                        -109.96556091308594,
                        357.8524169921875
                    ],
                    [
                        20.824399948120117,
                        -173.8339385986328,
                        339.14117431640625
                    ],
                    [
                        328.5726013183594,
                        -130.24041748046875,
                        143.96820068359375
                    ],
                    [
                        262.2158508300781,
                        -205.71957397460938,
                        183.00791931152344
                    ],
                    [
                        -65.87629699707031,
                        -147.2615966796875,
                        -340.978271484375
                    ],
                    [
                        -43.195335388183594,
                        -109.96556091308594,
                        -357.8524169921875
                    ],
                    [
                        20.824399948120117,
                        -173.8339385986328,
                        -339.14117431640625
                    ],
                    [
                        328.5726013183594,
                        -130.24041748046875,
                        -143.96820068359375
                    ],
                    [
                        262.2158508300781,
                        -205.71957397460938,
                        -183.00791931152344
                    ],
                    [
                        335.013427734375,
                        144.96664428710938,
                        -85.75653076171875
                    ],
                    [
                        335.013427734375,
                        144.96664428710938,
                        85.75653076171875
                    ],
                    [
                        155.60354614257812,
                        -59.30668640136719,
                        -336.1956787109375
                    ],
                    [
                        155.60354614257812,
                        -59.30668640136719,
                        336.1956787109375
                    ],
                    [
                        141.603515625,
                        -109.31063079833984,
                        -334.2354736328125
                    ],
                    [
                        141.603515625,
                        -109.31063079833984,
                        334.2354736328125
                    ],
                    [
                        278.1591796875,
                        15.802597045898438,
                        -251.68666076660156
                    ],
                    [
                        278.1591796875,
                        15.802597045898438,
                        251.68666076660156
                    ],
                    [
                        372.96734619140625,
                        25.438186645507812,
                        -68.73824310302734
                    ],
                    [
                        372.96734619140625,
                        25.438186645507812,
                        68.73824310302734
                    ],
                    [
                        230.34042358398438,
                        -288.892578125,
                        -58.048736572265625
                    ],
                    [
                        230.34042358398438,
                        -288.892578125,
                        58.048736572265625
                    ],
                    [
                        -205.277587890625,
                        -210.91912841796875,
                        229.74365234375
                    ],
                    [
                        -205.277587890625,
                        -210.91912841796875,
                        -229.74365234375
                    ],
                    [
                        -319.80914306640625,
                        -166.741455078125,
                        -93.02914428710938
                    ],
                    [
                        -319.80914306640625,
                        -166.741455078125,
                        93.02914428710938
                    ],
                    [
                        328.6061096191406,
                        -175.2919921875,
                        -59.34098815917969
                    ],
                    [
                        328.6061096191406,
                        -175.2919921875,
                        59.34098815917969
                    ],
                    [
                        -91.61686706542969,
                        -332.9974365234375,
                        142.4405059814453
                    ],
                    [
                        -91.61686706542969,
                        -332.9974365234375,
                        -142.4405059814453
                    ],
                    [
                        4.0678558349609375,
                        -293.59490966796875,
                        -229.46653747558594
                    ],
                    [
                        4.0678558349609375,
                        -293.59490966796875,
                        229.46653747558594
                    ],
                    [
                        -340.00701904296875,
                        -149.769775390625,
                        -42.129981994628906
                    ],
                    [
                        -340.00701904296875,
                        -149.769775390625,
                        42.129981994628906
                    ],
                    [
                        -189.5653839111328,
                        -311.2296142578125,
                        -87.11509704589844
                    ],
                    [
                        -189.5653839111328,
                        -311.2296142578125,
                        87.11509704589844
                    ],
                    [
                        171.38905334472656,
                        -222.28231811523438,
                        -256.367431640625
                    ],
                    [
                        171.38905334472656,
                        -222.28231811523438,
                        256.367431640625
                    ],
                    [
                        365.122314453125,
                        88.04426574707031,
                        -50.94398498535156
                    ],
                    [
                        365.122314453125,
                        88.04426574707031,
                        50.94398498535156
                    ]
                ]
            },
            "planetCSG": [
                {
                    "weight": [
                        1,
                        1,
                        1,
                        1
                    ],
                    "spec": "/pa/terrain/lava/brushes/lava_plateau_03.json",
                    "proj": "BP_Bend",
                    "transform": [
                        0.3581010699272156,
                        -1.0111808776855469,
                        1.2024222612380981,
                        282.40167236328125,
                        0.8327130079269409,
                        -0.9236236214637756,
                        -1.0247199535369873,
                        -240.66636657714844,
                        1.3322519063949585,
                        0.8491024971008301,
                        0.3172890245914459,
                        74.5186996459961
                    ],
                    "op": "BO_Add",
                    "rotation": 1.8683886528015137,
                    "scale": [
                        1.6113791465759277,
                        1.6113791465759277,
                        1.6113791465759277
                    ],
                    "height": 378.44952392578125,
                    "position": [
                        282.40167236328125,
                        -240.6663818359375,
                        74.51869201660156
                    ],
                    "weightHard": false,
                    "weightScale": [
                        1,
                        1,
                        1
                    ],
                    "mirrored": false,
                    "twinId": 1,
                    "flooded": false,
                    "pathable": false,
                    "mergeable": false,
                    "no_features": false
                },
                {
                    "weight": [
                        1,
                        1,
                        1,
                        1
                    ],
                    "spec": "/pa/terrain/lava/brushes/lava_plateau_03.json",
                    "proj": "BP_Bend",
                    "transform": [
                        0.3581010699272156,
                        -1.0111808776855469,
                        1.2024222612380981,
                        282.40167236328125,
                        0.8327130079269409,
                        -0.9236236214637756,
                        -1.0247199535369873,
                        -240.66636657714844,
                        -1.3322519063949585,
                        -0.8491024971008301,
                        -0.3172890245914459,
                        -74.5186996459961
                    ],
                    "op": "BO_Add",
                    "rotation": 1.8683886528015137,
                    "scale": [
                        1.6113791465759277,
                        1.6113791465759277,
                        1.6113791465759277
                    ],
                    "height": 378.44952392578125,
                    "position": [
                        282.40167236328125,
                        -240.6663818359375,
                        74.51869201660156
                    ],
                    "weightHard": false,
                    "weightScale": [
                        1,
                        1,
                        1
                    ],
                    "mirrored": true,
                    "twinId": 1,
                    "flooded": false,
                    "pathable": false,
                    "mergeable": false,
                    "no_features": false
                },
                {
                    "weight": [
                        1,
                        1,
                        1,
                        1
                    ],
                    "spec": "/pa/terrain/lava/brushes/lava_plateau_03.json",
                    "proj": "BP_Bend",
                    "transform": [
                        0.2648496627807617,
                        -0.0039536431431770325,
                        1.5894596576690674,
                        383.2233581542969,
                        1.486728310585022,
                        0.5705366134643555,
                        -0.24631251394748688,
                        -59.38666915893555,
                        -0.5621713399887085,
                        1.506988763809204,
                        0.09742239862680435,
                        23.488826751708984
                    ],
                    "op": "BO_Add",
                    "rotation": 1.0599993467330933,
                    "scale": [
                        1.6113791465759277,
                        1.6113791465759277,
                        1.6113791465759277
                    ],
                    "height": 388.50823974609375,
                    "position": [
                        376.318603515625,
                        -58.31666564941406,
                        23.065635681152344
                    ],
                    "weightHard": false,
                    "weightScale": [
                        1,
                        1,
                        1
                    ],
                    "mirrored": false,
                    "twinId": 2,
                    "flooded": false,
                    "pathable": false,
                    "mergeable": false,
                    "no_features": false
                },
                {
                    "weight": [
                        1,
                        1,
                        1,
                        1
                    ],
                    "spec": "/pa/terrain/lava/brushes/lava_plateau_03.json",
                    "proj": "BP_Bend",
                    "transform": [
                        0.2648496627807617,
                        -0.0039536431431770325,
                        1.5894596576690674,
                        383.2233581542969,
                        1.486728310585022,
                        0.5705366134643555,
                        -0.24631251394748688,
                        -59.38666915893555,
                        0.5621713399887085,
                        -1.506988763809204,
                        -0.09742239862680435,
                        -23.488826751708984
                    ],
                    "op": "BO_Add",
                    "rotation": 1.0599993467330933,
                    "scale": [
                        1.6113791465759277,
                        1.6113791465759277,
                        1.6113791465759277
                    ],
                    "height": 388.50823974609375,
                    "position": [
                        376.318603515625,
                        -58.31666564941406,
                        23.065635681152344
                    ],
                    "weightHard": false,
                    "weightScale": [
                        1,
                        1,
                        1
                    ],
                    "mirrored": true,
                    "twinId": 2,
                    "flooded": false,
                    "pathable": false,
                    "mergeable": false,
                    "no_features": false
                },
                {
                    "weight": [
                        1,
                        1,
                        1,
                        1
                    ],
                    "spec": "/pa/terrain/lava/brushes/lava_plateau_03.json",
                    "proj": "BP_Bend",
                    "transform": [
                        1.087315320968628,
                        0.2255500853061676,
                        1.3283621072769165,
                        293.90667724609375,
                        0.17039193212985992,
                        1.6702253818511963,
                        -0.4230692386627197,
                        -93.60615539550781,
                        -1.336557388305664,
                        0.3964191675186157,
                        1.0267130136489868,
                        227.1653289794922
                    ],
                    "op": "BO_Add",
                    "rotation": -0.019999999552965164,
                    "scale": [
                        1.7313790321350098,
                        1.7313790321350098,
                        1.7313790321350098
                    ],
                    "height": 383.076171875,
                    "position": [
                        292.37225341796875,
                        -93.11746215820312,
                        225.97933959960938
                    ],
                    "weightHard": false,
                    "weightScale": [
                        1,
                        1,
                        1
                    ],
                    "mirrored": false,
                    "twinId": 3,
                    "flooded": false,
                    "pathable": false,
                    "mergeable": false,
                    "no_features": false
                },
                {
                    "weight": [
                        1,
                        1,
                        1,
                        1
                    ],
                    "spec": "/pa/terrain/lava/brushes/lava_plateau_03.json",
                    "proj": "BP_Bend",
                    "transform": [
                        1.087315320968628,
                        0.2255500853061676,
                        1.3283621072769165,
                        293.90667724609375,
                        0.17039193212985992,
                        1.6702253818511963,
                        -0.4230692386627197,
                        -93.60615539550781,
                        1.336557388305664,
                        -0.3964191675186157,
                        -1.0267130136489868,
                        -227.16534423828125
                    ],
                    "op": "BO_Add",
                    "rotation": -0.019999999552965164,
                    "scale": [
                        1.7313790321350098,
                        1.7313790321350098,
                        1.7313790321350098
                    ],
                    "height": 383.076171875,
                    "position": [
                        292.37225341796875,
                        -93.11746215820312,
                        225.97933959960938
                    ],
                    "weightHard": false,
                    "weightScale": [
                        1,
                        1,
                        1
                    ],
                    "mirrored": true,
                    "twinId": 3,
                    "flooded": false,
                    "pathable": false,
                    "mergeable": false,
                    "no_features": false
                },
                {
                    "weight": [
                        1,
                        1,
                        1,
                        1
                    ],
                    "spec": "/pa/terrain/lava/brushes/lava_plateau_03.json",
                    "proj": "BP_Bend",
                    "transform": [
                        0.5037195086479187,
                        -1.8779823780059814,
                        -0.823024332523346,
                        -145.1901397705078,
                        1.6019688844680786,
                        0.8894346952438354,
                        -1.0490574836730957,
                        -185.06475830078125,
                        1.2797977924346924,
                        -0.37417665123939514,
                        1.6370795965194702,
                        288.79803466796875
                    ],
                    "op": "BO_Add",
                    "rotation": 1.1899992227554321,
                    "scale": [
                        2.1113786697387695,
                        2.1113786697387695,
                        2.1113786697387695
                    ],
                    "height": 372.4693908691406,
                    "position": [
                        -145.19012451171875,
                        -185.06475830078125,
                        288.79803466796875
                    ],
                    "weightHard": false,
                    "weightScale": [
                        1,
                        1,
                        1
                    ],
                    "mirrored": false,
                    "twinId": 4,
                    "flooded": false,
                    "pathable": false,
                    "mergeable": false,
                    "no_features": false
                },
                {
                    "weight": [
                        1,
                        1,
                        1,
                        1
                    ],
                    "spec": "/pa/terrain/lava/brushes/lava_plateau_03.json",
                    "proj": "BP_Bend",
                    "transform": [
                        0.5037195086479187,
                        -1.8779823780059814,
                        -0.823024332523346,
                        -145.1901397705078,
                        1.6019688844680786,
                        0.8894346952438354,
                        -1.0490574836730957,
                        -185.06475830078125,
                        -1.2797977924346924,
                        0.37417665123939514,
                        -1.6370795965194702,
                        -288.79803466796875
                    ],
                    "op": "BO_Add",
                    "rotation": 1.1899992227554321,
                    "scale": [
                        2.1113786697387695,
                        2.1113786697387695,
                        2.1113786697387695
                    ],
                    "height": 372.4693908691406,
                    "position": [
                        -145.19012451171875,
                        -185.06475830078125,
                        288.79803466796875
                    ],
                    "weightHard": false,
                    "weightScale": [
                        1,
                        1,
                        1
                    ],
                    "mirrored": true,
                    "twinId": 4,
                    "flooded": false,
                    "pathable": false,
                    "mergeable": false,
                    "no_features": false
                }
            ],
            "metal_spots": [
                [
                    -65.87629699707031,
                    -147.2615966796875,
                    340.978271484375
                ],
                [
                    -43.195335388183594,
                    -109.96556091308594,
                    357.8524169921875
                ],
                [
                    20.824399948120117,
                    -173.8339385986328,
                    339.14117431640625
                ],
                [
                    328.5726013183594,
                    -130.24041748046875,
                    143.96820068359375
                ],
                [
                    262.2158508300781,
                    -205.71957397460938,
                    183.00791931152344
                ],
                [
                    -65.87629699707031,
                    -147.2615966796875,
                    -340.978271484375
                ],
                [
                    -43.195335388183594,
                    -109.96556091308594,
                    -357.8524169921875
                ],
                [
                    20.824399948120117,
                    -173.8339385986328,
                    -339.14117431640625
                ],
                [
                    328.5726013183594,
                    -130.24041748046875,
                    -143.96820068359375
                ],
                [
                    262.2158508300781,
                    -205.71957397460938,
                    -183.00791931152344
                ],
                [
                    335.013427734375,
                    144.96664428710938,
                    -85.75653076171875
                ],
                [
                    335.013427734375,
                    144.96664428710938,
                    85.75653076171875
                ],
                [
                    155.60354614257812,
                    -59.30668640136719,
                    -336.1956787109375
                ],
                [
                    155.60354614257812,
                    -59.30668640136719,
                    336.1956787109375
                ],
                [
                    141.603515625,
                    -109.31063079833984,
                    -334.2354736328125
                ],
                [
                    141.603515625,
                    -109.31063079833984,
                    334.2354736328125
                ],
                [
                    278.1591796875,
                    15.802597045898438,
                    -251.68666076660156
                ],
                [
                    278.1591796875,
                    15.802597045898438,
                    251.68666076660156
                ],
                [
                    372.96734619140625,
                    25.438186645507812,
                    -68.73824310302734
                ],
                [
                    372.96734619140625,
                    25.438186645507812,
                    68.73824310302734
                ],
                [
                    230.34042358398438,
                    -288.892578125,
                    -58.048736572265625
                ],
                [
                    230.34042358398438,
                    -288.892578125,
                    58.048736572265625
                ],
                [
                    -205.277587890625,
                    -210.91912841796875,
                    229.74365234375
                ],
                [
                    -205.277587890625,
                    -210.91912841796875,
                    -229.74365234375
                ],
                [
                    -319.80914306640625,
                    -166.741455078125,
                    -93.02914428710938
                ],
                [
                    -319.80914306640625,
                    -166.741455078125,
                    93.02914428710938
                ],
                [
                    328.6061096191406,
                    -175.2919921875,
                    -59.34098815917969
                ],
                [
                    328.6061096191406,
                    -175.2919921875,
                    59.34098815917969
                ],
                [
                    -91.61686706542969,
                    -332.9974365234375,
                    142.4405059814453
                ],
                [
                    -91.61686706542969,
                    -332.9974365234375,
                    -142.4405059814453
                ],
                [
                    4.0678558349609375,
                    -293.59490966796875,
                    -229.46653747558594
                ],
                [
                    4.0678558349609375,
                    -293.59490966796875,
                    229.46653747558594
                ],
                [
                    -340.00701904296875,
                    -149.769775390625,
                    -42.129981994628906
                ],
                [
                    -340.00701904296875,
                    -149.769775390625,
                    42.129981994628906
                ],
                [
                    -189.5653839111328,
                    -311.2296142578125,
                    -87.11509704589844
                ],
                [
                    -189.5653839111328,
                    -311.2296142578125,
                    87.11509704589844
                ],
                [
                    171.38905334472656,
                    -222.28231811523438,
                    -256.367431640625
                ],
                [
                    171.38905334472656,
                    -222.28231811523438,
                    256.367431640625
                ],
                [
                    365.122314453125,
                    88.04426574707031,
                    -50.94398498535156
                ],
                [
                    365.122314453125,
                    88.04426574707031,
                    50.94398498535156
                ]
            ]
        }
    ]
}